{
    "settings": {
        "batch_size": 12,
        "loss_function": "multiclass_cross_entropy",
        "output_size": 2,
        "hidden_size": 106,
        "avaible_id": 2,
        "activation_fun": "Sigmoid",
        "convolution": false,
        "input_size": 106,
        "input_shape": null,
        "kernel_size": null,
        "depth": null,
        "optimizer": {
            "optimzierType": "SGD",
            "layerType": "Dense",
            "weights_clip_range": 3
        }
    },
    "hidden_layers": {},
    "input_layers": {
        "init_0": {
            "id": "init_0",
            "act_fun": "Sigmoid",
            "is_ending": false,
            "is_starting": true,
            "input_layers_ids": [],
            "output_layers_ids": [
                "1"
            ],
            "optimizer": {
                "optimzierType": "SGD",
                "layerType": "Dense",
                "weights_clip_range": 3
            },
            "reshapers": {},
            "weights": {
                "W": [
                    [
                        -1.210527683549731,
                        -0.6104470934935244,
                        0.18239985726445213,
                        1.9488746489320226,
                        1.8046461071042847,
                        -0.8593126446484856,
                        0.23212010821964033,
                        -0.9549447755701237,
                        0.31587741215367376,
                        0.8021399875973633,
                        -0.014369669064542559,
                        -0.6146363945650245,
                        -0.7847230444946183,
                        2.048358132091601,
                        1.8824230444874135,
                        -0.5855779864194764,
                        -0.7734948485017998,
                        0.9347844129953943,
                        -1.1461368908612501,
                        0.2827858391613658,
                        -1.2814387826391065,
                        -0.037494704657462026,
                        0.15720130768634794,
                        0.07204753694613628,
                        1.4574443236733252,
                        0.36375030850585593,
                        0.9285847004379411,
                        -0.2872675952231396,
                        0.7904372000121473,
                        0.6805954980840362,
                        1.3395171720213472,
                        1.5884897900714174,
                        -0.10103857458985373,
                        0.07929436659950587,
                        -1.971111344452367,
                        -0.1758663058173673,
                        0.9547033861898859,
                        0.5989745456222648,
                        -1.330373653733055,
                        -0.45511469681248756,
                        1.1909072653717878,
                        -1.536761839237392,
                        0.8481667637263407,
                        -1.439737402928505,
                        2.5342973495945733,
                        -1.095257767569893,
                        -2.4693647148629694,
                        0.754007103022926,
                        -1.2763025847516654,
                        0.4054010674164255,
                        -0.19880495500437642,
                        1.4758593480874491,
                        -0.5429468583305439,
                        0.14565382357082718,
                        2.01100487617013,
                        0.38089538114653904,
                        0.20036830686768153,
                        -1.1319059914384766,
                        -0.4532240753226718,
                        0.3319429124762235,
                        0.7919054300095648,
                        -0.08822183381749485,
                        0.05519483606579209,
                        0.5055032314836565,
                        0.10120094958194722,
                        0.9940878990778331,
                        0.022724149316318613,
                        -0.09111600657409849,
                        -0.1295287302510264,
                        -0.7057494681564712,
                        -2.2258089522200204,
                        -0.21055461137383552,
                        -0.8822774684623049,
                        0.45242721573165273,
                        0.9716820084740146,
                        -0.7142862571467041,
                        0.0671368301571346,
                        -1.7122537330989334,
                        0.04757134413080148,
                        0.18814810452633984,
                        0.28961146692119344,
                        -0.1749164974105195,
                        -0.787770185892214,
                        1.0313383473166409,
                        0.9149557144126353,
                        1.2616342709446051,
                        1.3038631498008426,
                        0.36915392660572294,
                        -1.0363448928404857,
                        1.187282835375008,
                        -0.10198997478156872,
                        -0.14827291152398225,
                        -1.6587556317164243,
                        -2.65804286461941,
                        -0.8717654446001867,
                        0.5409709017213357,
                        -1.664309129076884,
                        0.11383802491462017,
                        2.561790481925679,
                        -1.919833843387127,
                        1.7828405532387477,
                        -0.3407289262758544,
                        -0.3247729395299167,
                        -0.06668895559187774,
                        0.17496962436375832,
                        2.542461733689259
                    ],
                    [
                        0.09484597293128035,
                        -0.9685325556644314,
                        0.20174770479046164,
                        -2.9926075618150776,
                        -1.5767495952845618,
                        -0.5562419262494215,
                        -1.0647338510369861,
                        0.7027117281550544,
                        -0.20938200691104197,
                        0.506249030382406,
                        -0.4067855045084164,
                        0.09240484438062548,
                        -1.7314107732078947,
                        1.372478016431165,
                        -1.366705494276323,
                        -0.032985784930732384,
                        -0.17880798127774342,
                        0.9865761037864234,
                        0.6027472045219471,
                        1.002115699605224,
                        1.449950278838954,
                        -0.9127458509151449,
                        -0.07784999369494387,
                        -1.3413707245878335,
                        -1.4909028135481508,
                        0.7984447825893672,
                        0.22124060006759094,
                        0.869575726669643,
                        0.7845200382603081,
                        0.23837552536704884,
                        -0.839633956906743,
                        -1.3079721058338494,
                        0.19237335481095175,
                        0.03627797530253696,
                        -1.3049890297860762,
                        1.3705934618515507,
                        0.5276937482981848,
                        -1.5296670202261815,
                        -0.5634182510583038,
                        0.012650587766753082,
                        0.8722025269015262,
                        -0.6822139584694187,
                        0.662499123843991,
                        0.5315688090432537,
                        -1.001722277056055,
                        1.2697852388792685,
                        -1.4732112768280472,
                        -1.7686923878775425,
                        -0.29143607288949774,
                        0.3896716305198642,
                        -1.9204825076602534,
                        -0.626538641228026,
                        0.5446451825321524,
                        1.0881112832465685,
                        0.9367731027242792,
                        -0.9656846610261653,
                        -0.9495892460875304,
                        0.4806874731526703,
                        0.7291252573363076,
                        -0.20362907858674362,
                        -1.5615871354609925,
                        0.80967840220598,
                        -0.0818089295837405,
                        0.9103675019831324,
                        0.3097009084084709,
                        0.3088968410485971,
                        -0.08197451705568719,
                        -0.858653321969312,
                        0.010836851048474238,
                        -1.1974742961817442,
                        -1.0382990511544667,
                        -1.9817272056875914,
                        1.8560056586281843,
                        1.8525723068423794,
                        1.679151761966586,
                        0.22777634987426756,
                        -0.9469101986663377,
                        0.0830066037333408,
                        0.42535609839389527,
                        0.882807978557955,
                        1.585823770677311,
                        0.36027572558169024,
                        0.5660987391157558,
                        -1.0197945508288166,
                        -0.8184114727380616,
                        0.0843426074504865,
                        -0.8936069395247955,
                        0.7260977248246959,
                        -0.30925518968992255,
                        -2.2479363575057203,
                        -2.0260665674194636,
                        0.09686163049117734,
                        0.3267035526850216,
                        0.9622268694710141,
                        1.2114989902581688,
                        0.40353926025986003,
                        1.3685085441677873,
                        0.2632122033806397,
                        -0.5681484725073735,
                        -0.2633404335812772,
                        -1.8245262932303588,
                        -1.8594620337835943,
                        -0.5455086223828032,
                        0.7696769360220914,
                        -1.4354792519372492,
                        1.2755368223820072
                    ],
                    [
                        -0.9044281848500432,
                        0.6585334379852995,
                        -0.34876440696476874,
                        0.21102449985224822,
                        1.1096345732646757,
                        -0.09011838874640324,
                        -0.8902479873327421,
                        0.6972141749056121,
                        0.6411252005778418,
                        -2.9842973252041225,
                        -1.1538249070967894,
                        0.3419613455962857,
                        -0.12505429623291847,
                        1.831074107031175,
                        -0.27734857406069463,
                        -0.33820728845981074,
                        0.48414759377582567,
                        0.7214073848992038,
                        1.3077200790262666,
                        -1.19674472324845,
                        0.5261490003643134,
                        -1.6258948192100742,
                        0.985872718642566,
                        -1.2477746084936072,
                        -0.27249652079077935,
                        0.7109698469653469,
                        -1.3649570260752106,
                        -0.7907347931306866,
                        -0.230325694464538,
                        0.0466214711315085,
                        -0.27955792429029747,
                        -2.730053202430265,
                        -1.0438350840764845,
                        0.8125703517938877,
                        -0.48855680490701725,
                        2.5182159406807245,
                        -0.6576174195723493,
                        -1.1914542407447357,
                        -0.3913352495709243,
                        0.03517671106490334,
                        -0.7900103829891056,
                        -1.948202818216778,
                        -0.8611422388646304,
                        -2.578209410914269,
                        -1.2249766806261704,
                        -0.21219776036107166,
                        -1.7168852976064362,
                        0.958543767738969,
                        0.12032164355541979,
                        -1.30942867207576,
                        0.007551677223277264,
                        0.6661492951692987,
                        -1.0529718729991342,
                        0.21442294706920334,
                        1.6982468270759346,
                        0.754369032627371,
                        1.2688986477541517,
                        -1.7435613612701037,
                        0.6636262206001257,
                        0.5953640839594518,
                        1.3005510856491636,
                        -0.1963867387598801,
                        0.7021065102645625,
                        -1.2253636486537896,
                        0.15402708585184566,
                        -1.1807248086266136,
                        1.3447764417345125,
                        1.219836108180193,
                        -0.3946753373857286,
                        0.2097429020781647,
                        0.2367622089848113,
                        0.595282506175673,
                        -0.5220832572407795,
                        1.207797623241873,
                        -1.748433074222758,
                        0.16424217526339033,
                        -0.07614696860354826,
                        -1.7667813088088495,
                        -0.6004191932665517,
                        -1.0052848781446209,
                        0.38268943193621646,
                        -0.2870389300958637,
                        1.7107150094260546,
                        -1.07286005689338,
                        -0.9226254331515389,
                        -2.11058770800938,
                        1.5599832909711926,
                        1.238822975871655,
                        0.3105951618371766,
                        -0.34234965242852305,
                        0.5423345929345854,
                        0.27414960854608394,
                        0.31385911504790054,
                        -0.0075657515386302115,
                        0.5867530262802044,
                        -1.712319320816851,
                        0.6361138380301806,
                        1.5296293074768952,
                        0.5477429248149359,
                        0.22569826083295844,
                        1.007425179800153,
                        0.020171426846205525,
                        2.7698961201274543,
                        -1.7662423487336518,
                        -0.746979756525577,
                        -1.3761229463786262
                    ],
                    [
                        -0.2114874885055025,
                        -1.4599321262860798,
                        1.3921486153836269,
                        -2.808087519222809,
                        0.9372652915339268,
                        -1.712863933937245,
                        -0.2382125115218969,
                        -1.4776445008327384,
                        -0.9970788142578951,
                        -2.0004177129223613,
                        -0.4289513135412313,
                        0.16609934499649792,
                        0.16604172172027598,
                        -0.7013075963846017,
                        0.6896811163121537,
                        -0.40711655982177375,
                        1.1355580084462202,
                        0.413379807076181,
                        -1.7101332537498144,
                        0.7040168028957898,
                        -0.04770078790031672,
                        0.4307809567362024,
                        -1.4174185508316481,
                        1.2249972107772085,
                        0.7566378536698166,
                        0.18462492335529693,
                        -1.1342917140522188,
                        -0.6724803168887129,
                        -0.5079184671905717,
                        0.3912699157735349,
                        0.3608585627702535,
                        -0.5400987825156732,
                        0.7113427418293908,
                        -0.46555779034994477,
                        -1.5024376619243738,
                        0.7242579110976292,
                        -0.5043733435716165,
                        0.6007462974774878,
                        2.2496375491690057,
                        -0.7000531296757355,
                        0.9517216398904754,
                        0.37679410275574143,
                        -1.0482641050399173,
                        0.959508545565214,
                        1.444384229070867,
                        -0.012638281285363373,
                        1.4958915768383212,
                        1.3582076471429831,
                        0.38067113679152026,
                        -0.7333800356868224,
                        -0.2668182530156716,
                        1.536476299538691,
                        -1.606957098985674,
                        -1.3155754532693746,
                        -0.06741169682926212,
                        -1.130475497677898,
                        -0.8764829532240618,
                        1.3500505365054607,
                        -1.2784440813691182,
                        -0.2214971077921606,
                        1.6764286218794684,
                        0.1705703923042826,
                        0.30401313504348393,
                        -0.26402707424005917,
                        0.12629799227579488,
                        -1.0838842553800903,
                        -0.6849370971576536,
                        -1.1735361564298588,
                        -0.02523645269245964,
                        -0.029717539378549807,
                        0.9996432701275572,
                        1.2587242437421022,
                        0.10757847591422344,
                        0.6459104139486558,
                        0.7829597397863362,
                        -1.0317977239947875,
                        -1.2021021718106453,
                        0.424054542400713,
                        0.10596186673371626,
                        0.14386121660917034,
                        -0.41439334165293185,
                        -1.9004824827383342,
                        -0.8962637751179158,
                        -0.8231597104872345,
                        -1.9355574388657706,
                        2.3712237811962544,
                        -1.1154473466045263,
                        1.0291848554845477,
                        1.0439718689774715,
                        -1.0537851441541626,
                        -0.142224043682424,
                        -0.6357601730855988,
                        -0.8898334462602439,
                        0.4868946712760613,
                        1.313981921142884,
                        0.553133639595635,
                        0.2194790719635056,
                        1.3772002596124564,
                        -0.8863973150559294,
                        0.47198588608402386,
                        0.04785913637601975,
                        -1.98363157421958,
                        0.6247528664424677,
                        -0.28663118352166367,
                        0.11082868299659343,
                        -0.42977262538127753
                    ],
                    [
                        -0.7694334475590441,
                        0.83203281278456,
                        -0.5462737701027683,
                        -0.5102704432305872,
                        -1.1543297548236324,
                        -1.8319414804466894,
                        0.0074562152331447045,
                        -0.5901849493408423,
                        -0.4256626049347153,
                        -1.2725157807638994,
                        1.4285480555031922,
                        -1.7352988347379237,
                        0.456881665180071,
                        1.2475850551811338,
                        -0.9549691665134926,
                        0.28939447830856063,
                        -1.6917760965684112,
                        -0.10133144238856513,
                        -0.15704922622738388,
                        -1.2953617641788393,
                        0.6489028769250271,
                        -0.4345384281119607,
                        -1.3519611923039967,
                        0.9688756725417935,
                        0.6437578000130353,
                        0.642766170425111,
                        -1.282320903341399,
                        0.3010031242341769,
                        0.17200804817168489,
                        -1.1540927542450983,
                        0.1813724981669481,
                        1.0575320546392855,
                        0.6677121665951758,
                        -1.091769149958108,
                        -0.880833310145274,
                        -0.16469491763342456,
                        -1.8095491005350166,
                        -0.527700575169771,
                        0.1538672204077926,
                        -0.8000968356121498,
                        -1.5089883966278537,
                        0.2364512914384774,
                        0.16830966477498965,
                        0.031997865310508106,
                        0.2359974464631479,
                        0.17494925969398392,
                        0.04962231211176496,
                        -0.9666573623611715,
                        2.0905886639266926,
                        0.7437504201050139,
                        -0.36497400328172286,
                        0.9783663259699542,
                        -0.7956550909134577,
                        -1.2808481061249604,
                        0.6241736490384406,
                        -1.3734457113207603,
                        0.761878815592597,
                        -1.962701921343327,
                        0.2701643931019596,
                        -1.2018449806805733,
                        0.2143716790145414,
                        -0.5654459189511231,
                        0.35327308878085373,
                        -1.5684924357805443,
                        -0.1148270054199863,
                        1.0835432986476397,
                        -0.23667854763951363,
                        -0.49196769548015246,
                        0.6122175783195173,
                        -0.313979640980356,
                        -0.21012075435957947,
                        -0.1816850858166074,
                        -0.7874380231735817,
                        -0.8860566738134819,
                        -0.5657850072385762,
                        0.4315769515691337,
                        -1.669651020521055,
                        -0.015536117290617879,
                        -0.6774907350618022,
                        -0.7387860841955385,
                        -0.29170674626564547,
                        0.37968687250747735,
                        1.3519535205026003,
                        0.11446926747331956,
                        0.6046984635292157,
                        0.5262884632610086,
                        -0.2780179358920471,
                        0.36081560818011343,
                        -0.38154288305024847,
                        -0.848920053553508,
                        -0.31791708963018056,
                        -0.3054135223634503,
                        -1.2738303178888122,
                        -1.496756565453255,
                        -0.9984941692576169,
                        2.2106663560203255,
                        2.006539150117494,
                        0.47481337025305287,
                        0.23384587783898542,
                        -0.2302805728466323,
                        0.381408332736419,
                        -0.7351807539277384,
                        -1.1652953176218808,
                        -0.5188935814319242,
                        -0.9765606226800676,
                        2.2669416799399182
                    ],
                    [
                        0.5519035424025144,
                        0.6015522052205072,
                        -0.8229113300885702,
                        0.7404178714555153,
                        -0.36957613016636115,
                        0.8757171925685144,
                        1.1076138571509309,
                        -0.48714648542821776,
                        1.149500769204684,
                        0.8740312553598347,
                        0.35859952488701063,
                        0.15204758212211666,
                        -0.33244087027179714,
                        0.7383477799859182,
                        -0.8835367061951718,
                        1.3049215943248167,
                        -0.3785457352758579,
                        0.831667340939503,
                        1.3545906051301595,
                        1.9148721798460064,
                        -1.0076872562084125,
                        1.215169835636184,
                        -0.6699178790149457,
                        1.2540114864322154,
                        0.47118040982859055,
                        -0.554854420849984,
                        -0.5003562177976402,
                        -1.6759544776259505,
                        1.1325895885970199,
                        0.7440626957731261,
                        -0.5848821896964054,
                        0.5787676729119925,
                        2.337855077313896,
                        -1.02009496583434,
                        -0.4022404681543378,
                        1.7515424310707814,
                        0.6663984202252013,
                        0.8240062396136413,
                        0.1192461726361451,
                        1.0643802315573867,
                        -0.7173550538968666,
                        -1.7417708980985147,
                        0.12605310488841784,
                        0.5037752275151116,
                        0.6939779452545518,
                        -1.2312644150443195,
                        0.5057706612446677,
                        0.7005360555792787,
                        1.5184818257064845,
                        0.5137411449489974,
                        -1.298374295908311,
                        2.006197657993001,
                        -2.4357094578128637,
                        -0.23032876086616855,
                        0.6093997151638765,
                        -0.13511108437732414,
                        -0.7157127014624378,
                        0.01742147471770358,
                        -0.814370187302862,
                        1.2403034659900312,
                        2.073722916439404,
                        0.26249594440637863,
                        -0.45097560534880143,
                        0.08286882521755386,
                        1.9430342870794859,
                        0.7930655555810552,
                        -0.034056026003383914,
                        1.4035160969540987,
                        0.5771980197952928,
                        1.404181951187478,
                        0.7712591924639858,
                        -1.6103595821945316,
                        1.2402500629575028,
                        -2.21010583775757,
                        -0.42524664964796555,
                        -0.3819377561734505,
                        -0.3771293834749874,
                        -0.41564828341355026,
                        0.9690653620274393,
                        1.4840746058883094,
                        0.6510599925920133,
                        -1.3879329144262613,
                        0.18282237863397116,
                        1.0710066886226675,
                        -2.7351491562764663,
                        -0.21218932748002198,
                        -0.220597433404588,
                        -0.39265656579852826,
                        -1.8990835302762417,
                        -0.3538462945754119,
                        1.1196353887060233,
                        -0.5919350023051095,
                        -0.10949792999878764,
                        -0.24824100030185162,
                        0.9482182510514864,
                        -1.0769332945438603,
                        2.154271055347587,
                        1.1886513903250666,
                        1.150104495155217,
                        -0.9404952576700184,
                        0.9378687880802831,
                        -1.7034653753742168,
                        -0.028271774508255458,
                        0.6144647935787582,
                        1.0810363214616496,
                        -1.6977903028460029
                    ],
                    [
                        2.623341716516648,
                        -0.44780545200358607,
                        -0.2969484716633084,
                        -0.1980828687570675,
                        0.640477371226627,
                        0.6454043306839269,
                        0.91606156575211,
                        1.5276198327437762,
                        -0.35911318883493437,
                        -0.7520240404395057,
                        -0.15787239377266765,
                        0.7098194061814866,
                        0.17661508357442648,
                        -1.145015894413649,
                        0.6818600848860171,
                        0.7088209517971781,
                        0.27265857949628114,
                        -0.7690599550250549,
                        0.995006436167928,
                        -0.19400989149187528,
                        -0.015689919052121738,
                        0.9835584398288243,
                        -0.47301244301470313,
                        -1.0910155947396927,
                        0.3092833509734893,
                        -0.8312695542615198,
                        -0.04126539134655894,
                        -0.7010203491133499,
                        0.7112108092975649,
                        0.8809112939111208,
                        0.4269669840619223,
                        -2.3144640179939793,
                        1.752726198408418,
                        0.5612084257128644,
                        0.1540694482957577,
                        -1.2612332954530519,
                        -1.405229311766459,
                        0.837765823094417,
                        -1.0133829678457078,
                        -0.16554042912649258,
                        -0.6190578428717604,
                        -1.2651817435953034,
                        -0.6325574506549421,
                        -0.7221401652631713,
                        1.8490997144191783,
                        -0.4436122711836598,
                        0.11268432223200378,
                        0.8607507144676844,
                        -1.4826147736366055,
                        -0.5798703887061883,
                        -1.5035290547081772,
                        -0.8069923916216174,
                        0.001185495933775322,
                        0.6994625626942202,
                        1.2503704792636035,
                        0.09070644942536753,
                        0.7567653706196698,
                        -1.005726547313493,
                        -1.42748170523912,
                        -0.6404860519389287,
                        0.8289015741126432,
                        -0.0263519217908432,
                        -0.06044433982902809,
                        1.2722788650759114,
                        -2.3966816391626358,
                        -2.37630294325457,
                        -0.3452956014431131,
                        -0.21271389199559107,
                        0.43564392571809646,
                        -1.676075667270119,
                        -0.13079771580808205,
                        -0.6759918897956521,
                        -1.2265831688043582,
                        -0.5282350794224109,
                        -0.609025588264857,
                        -0.20611197379722684,
                        -1.4636007526184913,
                        -1.1218471846488633,
                        -1.071069874250459,
                        0.22759326460897675,
                        -1.1850012053628778,
                        -1.059402651542112,
                        1.1918618207612304,
                        1.1854696742669675,
                        0.2546156622888577,
                        0.6738492727758914,
                        -0.3339132948404417,
                        0.5493005253236992,
                        -1.7643797698486245,
                        0.49349254649503727,
                        0.4179200011161447,
                        -1.2495154649250642,
                        0.14065450060233056,
                        0.28607791429521173,
                        0.8575815488275459,
                        -0.16690604134447817,
                        -2.227784706545249,
                        1.0878497363481405,
                        -1.146810929721106,
                        0.3400097124952483,
                        0.14060824168768368,
                        0.42648126310932094,
                        1.1429490101607727,
                        -0.7558894693497001,
                        -0.13694077009105843,
                        1.2174497538860398
                    ],
                    [
                        0.10286386426642209,
                        -1.3953427335876096,
                        -0.25642308478583153,
                        0.7673835308764436,
                        0.6192702758257569,
                        0.594703856014838,
                        1.320905850457473,
                        -1.0387096361339265,
                        0.11117986080135507,
                        0.1684712120404012,
                        -0.34236260063320956,
                        -1.5623960337750205,
                        -1.1703747423849054,
                        -0.7953502671425938,
                        0.27147874125996696,
                        -0.57400450206059,
                        1.4180683150823303,
                        -0.2162204103769649,
                        1.3450834923257966,
                        1.0260873599087041,
                        -1.8674581565896118,
                        -0.7380022281363775,
                        1.4698273853936394,
                        -0.8654781550225028,
                        0.3693890709061285,
                        -0.4662035645521553,
                        -1.0024115845375208,
                        -1.139914217316648,
                        -0.9081641992608264,
                        -0.9998797514897028,
                        -1.3451388760567857,
                        -0.8504464513691851,
                        0.141601359756544,
                        -0.814513563402862,
                        -1.357521812687459,
                        -0.07627364957732985,
                        -0.9596402452829911,
                        0.03018400554959974,
                        -0.19949646411852856,
                        0.1529433340290795,
                        -1.373745432631168,
                        -1.1367539983633048,
                        1.7500529917255057,
                        1.7443093792352524,
                        -0.2855575766534388,
                        0.47350441354101896,
                        -1.0571078874301036,
                        0.58745155760928,
                        -0.5324559740526685,
                        -1.333413301757491,
                        -2.0652861234006816,
                        -1.3438436793447592,
                        -1.4648408067512715,
                        1.3031298581159323,
                        -0.4377797826840223,
                        0.3283169505239356,
                        -1.1477719833202997,
                        -1.2412281210246707,
                        0.3737949668278999,
                        -0.4727531253161782,
                        2.230950492845873,
                        0.876553862591788,
                        0.08527780289709705,
                        1.518380846784094,
                        0.1076794965210793,
                        0.02063750128309956,
                        -2.2492615239764198,
                        -2.5345692998067064,
                        -0.7336915309783981,
                        1.5911787733539515,
                        -0.5430894694210233,
                        -1.0590038470924037,
                        -0.7769890511308375,
                        0.3165450346068622,
                        -1.8864350398633962,
                        0.060785616820309814,
                        0.37340326434408305,
                        -0.12262454399218242,
                        -2.8804212168646695,
                        -0.20054254869269755,
                        -0.18110148789319616,
                        -1.8758161336752148,
                        1.137446180755069,
                        0.2526352130153805,
                        -1.4522830121413755,
                        1.7212385458722714,
                        -0.9300428359591629,
                        0.4739955438319256,
                        0.15179412458972938,
                        0.6401406401305261,
                        -1.2074853857738455,
                        1.3447160010667887,
                        0.3772205963148407,
                        -2.376536421075015,
                        -0.9383386266820688,
                        -0.20840010460862998,
                        1.1867078136270521,
                        -1.040459423023436,
                        0.3447088229448981,
                        1.748464802239164,
                        -0.9847715275428773,
                        0.11093824681049048,
                        -0.5326865491560066,
                        -1.3302188035601599,
                        0.9580342306941506,
                        0.11660662576674505
                    ],
                    [
                        -0.8733016302198563,
                        0.6888450303637409,
                        0.5772247699131408,
                        0.18217822464311847,
                        -0.2864099502134088,
                        -0.2634824268910438,
                        -1.3055364039314463,
                        -0.5027432376499076,
                        0.2908420774450652,
                        1.305854002182521,
                        0.28100675729483177,
                        1.2037703461214697,
                        0.1447760921950348,
                        0.7551030780949342,
                        0.8136869118781858,
                        -0.11328137734004325,
                        -0.07965066595328174,
                        -0.6147762635328508,
                        -0.40501418121075344,
                        -0.7746979059013318,
                        0.6138624471718435,
                        -1.3821966331909923,
                        -0.4386069124762274,
                        -0.3439766731372815,
                        -0.8743502868822329,
                        -0.22503292634634758,
                        -0.123007765196512,
                        -1.433453328610285,
                        -0.13696916893688346,
                        -0.21052848431977117,
                        -0.47203591949269835,
                        -0.5054518029248491,
                        0.7589394189614934,
                        1.1015785238729563,
                        -0.46049218345976295,
                        -0.06799586184634192,
                        0.44103710641155663,
                        -0.6781780595257436,
                        0.3509899667160016,
                        0.5624216641622704,
                        -0.8220500871142886,
                        0.8506718123394645,
                        -0.07612214872119696,
                        -1.2294597733672834,
                        -1.3539375905242523,
                        0.8790805309894841,
                        -1.4716457629963615,
                        0.5475114709359614,
                        0.015151829819912439,
                        -1.499237358829658,
                        -0.3659251056982094,
                        -1.0442619229258372,
                        1.491443406667566,
                        2.4546272225740076,
                        1.1481874760247632,
                        0.6740196161323243,
                        0.21632857952551268,
                        -1.078014549334262,
                        -0.2911060785583115,
                        0.6419462193351597,
                        -0.21275460198787838,
                        -0.04285791440664828,
                        -1.7064293428204325,
                        -0.026249623428122305,
                        1.1498178983731981,
                        -0.7663135963478561,
                        -0.0541942162057882,
                        -1.1323092062565292,
                        -1.1741689070246526,
                        -1.0545397170512683,
                        -0.1989856803198457,
                        0.5601418890860651,
                        0.5674025202412292,
                        -1.4874971037822688,
                        -0.6155044852187797,
                        -1.8500249139256848,
                        -0.8863789037843484,
                        -1.1899380243615292,
                        -2.8856118747306687,
                        1.5723372917707839,
                        0.02522244086184584,
                        1.6996681817338348,
                        -0.7726902936866704,
                        -0.13440671163703027,
                        1.193224067422233,
                        -0.6144616533219569,
                        1.8775677540187072,
                        -1.4191776511397534,
                        -1.7169141151014036,
                        -0.7467952990307225,
                        0.48661656956591903,
                        -0.13912606464448574,
                        1.607006030728578,
                        -0.10504834373080348,
                        0.0006448641899161384,
                        -0.3127220249212452,
                        0.6838600784509122,
                        -1.736730264366888,
                        -1.636530591202886,
                        -0.6071009198775383,
                        -0.8306647900543819,
                        -0.4931027812725244,
                        -0.6210252791600108,
                        -0.7645596167642451,
                        -1.951794997977217,
                        0.6667290573049471
                    ],
                    [
                        -0.037877741559615846,
                        0.31303712801009886,
                        -1.642098081134836,
                        -0.31535941853281274,
                        -0.42235443477344414,
                        1.595840991093644,
                        -1.0685176137359562,
                        0.10486549378248189,
                        -0.12084780197744135,
                        -0.7170449024419142,
                        0.1940023881017106,
                        -1.305699943709646,
                        -0.0021549210332133953,
                        0.8021053146553175,
                        1.058170143848487,
                        -1.9911722840322943,
                        -1.6982652151319468,
                        -1.681150947829655,
                        -0.4666340014882174,
                        -0.594692638853602,
                        -1.2750821034419313,
                        -0.979283478078507,
                        0.08404140158961203,
                        -0.6061468238208011,
                        -0.239722525566224,
                        -0.6778885230344209,
                        -1.497690669530984,
                        1.0819666570889959,
                        2.883445564487154,
                        0.2951183983107897,
                        0.5784735261582985,
                        -0.8531653970194262,
                        -1.6092331098609436,
                        0.14112924722757023,
                        -1.2301401746810638,
                        0.4812480707944324,
                        -0.7196061046657845,
                        0.3818881991692358,
                        -1.873205162088957,
                        -0.41288527886169646,
                        -0.7037543610727551,
                        1.0088685710815997,
                        -1.4745156985425172,
                        -0.5526864147969338,
                        -0.3197208518221022,
                        -0.683136550742817,
                        -0.43520249835109753,
                        0.8745432056636687,
                        1.7223545325058274,
                        -1.0299323364662045,
                        -0.37858774536687106,
                        0.7931940257012968,
                        -0.1848938824118065,
                        0.0020902964011056606,
                        -0.5145362648208078,
                        -1.3211139207932507,
                        -0.3653174148635593,
                        -2.5130106688454177,
                        -0.816779663346559,
                        0.18555724252309985,
                        0.0256503000677955,
                        -0.7263021366655712,
                        1.3853816588961274,
                        0.4123316807094164,
                        -0.8281482476043274,
                        0.06214054667810325,
                        -0.07685612303589819,
                        -1.2113406608719548,
                        -0.8506719601077475,
                        -0.9394388507796683,
                        -0.9581738578382385,
                        -0.16997374420699202,
                        -0.2463535548041302,
                        -0.40507825557387633,
                        -0.9165610276421774,
                        -0.754753993924942,
                        -2.1561460945937236,
                        -0.5182884613643094,
                        -0.23592664766057908,
                        -1.0316395848916144,
                        -1.3523586349081271,
                        -1.2031537838713744,
                        0.928460294820139,
                        -1.2218688223898893,
                        -1.4377214951370854,
                        -1.4144327538322168,
                        1.3081350493010953,
                        1.4085058233598071,
                        1.2624870082707358,
                        1.1408491231879645,
                        -1.1232177399484435,
                        -0.6909514874664121,
                        -0.2951432508342887,
                        0.25934045764968955,
                        -0.6979538492479804,
                        -1.157858977631955,
                        -1.0291283634053585,
                        -0.308892121440999,
                        -1.0311407747478716,
                        -0.02426944325075908,
                        -0.05791824429531271,
                        0.5434727394012704,
                        -1.7352168682850218,
                        2.4968672097392686,
                        -0.29185062066931383,
                        -0.35545671648853855
                    ],
                    [
                        -0.3443614356887476,
                        -0.2237211806055874,
                        -1.3252545614839728,
                        0.1479812337655001,
                        0.6373629399057825,
                        -0.13139478879694666,
                        -0.29177272682390043,
                        -0.4820159607423428,
                        -0.6187422275571524,
                        -1.5645798843247212,
                        -0.7509991385472837,
                        1.9234994532088112,
                        -0.24859730580441897,
                        0.9278834248355838,
                        -0.8258031496943867,
                        -0.08840657654263205,
                        0.00758377970198188,
                        -0.6443761338180166,
                        -0.2097110094719511,
                        -0.6134594334983816,
                        -0.49448058161987185,
                        -1.7374997674149502,
                        -0.8430433255643688,
                        0.0930887236299173,
                        -0.7171797328419136,
                        0.8192788829425665,
                        -0.9308351686314358,
                        0.3302489771266083,
                        1.8383329572756733,
                        1.6595272726453474,
                        -0.28233782630278687,
                        -0.369198195054188,
                        0.04784712675435052,
                        0.3177120551971052,
                        -0.3886823999180929,
                        0.4651126964576908,
                        1.0127534647883738,
                        -2.3338938148913364,
                        -0.8181867604850922,
                        -0.5979108693341375,
                        1.1094564345914624,
                        -0.16866513877015785,
                        0.5876944468763659,
                        -0.5200609654132435,
                        0.9208222301309971,
                        -0.3309782689441525,
                        -0.37746107313989874,
                        -2.0674033311594093,
                        0.0500070469732268,
                        -0.7478184476076171,
                        1.081388351899367,
                        -0.44901863520771373,
                        -0.5940240005313904,
                        -0.6639353298443604,
                        -0.946773607831767,
                        -0.9963123884590608,
                        1.2710240465291678,
                        -1.0774664729168868,
                        0.6813811159555163,
                        0.5324037842061795,
                        -0.32712713329354576,
                        -0.4436397774946176,
                        -1.0263543841667713,
                        -1.8319580873814982,
                        -2.5642620951519404,
                        -0.0356926160753808,
                        0.019498804294792744,
                        0.45027699936597654,
                        0.1964063892520473,
                        -1.3225891261935017,
                        1.046591792905592,
                        0.22396067481284018,
                        -1.1661835587463865,
                        -0.20424513895652166,
                        0.9693662806890413,
                        -1.0677114361504347,
                        -0.07485958673784877,
                        -0.9284882246116037,
                        -0.9249755554974535,
                        -0.7427931621519464,
                        -0.24568729887761206,
                        1.0014884844113872,
                        -0.6617036613585228,
                        0.5972786219534809,
                        0.5102970622413615,
                        -0.4049826735403288,
                        -0.8176274753642752,
                        -0.33457492807786454,
                        -1.4835087900462491,
                        -1.2053423065202031,
                        -0.6319538847352366,
                        0.7333443381485502,
                        0.3026287337498125,
                        -0.7252729352733887,
                        1.1389428468330554,
                        -0.6206589465135474,
                        -1.706515297303186,
                        -0.9153167894103293,
                        -0.19765023164388928,
                        2.793558185840512,
                        0.7325491062079342,
                        -1.1196704395905792,
                        0.3114491924459562,
                        -0.9773196215610667,
                        1.4582444974480646,
                        0.9575397549974316
                    ],
                    [
                        0.5579576983265851,
                        -0.02555946135110256,
                        -1.5927965157321151,
                        0.8565028823131141,
                        0.1646368127355405,
                        -1.00962867004392,
                        -1.3967369189101686,
                        0.7308769021305267,
                        -0.609652298844964,
                        -2.1719361818006804,
                        -0.5606598759646322,
                        -0.9024944998708535,
                        1.3963058298209767,
                        0.6653730274258606,
                        0.4865898353311964,
                        -0.3673415022244225,
                        0.19783632997580647,
                        -1.5015002724357869,
                        0.01760265141197342,
                        -0.1358275326276322,
                        -0.2559136959194791,
                        -0.9915421789998945,
                        0.6000043472316403,
                        -0.5147274667729121,
                        -0.5956262496753156,
                        0.2819256709010826,
                        0.12367349088815305,
                        2.0610517673074957,
                        -1.2867085116278352,
                        -1.625129537566397,
                        -0.5805141307563902,
                        -0.9884737789748174,
                        0.13881970081117762,
                        1.8362290268740695,
                        0.4357838230039513,
                        0.4196634796713861,
                        -0.35235516358209895,
                        1.6050889901709342,
                        -0.7300140162033258,
                        -1.2978372988665647,
                        -0.9666664056145589,
                        -0.5179364139669298,
                        -0.681884342737477,
                        0.11608310868515691,
                        -0.30249107876566467,
                        0.2985770381324853,
                        1.3645815470185887,
                        -0.2301497351582955,
                        0.43673245308052766,
                        1.8749742735828454,
                        0.1732420882715297,
                        1.0496665352890928,
                        -0.7589922966673059,
                        -2.9746806159257404,
                        1.102743005976574,
                        -1.7494630262955826,
                        -0.3894343913811233,
                        -1.1015513445400167,
                        -1.2906051078581509,
                        -0.09200468145469948,
                        -0.31351442815433306,
                        -1.2688306149761,
                        -1.1155116576270405,
                        -1.540291752021476,
                        0.0793537451248755,
                        1.0503182485420839,
                        -0.6865559196370679,
                        0.977072623421449,
                        1.3008521923493657,
                        -0.36660941115854195,
                        1.4663294867512768,
                        -0.5021831952715807,
                        -0.16755774713942923,
                        0.2779611286703825,
                        -0.6273579833273737,
                        0.0698748042859059,
                        -0.004288764882684467,
                        0.7551712687146533,
                        -2.21769899945862,
                        1.7303568538366978,
                        0.05468316445918985,
                        -0.46907292464507416,
                        0.2568689424651861,
                        0.09573654096849013,
                        -0.7360127151490173,
                        0.25499719385114494,
                        -1.9626406074074256,
                        -0.029305222769206656,
                        -0.20493680656134403,
                        0.13675524375757497,
                        -1.5821540572507278,
                        0.47989653892281287,
                        1.148165489955348,
                        1.233633611806488,
                        -1.516525913650278,
                        1.4681534907417095,
                        -0.43871603403049864,
                        -0.9545971467615298,
                        1.7193495229307127,
                        -0.7508284397086636,
                        1.345986870119228,
                        -2.9972938677671057,
                        1.0017512019051429,
                        -0.023899663509509745,
                        -0.7057258530336705,
                        -0.15159972837635408
                    ],
                    [
                        0.5313877601056738,
                        -1.4055972484308843,
                        0.1553656271777381,
                        0.11885868641812385,
                        -1.9682022590198294,
                        -0.497479452786873,
                        -0.023505052742427233,
                        0.16020919823671143,
                        -0.09989626628772251,
                        0.38920850808804464,
                        0.02750332387005341,
                        0.94257226974023,
                        0.40418469936892243,
                        -0.19410800844657583,
                        0.661026629322619,
                        -0.2378273665693812,
                        -1.2379102154449064,
                        1.6032054512017786,
                        0.11471794394911125,
                        -0.19004752897050903,
                        -0.6318097041664217,
                        -0.6425899792738047,
                        0.3416651143804726,
                        0.25696620244737917,
                        -0.42913359061444944,
                        1.1023903584250034,
                        0.8177710444662349,
                        -1.4538611357606372,
                        0.2285708759744732,
                        -1.694071187663368,
                        1.855617732636093,
                        -0.16287540904167416,
                        0.3229920402018172,
                        -0.23819711834446103,
                        0.6708977123499134,
                        -0.6093605265984606,
                        -2.1402399535459184,
                        -1.4461914208556197,
                        0.2095865640199617,
                        1.5666828473313725,
                        2.435498501623932,
                        0.24638267022097338,
                        -0.07706749599691244,
                        -2.013284758627095,
                        -0.6923478692863331,
                        -0.38658638949857516,
                        -1.4936094853028425,
                        -0.6756298064884525,
                        1.826058208786142,
                        -2.3846812702712428,
                        0.7867239457667182,
                        0.6258679770931425,
                        -0.2314724482733598,
                        0.19709945982037153,
                        -1.2703858527417526,
                        -1.0436835116901975,
                        0.37391263536765573,
                        1.1164525662643352,
                        -1.707016303442224,
                        0.21164768691026542,
                        0.9173179180089887,
                        -0.5578037783260446,
                        0.4083687896006857,
                        -1.413842209618947,
                        -2.723808460073949,
                        -1.635027045019194,
                        0.7265441717751212,
                        -0.2981172783326715,
                        1.617316121491152,
                        1.8312701593442542,
                        -0.16628751751286702,
                        1.0418667522385772,
                        -1.4386395978491713,
                        0.4883970793171284,
                        -1.0763726487658094,
                        -0.44918619759995665,
                        0.9121413354790442,
                        1.0174855518603119,
                        1.2763107543764605,
                        1.5570347885814149,
                        -0.1952202570473253,
                        -0.2925903794491206,
                        1.9862862795818232,
                        -1.7031029196723015,
                        -0.539612377562553,
                        0.4630641323126578,
                        -0.28972598251200715,
                        -1.374735569411418,
                        -1.9112086269784168,
                        -1.172675159835501,
                        1.0029468080982962,
                        0.1395228305017647,
                        -0.7823647981244484,
                        2.7301263733655405,
                        -0.10012057764852618,
                        1.6061764470224407,
                        -0.29063669569635564,
                        2.0998901172273077,
                        0.3143665380910251,
                        0.0267217716657933,
                        -0.5690038628275342,
                        0.1381667380647437,
                        -0.8612820464527973,
                        1.8256983034137308,
                        -0.8355818189311967,
                        -2.591747918936658
                    ],
                    [
                        0.8775243981568869,
                        -0.9165985003656525,
                        -1.2571729269320262,
                        -0.6634352409635959,
                        0.1582843907451475,
                        -0.7742463862991764,
                        0.1502722414292613,
                        -0.2836654490094469,
                        -0.004742639061828329,
                        -0.6170767988327049,
                        -0.21816435652203348,
                        0.22325952966275114,
                        -0.050677647558441605,
                        -0.07258505127581165,
                        -0.9236970002695197,
                        0.17793458150276206,
                        -0.036821568026344,
                        1.9335850560513654,
                        -0.17237410147177015,
                        -0.7823028852881927,
                        -1.0321153406141077,
                        -0.35318638608517006,
                        0.6247694706964811,
                        0.7439895139050515,
                        -2.143685196968955,
                        -0.28303459808793446,
                        -0.4241167757325009,
                        0.2811459226226223,
                        -0.7986929688767487,
                        -0.46412371908956646,
                        -0.648235337277385,
                        -1.1540864379147686,
                        1.716756810815295,
                        0.4527874759793963,
                        -1.5886484085988113,
                        -0.43878616239687696,
                        -0.10466918546335281,
                        -1.3530680013362597,
                        -0.011326525912335652,
                        -1.4909090191018561,
                        -1.426570954402111,
                        0.6529154625604365,
                        -0.22519204873217868,
                        0.13296884804113648,
                        1.4759389474348883,
                        -1.061038070798567,
                        -0.8997942968933531,
                        -0.4760300717964394,
                        -0.24407732705751983,
                        0.681814892237488,
                        -0.18778890233528056,
                        0.8914495631231354,
                        -1.2728755479522675,
                        -0.8583799832428229,
                        1.7272069337124276,
                        0.20123598572797835,
                        0.16311380866998587,
                        -1.6368735378084047,
                        -0.7377503173189549,
                        -0.7706561487484613,
                        -1.4960234032296509,
                        -0.17495564555784845,
                        0.29188037469145295,
                        -0.4470970897343107,
                        0.294250007989752,
                        0.48308784178811015,
                        -1.450968982663573,
                        -0.3795433814684,
                        -0.05542704727386266,
                        -0.19646779622535665,
                        -0.03822011537062095,
                        1.4436191129748408,
                        -0.10096281887563845,
                        0.6892024945705217,
                        -0.2992183189116665,
                        -2.0690687362421234,
                        -0.971007119799006,
                        1.1924295277999368,
                        -0.5968372838749475,
                        -0.09872881447041311,
                        1.7549948396288935,
                        -1.1202453162280572,
                        -0.15044985368919234,
                        0.34734511627917525,
                        -0.9680946140543202,
                        -0.7397771822011211,
                        -0.14253721176407597,
                        -1.0999459426421985,
                        -0.04468120041362555,
                        -0.7058488516295014,
                        0.26177551098925655,
                        -1.4107090318405147,
                        -0.10598161084752052,
                        -1.8080575326854604,
                        0.016866168427398326,
                        0.1229642301338832,
                        0.4757706952967254,
                        0.7235036219004722,
                        0.0901499986822785,
                        0.0855784896731105,
                        -0.0008346215587396093,
                        -1.639169812440369,
                        -1.9427255713791645,
                        -0.20615086419042497,
                        -1.3776697588783269,
                        -0.25126305784348896
                    ],
                    [
                        0.5847429626130598,
                        -2.932418382138122,
                        -0.3288243903023483,
                        2.1352294027919587,
                        0.30917697583455117,
                        -0.4197166125117041,
                        0.8134383645571595,
                        -0.10269396873802487,
                        -0.1727126083063884,
                        -1.170146569435697,
                        -1.6187220376876965,
                        -0.043236014507242904,
                        -0.06062171731518662,
                        -0.632525637820887,
                        -0.0650982341304844,
                        0.24574566116176397,
                        0.5577023904591658,
                        -0.332971781855329,
                        -1.3719993965016501,
                        0.3951428467183068,
                        -0.3057583381400761,
                        0.311979271088694,
                        1.6228160184990688,
                        -0.5995737931106826,
                        0.46774114164928676,
                        -0.00666568626007791,
                        0.07997703154293931,
                        -1.729390075095049,
                        -0.4993398304650709,
                        0.45210444294928065,
                        1.1836984742806602,
                        -0.3865953107437833,
                        -0.25128489026109596,
                        -0.7996928547468892,
                        0.4623311319257262,
                        -0.32061136182196576,
                        0.24601274785757388,
                        -1.8267937119336568,
                        -0.6839993765404349,
                        -1.888027509341275,
                        0.2523704579950632,
                        -0.28287176703981304,
                        -0.2355371032478514,
                        -0.06363156824341926,
                        -0.8602987570573797,
                        -0.27687953305046953,
                        -1.6970376351452787,
                        -1.1967735231248726,
                        -1.9191145706422101,
                        0.3046293844639587,
                        0.5935491149304577,
                        -0.4258540480408351,
                        -0.3825727281867593,
                        1.2405021932032176,
                        1.3435760697670724,
                        -0.9557144083568879,
                        1.514466615741785,
                        1.3832766905498513,
                        0.579895819470584,
                        -1.0198220341658562,
                        0.9567017771371009,
                        0.5082693962344295,
                        -0.273391994452607,
                        0.4834926300304558,
                        -0.7326210481462074,
                        -0.8207786783441805,
                        0.0317878409927296,
                        -0.22006887515097318,
                        0.38721883920176736,
                        -1.8757844171636266,
                        -0.12597820155785427,
                        1.3181249114747418,
                        -1.5504534385424378,
                        -0.23444927211672575,
                        -1.0492261693623341,
                        0.9991528125217237,
                        0.8490862830285469,
                        0.40701778810014855,
                        1.2903106966862832,
                        -1.6537299345131085,
                        -1.7868390757879002,
                        -0.4507508236548198,
                        1.5344357836459137,
                        -0.7508636275254127,
                        1.5046768568312354,
                        -0.3066371196986307,
                        0.7396599832842894,
                        1.7047311147871373,
                        1.199691716045357,
                        -0.5371542863442508,
                        -0.4905742123973709,
                        -0.6227542422187722,
                        0.42258496147971125,
                        0.808323201224251,
                        -2.083246876374479,
                        -0.1229843324440409,
                        -0.0161820478413171,
                        -0.20575189162253285,
                        0.6340446925248455,
                        -0.7363369795680005,
                        -0.28153384158701455,
                        0.5344107143050602,
                        0.9135875935802681,
                        0.16461958202163374,
                        0.34781263794727335,
                        -0.36835388909401134
                    ],
                    [
                        -0.23332230004986357,
                        0.5698779298491368,
                        -1.3498167986014298,
                        -0.03952733849495416,
                        -1.2942867336344608,
                        -0.43235187589375296,
                        -0.31839563286211175,
                        0.9186590805238393,
                        -0.3144111562813736,
                        -0.5513298101343567,
                        -1.8789605202097108,
                        -1.4995234953336338,
                        -1.2480227751326047,
                        1.1847629043533365,
                        -0.3024738709010562,
                        0.2721346954615756,
                        1.1773247879245186,
                        0.6177144016531795,
                        0.4666454369672632,
                        0.8639344451687634,
                        0.9378073105436263,
                        -0.5969025510034146,
                        -0.6185115577910475,
                        0.57107884218545,
                        0.7873804658174424,
                        -0.18853714471231137,
                        -0.8919652016055307,
                        -0.31960076393099174,
                        0.5195266505542422,
                        -0.9885088969813565,
                        -0.7230342119538592,
                        -1.3195131545115066,
                        0.9818099595443414,
                        1.4493123242140684,
                        0.0265568406273846,
                        -0.520341421935959,
                        0.1899566976821132,
                        0.9283028389623157,
                        0.6461896362256553,
                        -0.8540826797919914,
                        -0.25657589117768126,
                        0.575084189677226,
                        -1.1267252417969253,
                        -0.38132253161342067,
                        -1.9198196799799478,
                        0.7304710878042397,
                        -0.4024574272062807,
                        0.3550313444919197,
                        0.4293864648224281,
                        -0.8691633293329729,
                        1.021405736677417,
                        -1.6128415618094538,
                        -0.7521742677948217,
                        -0.1865656996816317,
                        0.8639541147303609,
                        0.6997862662395666,
                        -0.33044955805805726,
                        -1.6669083209848061,
                        2.3026920468270227,
                        0.48123428587931055,
                        0.02332799741174621,
                        1.4738968763239344,
                        0.6255350549097642,
                        1.9693017498663445,
                        -2.6659351446167197,
                        2.6287691359587586,
                        -2.5262454903005844,
                        1.3221337340025032,
                        -0.27667189933800274,
                        -1.0693452432258717,
                        1.3271518596033982,
                        -0.9729156497468692,
                        0.1317538796470696,
                        0.8957713654592785,
                        -0.8885173813102191,
                        -0.5351794489702255,
                        -1.0641588745909396,
                        0.12517646283530096,
                        -1.9974773310388565,
                        0.05865789377497069,
                        -0.8842642346372532,
                        -0.24931821668797666,
                        -0.3466524381429274,
                        0.5596020155027938,
                        -0.4681047455094199,
                        -0.22710105389354285,
                        0.1662689805267586,
                        -0.3623936907249765,
                        0.2619897100714708,
                        -2.016955735265665,
                        -2.8861265158259948,
                        1.4837570206920134,
                        0.4460590888201734,
                        -0.44192286008144543,
                        1.2120746550560164,
                        0.08117658496523016,
                        0.4358823934307675,
                        -1.636439782755473,
                        1.165918200477579,
                        0.24412300605557818,
                        -1.5800166114702117,
                        0.9005993910773207,
                        0.6941623264945237,
                        0.5110072281273411,
                        -0.2635749066511835,
                        0.891407032767561
                    ],
                    [
                        -0.34383404264897033,
                        -1.5282096304482113,
                        -1.1779536019213033,
                        0.0917575613280393,
                        0.7763582453671345,
                        -1.3704153043588063,
                        1.140827111384054,
                        0.30666494738667305,
                        0.7893067803906206,
                        0.33386844473545524,
                        0.06579422447789177,
                        0.3647083111103378,
                        0.08398200041228991,
                        -1.4304759011388086,
                        -0.4567658938335568,
                        -0.6012346728061017,
                        -2.078801689478837,
                        -1.5340857739893878,
                        1.4562226183588949,
                        -0.18471155922611424,
                        -0.5579023818494325,
                        0.3768894539059908,
                        0.5370848370636424,
                        -0.23841347726076872,
                        1.1684548959626693,
                        -0.6906971286984301,
                        -1.0560640455026435,
                        -1.0925232192431182,
                        0.7896383354928698,
                        -2.9216077493373978,
                        -0.6108111816304398,
                        0.6519869377537665,
                        0.6212932721511664,
                        0.3549443494535972,
                        0.47164593229237245,
                        0.8396096913159936,
                        0.08033296479795558,
                        0.7283741509047897,
                        0.06349295393359589,
                        0.050558471269407546,
                        1.8183297244563392,
                        1.1681552112361426,
                        0.26145455877262447,
                        -1.5189103432506768,
                        1.0717732994949491,
                        1.202485351754452,
                        -0.43143615973150823,
                        0.940564302799927,
                        1.9896288998578866,
                        -2.3827556986765743,
                        -0.5443409944986759,
                        0.25776027231217746,
                        0.34852894460260014,
                        2.1291830093457507,
                        0.17373006700230859,
                        -0.2460114893654881,
                        -1.1720031992292945,
                        -2.0499915768058803,
                        -0.30795308383159054,
                        0.3393976106330672,
                        1.5586669700059788,
                        -0.0984523560465318,
                        0.468223841411177,
                        -1.7177236888055798,
                        -0.5151012388072773,
                        1.7116408954849607,
                        2.172963544637132,
                        0.4015522747901624,
                        0.28815176210876114,
                        1.0643331494415478,
                        -1.262952402160024,
                        -1.4534441723004434,
                        -2.8977047330636223,
                        -0.14412300429343242,
                        -0.07746736548540717,
                        0.4023375982035726,
                        0.48917814990806274,
                        -0.6060593969349389,
                        1.2134237049925167,
                        0.5907870092909618,
                        -1.0113934917707819,
                        -0.43532059284345664,
                        0.7560625556321787,
                        0.4983672878325549,
                        -0.7118318122123246,
                        -0.9558239842188375,
                        -1.1583816013457933,
                        0.46730123496277387,
                        1.4810759392952253,
                        -0.6550972234149929,
                        -0.16319019464713821,
                        -1.6138455072808908,
                        1.0030548996818747,
                        1.4643422799193067,
                        1.0360757411021655,
                        -1.2423757333318253,
                        -1.7593649640047069,
                        -2.054794209807216,
                        -0.8079211459206319,
                        -0.054060035995302486,
                        -2.2920074039478417,
                        1.5723134758556963,
                        0.0528711299511332,
                        0.034200770232474045,
                        -0.013497450442100958,
                        -1.3759422752486956
                    ],
                    [
                        0.5989223520349534,
                        -0.021238875495118693,
                        0.3515667383801675,
                        -0.22656930513562254,
                        -1.0958412604086927,
                        -1.0918478456989016,
                        0.9431465074170771,
                        2.022310237891944,
                        0.42572743235681865,
                        1.537351971691026,
                        1.9717451270713604,
                        1.3674765304887795,
                        1.18598810627497,
                        -0.008774665538775992,
                        -0.20658832151676745,
                        1.4597463064872087,
                        2.670688805424487,
                        -0.9265384587764214,
                        1.763297555503957,
                        0.935302231629952,
                        0.4109554759401675,
                        0.4926285333903175,
                        -0.6988120264023229,
                        -0.4060697279530448,
                        1.025622446062242,
                        0.9258099920370161,
                        0.16786689650251752,
                        2.1044467866565566,
                        0.8080113016708301,
                        -0.15799285541538133,
                        0.47543580263551977,
                        0.43323113509168326,
                        -1.7393068322355316,
                        0.9248295773040908,
                        0.448257360131412,
                        -0.5663443983059342,
                        0.5349282445631386,
                        -0.16721703056891268,
                        -0.3676619282747333,
                        0.9049809789561745,
                        -0.5622611249427661,
                        1.3139434531028193,
                        -0.7552216177391665,
                        0.4096583328421781,
                        1.6028502042440296,
                        0.37134202639763136,
                        1.0052688172934834,
                        0.29147734361336297,
                        0.6133771570251518,
                        2.2277386595396926,
                        0.17913522971281126,
                        -0.30152623879227775,
                        0.6910004359037808,
                        -0.7126654421232537,
                        0.10416916779110821,
                        0.6037192700884783,
                        -0.609295174946709,
                        -0.5170625493144204,
                        0.3266479798599381,
                        1.6870022148765822,
                        0.22252598268658114,
                        -0.5111427341778321,
                        0.6560963791618086,
                        -0.12981813154744545,
                        0.2067462141634048,
                        -0.049979046906660926,
                        -0.2849735326829396,
                        0.23437900252931698,
                        1.3334146952319086,
                        -0.6928449064938368,
                        0.4160556956968794,
                        0.21569980264161928,
                        -1.276565543048139,
                        -1.5486699810117128,
                        0.24437406752146557,
                        -0.38731572428432093,
                        0.9581069220502435,
                        2.999999999977017,
                        2.2004117593164376,
                        0.4590439535129075,
                        -0.5506043836676051,
                        -0.10785599797746774,
                        1.5909406916176776,
                        -1.3504480894586002,
                        0.25666250648086125,
                        -0.024620310361455466,
                        1.2650457424868538,
                        0.6528617257125111,
                        0.6204548468550951,
                        -0.8472467614063882,
                        0.5902695294309835,
                        0.10515058416060219,
                        0.5788848083140045,
                        -1.5664481657573646,
                        0.9043219423226273,
                        0.5160396537472025,
                        0.6329229445478384,
                        -0.6462057762870387,
                        -0.7761586794957555,
                        1.023900473167743,
                        1.027663259045704,
                        0.2031225532018662,
                        0.05943839557520548,
                        1.076545589589072,
                        0.7643921651399569,
                        -0.5203708016259624
                    ],
                    [
                        1.027333030302802,
                        -1.3772436115194033,
                        -0.5653584261027154,
                        1.6340490230746918,
                        0.6295886957081854,
                        -1.1305004824467428,
                        0.9910293670642917,
                        -0.9222237239630195,
                        0.5192182919378625,
                        -1.2228075930264979,
                        -1.5335600308936312,
                        -0.1948756471266908,
                        -0.15851519725334126,
                        -0.20496910483761965,
                        -0.04033069409731658,
                        -1.5867386004528408,
                        -0.4623901524932295,
                        -0.9624254124676922,
                        -1.0944498340293773,
                        0.08415408640174156,
                        -0.8842481114800251,
                        0.025247752887880826,
                        -0.9046180597486007,
                        0.5365903604709487,
                        -0.34821792558333725,
                        0.6400012455826232,
                        -0.030502654749048515,
                        -0.15757557308076836,
                        0.4804873769303496,
                        -2.5338404306926647,
                        0.455099623905782,
                        -0.5368161719154334,
                        -0.11298121121520698,
                        0.72267695740648,
                        1.6263324383976556,
                        -0.09755722642569083,
                        0.30286204756437296,
                        0.8810688160162466,
                        -1.0071894151086678,
                        -0.6865067436766108,
                        0.13019032692229077,
                        1.1413708884218718,
                        0.896357045070498,
                        -0.592899161857812,
                        -0.9566332006017942,
                        0.37551743813837346,
                        1.4098419276652197,
                        -0.21368535461547727,
                        0.17378144284950245,
                        -1.1455803269095628,
                        -0.8362626232971481,
                        0.0031298394568865027,
                        -1.276786970966769,
                        -0.45329275530929486,
                        -0.924563002189981,
                        -0.8981839506156264,
                        0.01721299319033988,
                        0.3105577051969842,
                        -0.40271626884785694,
                        0.10145367445471312,
                        -1.39876268896165,
                        0.5270300529703735,
                        0.3738196279742752,
                        0.1924188795991019,
                        0.7124883204820657,
                        -0.7935510262524901,
                        1.8883047551038612,
                        1.1120069546688502,
                        -1.057597888889111,
                        1.03477690051981,
                        -0.23377443387001248,
                        0.22180454322358853,
                        0.9505327735384896,
                        -0.26103728192903997,
                        0.5628720640630112,
                        0.4805376681133524,
                        -0.32339684201920893,
                        -1.678228969021979,
                        1.285731188417778,
                        0.02309363290815613,
                        -0.5031264863381566,
                        -0.47036236299588746,
                        -1.0992643169787528,
                        0.8155999286621259,
                        -0.9439060670045187,
                        -0.5578026614720175,
                        0.0017085772823999157,
                        -0.9275425285444633,
                        -0.5812132690546,
                        0.311094725162023,
                        -1.2951105209738027,
                        0.47018026898890447,
                        1.1532122387659478,
                        -0.9579331729737558,
                        -1.8788271550695446,
                        -1.4495172207365576,
                        0.9447751166268196,
                        -0.11660305127307811,
                        -0.17682161446764239,
                        0.4056639614605005,
                        -1.3708273768213735,
                        -1.2721960821156622,
                        -0.9479064332056213,
                        -1.2288235216832666,
                        -0.48295723856361056,
                        0.7186028071531324
                    ],
                    [
                        0.8659039121900989,
                        0.06539965513831443,
                        0.14873630742058197,
                        0.16066422748786205,
                        -1.7958963457972736,
                        -1.0174309783781197,
                        0.26759546385415134,
                        0.04879632832375841,
                        0.8619790900732006,
                        0.4513052372478149,
                        1.6523063438951147,
                        -0.3273747981002869,
                        0.3614874189333548,
                        2.038871314886226,
                        -0.14979034614083295,
                        -0.0471150524306119,
                        0.22589388622594575,
                        0.4984402682807522,
                        1.5304007257131569,
                        0.2387447931691893,
                        0.7715098787510184,
                        0.500210340866184,
                        -0.44081438091167396,
                        0.32757019844469193,
                        -0.8942550109977014,
                        -1.1042455098456099,
                        0.48517232570059016,
                        -2.2856019308269153,
                        -1.0746915484428767,
                        1.0714473766593815,
                        0.7868193983137934,
                        0.9158793585293082,
                        -0.9472863588996548,
                        -1.0407919251650237,
                        -0.6247274089153751,
                        0.15516791267433974,
                        -0.5350539981399666,
                        -1.111364295741683,
                        -0.24548508014519632,
                        -0.6322860152157146,
                        0.7221139502322883,
                        -1.2744258318857709,
                        0.30971234844889756,
                        -1.3837131225624477,
                        0.9707323565787743,
                        0.9396427291519797,
                        -0.8969568986113483,
                        0.025409275545234818,
                        0.49672619067884854,
                        -1.838160793076013,
                        2.456260527634999,
                        -1.1786756716589293,
                        0.3490984112902904,
                        1.5245531038502036,
                        1.0897787967228219,
                        0.4161201263505673,
                        -0.34532631538775516,
                        0.27503045325035563,
                        -0.666396741731097,
                        -0.475980546361036,
                        -0.9272643142941454,
                        -1.5595216182118108,
                        -0.007221755299080272,
                        -0.3727475945745458,
                        -0.38072553854290575,
                        -0.9824108160497131,
                        0.05621521487119065,
                        0.6029717061653919,
                        0.9093733858412559,
                        1.6488565431469686,
                        1.124934817775726,
                        -0.9354477311544381,
                        -0.9435838522042177,
                        -1.1692789282271943,
                        1.1432079150894752,
                        -0.06537608066654925,
                        0.9860855124422537,
                        0.1758572778258555,
                        -0.44562355707983337,
                        1.1589538100257937,
                        -0.6491704173015547,
                        -2.1295809315981815,
                        0.11537652082986045,
                        0.7055319658722782,
                        0.4234486840129477,
                        -1.6290231277117593,
                        2.021488127515423,
                        0.21963257855051607,
                        -0.8650569597957599,
                        -0.42843349428460836,
                        -0.2841907218661267,
                        1.7010591163526743,
                        -0.4937968875354146,
                        1.1470867890320307,
                        -0.7290509254475185,
                        -1.013965867949138,
                        -0.7338014081032512,
                        0.6470620840088146,
                        -2.12372919495271,
                        0.4704434613594571,
                        0.9302064009106006,
                        1.1562776993417947,
                        -0.6556895504205231,
                        0.21991797221213147,
                        0.903151461586862,
                        0.2334418056706524
                    ],
                    [
                        0.7124204903011738,
                        -0.7057420604428507,
                        -0.14167168397321878,
                        0.7995122704727542,
                        1.3726143112838212,
                        1.7893102974774142,
                        -0.7951960720745137,
                        -0.5989941340873152,
                        -0.5159271753000436,
                        1.1060602540768505,
                        -0.4623117032396676,
                        1.1242466595029408,
                        -0.27033694203461406,
                        -0.8183612705385858,
                        -2.5103520362230785,
                        1.0841422027133245,
                        -1.3264188399895929,
                        0.46180380328932014,
                        0.42211570634690754,
                        -0.45774168814330574,
                        -1.4758482356568614,
                        -0.1887046124226336,
                        2.504030880446656,
                        2.0146655937757374,
                        1.3596812190587961,
                        2.062016161013211,
                        0.021672109817308435,
                        1.0538017017748065,
                        -0.37197163589738824,
                        0.9813951146199236,
                        -1.6459606406349552,
                        -1.5850202892867775,
                        0.8657195040690064,
                        -1.4485504877269453,
                        1.3251772422358201,
                        0.34021419756676224,
                        2.3081604410400796,
                        -0.03656858608753118,
                        -1.4895109118085041,
                        -0.007813364838157729,
                        0.6204335701869784,
                        2.5085554981909617,
                        -1.0707595359187962,
                        1.5702715871427106,
                        0.938743154377278,
                        0.057308956368285244,
                        -0.8556294781413526,
                        0.767058847067649,
                        0.530395227946474,
                        -0.631825876360777,
                        0.49312722919452096,
                        -1.030328949668984,
                        -1.5372531566088046,
                        -0.364259005479748,
                        0.06583495028960272,
                        -0.0753702468877482,
                        1.0715735512894384,
                        0.8612065159653723,
                        0.07971721003812043,
                        -0.3819640139952329,
                        1.0600989581183213,
                        -0.33826966981137085,
                        -0.695048975752989,
                        0.9025231582265792,
                        0.9974188747025904,
                        -2.0523496592923327,
                        1.2779349250055898,
                        2.066380357310696,
                        -0.7920662895924924,
                        0.8043001050358023,
                        1.528236393334522,
                        -1.0781691396616004,
                        1.5382810170985568,
                        -0.3306370338348639,
                        -1.5637487059180801,
                        -0.6494112598610092,
