{
    "settings": {
        "batch_size": 12,
        "loss_function": "multiclass_cross_entropy",
        "output_size": 2,
        "hidden_size": 106,
        "avaible_id": 3,
        "activation_fun": "Sigmoid",
        "convolution": false,
        "input_size": 106,
        "input_shape": null,
        "kernel_size": null,
        "depth": null,
        "optimizer": {
            "optimzierType": "SGD",
            "layerType": "Dense",
            "weights_clip_range": 3
        }
    },
    "hidden_layers": {
        "2": {
            "id": "2",
            "act_fun": "Sigmoid",
            "is_ending": false,
            "is_starting": false,
            "input_layers_ids": [
                "init_0"
            ],
            "output_layers_ids": [
                "1"
            ],
            "optimizer": {
                "optimzierType": "SGD",
                "layerType": "Dense",
                "weights_clip_range": 3
            },
            "reshapers": {},
            "weights": {
                "W": [
                    [
                        -1.4551297583433904,
                        -0.04000404740380767,
                        1.7703554365340974,
                        0.5474413977114455,
                        0.05695324474032119,
                        1.1422100757806386,
                        0.002296976681755027,
                        1.6702763086654147,
                        0.6468962187223339,
                        -2.0509529222258447,
                        -1.0151794666235918,
                        0.26570294496594665,
                        1.173664686706434,
                        -2.0614993103847827,
                        0.43509546322102044,
                        -1.0809017954196367,
                        0.6794322600549624,
                        -0.93647287029187,
                        -0.8153426170696989,
                        -0.3853044839809175,
                        0.8369742463778553,
                        -0.16361895159358888,
                        0.3668965446417693,
                        0.8890556889987566,
                        0.14000801115723077,
                        -0.5433508386490964,
                        0.08952387330462186,
                        -0.45636479041657146,
                        1.3097826107325203,
                        -0.3903169657011345,
                        1.2821871479982276,
                        0.4464358071284534,
                        -0.07341472483429777,
                        1.2169614600286496,
                        -0.554831188874421,
                        0.4162453884442385,
                        -0.25518710822710555,
                        -0.5045962129611579,
                        -0.486631889777452,
                        -0.25535217876739263,
                        -0.563578196016292,
                        -1.1882514375157969,
                        2.400732810033381,
                        1.466132660105768,
                        -0.32953680881804237,
                        0.036722821146477194,
                        0.33738209282084897,
                        -0.22707129200554407,
                        0.13967145829345942,
                        -0.6550469742603898,
                        -0.5970279162412061,
                        -0.038553910985006115,
                        0.5242715531128674,
                        1.9737242951183664,
                        0.989834593368351,
                        -0.020275059705926114,
                        -0.09553934741420306,
                        -1.883067238794988,
                        0.3243865877819033,
                        -1.414832390451026,
                        0.5808660843750673,
                        0.4364818511047988,
                        0.3284226841139638,
                        -0.1819421049347949,
                        0.34447005174855855,
                        0.35012058550979225,
                        -0.8247521483454658,
                        0.08568816133048687,
                        0.7262941648454644,
                        0.7450335557622619,
                        -0.9508060313582778,
                        -1.023637085108234,
                        1.2870977875872376,
                        2.4722779852410457,
                        -0.15881819778033213,
                        0.5780518929319063,
                        -0.3609164866193309,
                        1.1175132750633603,
                        -0.23380778327951968,
                        -0.4142221656108509,
                        1.3541677744997842,
                        0.44931443472145205,
                        0.4335680190073273,
                        -0.22033412718312503,
                        0.18902761650851455,
                        -0.23926536547803443,
                        -0.8036513354569791,
                        -0.7998943322532598,
                        -0.6210618601683227,
                        0.5628119279094003,
                        -0.7397956359069306,
                        -0.42319255071258244,
                        -0.7473961173227069,
                        0.4123749140607462,
                        -0.6579798853107526,
                        -1.7818839697735493,
                        -0.48263923299917005,
                        -0.4014286864704325,
                        -0.8520451692958755,
                        -1.0367729218346864,
                        1.455396242935866,
                        -0.5203541094627031,
                        0.6813436589613158,
                        1.0226411705211413,
                        2.456409956382332,
                        0.8309493724505898
                    ],
                    [
                        -0.08024234453279591,
                        0.3503318998146278,
                        -0.8762005862138132,
                        1.4497361167378122,
                        0.3008898218413717,
                        -1.0420884682569833,
                        0.5340212546959306,
                        2.9997937697376362,
                        0.7181910093783976,
                        -1.2327516704370962,
                        -0.9522575688786276,
                        -0.03142496535383984,
                        -0.8166103906363813,
                        1.5027189967187609,
                        -1.6883899140301075,
                        -0.6001851223131934,
                        1.4525695980249633,
                        0.113412313200241,
                        0.3255355813730563,
                        0.8174428774219876,
                        -0.03456764232894992,
                        -1.2617133536498573,
                        -1.205872225807191,
                        0.5373429278381062,
                        -0.49083060507216864,
                        -1.2374930958588757,
                        -0.1403747855589074,
                        0.5621448112208746,
                        0.9097750734208058,
                        -0.9765400846623448,
                        -0.6545832813971229,
                        0.22248584963168833,
                        -0.47117966518915416,
                        -0.5411628718285849,
                        -1.3874107458993286,
                        0.4697142786686781,
                        -0.00672273788603426,
                        0.635259951435846,
                        1.0125150701593342,
                        -1.0820412205687515,
                        -1.1987704619884179,
                        0.41172629994247234,
                        -0.21380444246958186,
                        0.5103880903400654,
                        1.779224964664859,
                        -1.0253451093237542,
                        0.2718845392726768,
                        0.5557012149001338,
                        -0.2512695596614631,
                        -0.058031432672300376,
                        -0.11148439753792072,
                        -1.0636551693760785,
                        0.1897524635168999,
                        1.2710453237328536,
                        0.08524985941627924,
                        -0.29169493516832606,
                        1.0826289192794936,
                        -1.2464707871881984,
                        0.9275366099111402,
                        -0.36317233825625067,
                        0.9725169714837424,
                        0.8182679864525375,
                        0.9400752487964658,
                        0.3412767551854041,
                        -0.6353054697971179,
                        -1.8575441394673893,
                        -0.7708188043917166,
                        1.2131383077441618,
                        -0.5231948278668344,
                        -0.657990521162647,
                        0.1642257606705921,
                        0.6999306884244965,
                        1.3767426119338473,
                        -0.6832517816814314,
                        -0.4553552274882275,
                        -1.074513166046242,
                        -1.2950038355984042,
                        0.4395680802328748,
                        0.9411543914575575,
                        -0.04411349357955753,
                        0.9946912295842908,
                        0.4156316835960195,
                        -0.4824283490584368,
                        -1.158802292491803,
                        0.4542176254480248,
                        -0.29723059078938724,
                        -0.3013960341981853,
                        -0.9303031505931678,
                        -0.22246096050710243,
                        1.1744523343030928,
                        -1.0630672848771572,
                        -0.40600676071118946,
                        -0.6147153513221469,
                        -0.5250307612097995,
                        0.35375541804340993,
                        0.5863702966682749,
                        -1.6982868373981035,
                        -0.6253566060699347,
                        -1.222352756190124,
                        1.2971967925886718,
                        -1.475833394040791,
                        -0.8203706070581059,
                        1.5509298753219878,
                        -0.9289597705647974,
                        -0.37076157118455694,
                        -0.6623254521567175
                    ],
                    [
                        -0.5963340046594792,
                        -0.6821624994484291,
                        -0.02328920026074509,
                        1.644413779913891,
                        1.0429607504515632,
                        0.6561101151814976,
                        -0.9645968960190785,
                        1.0565810607507948,
                        1.6199568539423628,
                        0.14642551446582416,
                        1.0145012849534092,
                        0.3697802422439141,
                        0.44037541378193656,
                        -1.4186980553566029,
                        -0.14251554166482555,
                        -0.7161629160096601,
                        -1.3544019399253224,
                        -0.03247095874465351,
                        -0.4872112882785923,
                        0.3108723943674292,
                        -0.7027903522991727,
                        0.46435267366194305,
                        -0.5352346655578826,
                        0.6636921498529309,
                        -0.4049906038281768,
                        1.1853651840605441,
                        0.8309430531209706,
                        1.2728063876058278,
                        -0.583741831977253,
                        -0.17622535574117584,
                        0.6806658365547532,
                        1.2129245087210612,
                        0.4882429878809799,
                        0.152059963268673,
                        2.258874290153782,
                        -0.13484760280543054,
                        -0.41277788086435185,
                        0.09393510149573112,
                        -2.6454994509595324,
                        -1.1052401003450232,
                        -1.7306821667475787,
                        -0.9709079114029633,
                        -0.7253186886933031,
                        2.533111888811767,
                        -0.4071931200408466,
                        -0.9894495932686389,
                        -0.688953651532161,
                        0.16286061816824088,
                        -0.651363627129955,
                        -0.07028767692289188,
                        0.6272496699029554,
                        2.753162889006721,
                        -0.6875687759016561,
                        0.010563334450802252,
                        1.2054369143908745,
                        -2.862571416505889,
                        0.7123191439978884,
                        -0.1372939313544887,
                        -1.2112196303779204,
                        0.2900397328691469,
                        1.3956103671069013,
                        0.7780323384390528,
                        0.4835570963625326,
                        -0.8351940010547252,
                        -0.43873353199336484,
                        0.09163175379934725,
                        0.03331708959509309,
                        1.491818534249547,
                        -1.9611825085177061,
                        -0.3218305546837402,
                        -0.5344112343941416,
                        -1.0105970165140739,
                        1.6300716556808523,
                        1.183550071094732,
                        -0.5438939389511533,
                        -1.2535657612968327,
                        0.560037165732704,
                        -0.29466491807986184,
                        -0.5773262216222542,
                        -0.8551054009918791,
                        2.037088140881308,
                        -0.7758956715956838,
                        0.43718867319125043,
                        0.2932624819824528,
                        -0.07732145895877991,
                        0.9273213214950569,
                        1.2588859704474151,
                        -0.35697891444135843,
                        0.009429708357158785,
                        1.4638484064546717,
                        -0.028748983201816136,
                        -1.2498531600702802,
                        0.46086652258074196,
                        0.23957865905066955,
                        -0.15842749812415685,
                        0.6528751294846035,
                        -0.14135549869252498,
                        -2.0473175583101715,
                        -0.08911600896080893,
                        -0.817263628622783,
                        -0.4972632937356932,
                        0.6600096216529338,
                        -2.996606515008846,
                        0.5739797467078194,
                        0.6706462198481269,
                        -0.23334020098942568
                    ],
                    [
                        1.539389273385333,
                        -0.25445759679550284,
                        -0.11855266523111287,
                        -0.06699510868628024,
                        -1.6928853483132196,
                        -1.6984235700214685,
                        -0.6371596596407707,
                        1.6704415987981378,
                        -0.3861618970871702,
                        -0.7290618713155774,
                        0.3904481470407124,
                        -0.8757785875458961,
                        -0.40418090079302443,
                        -0.34775893963421445,
                        0.4900030979528747,
                        -0.36855588770073155,
                        0.6027502891307075,
                        0.0031921233539900875,
                        -0.6136125150092019,
                        -0.8692172107492164,
                        0.4134181603401117,
                        0.23159423941083868,
                        -2.047815048431088,
                        0.44412640965301026,
                        2.162403075627776,
                        1.8201269920243255,
                        0.009087770386615157,
                        0.9536817390678917,
                        -0.835439676266344,
                        -0.45602558146040706,
                        0.5203080290395521,
                        0.6762432567881788,
                        0.9258197501545625,
                        1.4226087392325968,
                        1.2009629724576119,
                        -0.369202857522358,
                        1.404960198660133,
                        1.0692768531034105,
                        -0.2792252316353868,
                        0.6687750433111725,
                        -1.1786125794649516,
                        0.7658264805624674,
                        0.2115880491700054,
                        -0.8666750321487987,
                        1.1623113492566577,
                        0.38641473912103713,
                        2.4029744178703565,
                        -1.3760792841737237,
                        -1.1086565650664097,
                        -0.9401581809569224,
                        -1.9707837701595874,
                        -0.6378967719381133,
                        0.2883647396466151,
                        -0.286378477476908,
                        0.5755506329007128,
                        -1.9741662343726156,
                        1.2574955872536664,
                        0.48520224086092195,
                        -0.5977823128652614,
                        -0.5966286786995649,
                        -1.274977735424925,
                        2.2905243792149412,
                        0.18405780761262935,
                        0.7540125386515515,
                        0.2978751313747379,
                        1.4203620216732231,
                        0.01583035446796204,
                        -0.1462539769520665,
                        -1.113327027906782,
                        1.561543667953062,
                        -0.8607935189157683,
                        0.5430907719214026,
                        1.2884828117131937,
                        0.5286347266904755,
                        1.2135092347244478,
                        0.10268473741726467,
                        0.279087658194006,
                        -0.6432010917640156,
                        -0.23240998978668412,
                        -1.2825435667772356,
                        0.798681465710109,
                        -1.111366231936028,
                        0.09239902117956075,
                        0.1851168378987596,
                        -0.8288394572159843,
                        0.31007863273925035,
                        -0.4293011374793924,
                        -0.9130829712145593,
                        2.145757789855,
                        1.1317399387751705,
                        0.6784660867490864,
                        -0.3687134112160566,
                        0.5960765895887267,
                        -1.9726778767211135,
                        -0.23235176374145255,
                        -2.439912028831208,
                        -0.505630634564809,
                        -0.42192199545901404,
                        0.660839781573402,
                        -1.08745794466553,
                        -0.4533409557503077,
                        -1.3146717230967013,
                        0.02645926942674145,
                        -0.76442386893531,
                        1.6736760239573996,
                        -1.3403249051989499
                    ],
                    [
                        -0.21953135383127872,
                        1.3176896660426036,
                        1.7374261408491545,
                        0.6137082341465868,
                        -1.076991799430354,
                        0.15124865002995505,
                        -1.5966855966250948,
                        1.5013024681742526,
                        0.10161794369945704,
                        -0.23001606241905367,
                        0.25238515595724903,
                        0.32547603082145615,
                        -0.8346893350062377,
                        -0.3561891946925441,
                        0.15113613638163406,
                        -0.19382483125580618,
                        -0.07701616958890585,
                        -0.22993195627623855,
                        2.576792265642048,
                        0.15035118162027375,
                        0.07015781077359803,
                        1.4350630312435664,
                        -1.2910835864835508,
                        1.4541936424270885,
                        -0.9089158056874933,
                        0.5743866522481089,
                        0.30491282246415274,
                        0.38126052606059635,
                        -0.6704830843448014,
                        -0.4453175747406103,
                        1.8436883683386773,
                        0.8125009541990135,
                        -0.4903714470484378,
                        1.3531005792578839,
                        -0.09171143412552181,
                        -0.8402956837753357,
                        -0.12091547955366636,
                        -0.376952875697966,
                        -0.3295073326402334,
                        0.7721822309148565,
                        -0.4333507287200539,
                        0.8716659337131871,
                        1.0797132363028858,
                        0.323029787204795,
                        -1.3477495602707916,
                        2.7721290525134417,
                        -0.2100092624162409,
                        1.0454649028661938,
                        0.23420805256040386,
                        -0.7332712612560849,
                        -0.5729565367975028,
                        -0.10335571348817277,
                        -0.4609665226375412,
                        -1.0938356380058727,
                        0.7965495707115364,
                        1.0439288357954355,
                        -0.39704630250009637,
                        1.6570388902468136,
                        -0.7173879253940932,
                        0.2820075186487727,
                        0.1888631780510522,
                        -0.8424367613681286,
                        0.7043655140551124,
                        0.2688598454736834,
                        0.37585803844572524,
                        0.6450838389626075,
                        0.14553839734561025,
                        -0.4959708546593354,
                        -0.542199387940981,
                        0.10392734692042747,
                        -1.9700607325920168,
                        -0.6083439876962169,
                        0.39177540884156653,
                        -0.9764795298767364,
                        -0.8919789120128312,
                        -0.2353609561529228,
                        -0.14702693043507675,
                        0.4568364082446683,
                        -0.88628735350677,
                        -0.47217603139510206,
                        0.8146152752197384,
                        -1.523419691016052,
                        -0.7730022458340737,
                        -0.04272928981080005,
                        1.135087776342624,
                        -0.1357252058160961,
                        -0.30239914310595206,
                        -0.2388875757106545,
                        -0.3617856515266522,
                        -0.09996641124024204,
                        0.6254460100067014,
                        -0.3063933594939117,
                        -0.7326858752180306,
                        -2.274732146822175,
                        -0.36875532836570385,
                        -1.036875727371524,
                        -1.61275865501202,
                        1.1939733530282808,
                        -1.7587056703369008,
                        -0.013289910913010208,
                        -0.2527608542397595,
                        1.0354553288400226,
                        1.8694358411516454,
                        -0.1293775876749655,
                        -0.1594363989179941,
                        -2.209419772208242
                    ],
                    [
                        1.3120170750748987,
                        -1.1490300864132346,
                        -0.8092374493816853,
                        2.487685567049707,
                        0.6019111269727143,
                        1.6756553045188456,
                        0.00791435431863826,
                        -0.11640351904672142,
                        1.1722396440416478,
                        -1.1988525731655983,
                        0.3255982667668036,
                        -0.5765498208665272,
                        0.7613134299532952,
                        0.01297824645627462,
                        -0.7655166971828722,
                        -1.347598956289714,
                        1.7215596883205868,
                        -0.766909784360597,
                        1.5897464384216833,
                        -0.20739571848000493,
                        0.817881333691301,
                        0.8222390170471672,
                        1.447841219528945,
                        -0.4670389749550765,
                        -0.938574915054743,
                        1.4154620883329792,
                        -0.07676911388349246,
                        -0.4578152277865958,
                        -0.3524903772719218,
                        -1.2727626132858119,
                        -1.0140890569171213,
                        0.6868529091061274,
                        0.08663360292709181,
                        -0.43998221108069396,
                        -0.41699907494520905,
                        -1.3439705785370404,
                        -0.8053749047697564,
                        -1.2120947527942818,
                        -0.9605379329249573,
                        0.5049358015009007,
                        -0.9463199253898562,
                        -0.25463569391787,
                        0.36797417942701127,
                        1.320549009977089,
                        0.10998944786999082,
                        0.2722450543441776,
                        -0.7649612524603728,
                        1.329129028316388,
                        1.5829580259559244,
                        0.6923829001038284,
                        -1.2260730126134418,
                        -1.2694917119104518,
                        -0.07520390517995515,
                        0.47218737112344716,
                        -0.11927087390263001,
                        0.9467409996556817,
                        1.0542846980428624,
                        1.5316210608273075,
                        1.4060115812229068,
                        -2.7521145232517332,
                        0.5384591747918961,
                        -0.025146346745102858,
                        0.04148365512335889,
                        0.0900830775777633,
                        0.08113069390422853,
                        -0.5596015229041134,
                        0.3027094433552203,
                        -1.164929853173168,
                        0.22234688804378275,
                        1.0005682046473436,
                        -0.33265428539244407,
                        -0.6076163300550949,
                        -0.4346868495756027,
                        1.3884182036612729,
                        -1.3745298562167079,
                        -0.4555949817922938,
                        0.8002833018485981,
                        -1.4289043798389247,
                        -0.274898925004511,
                        -1.2884410057630475,
                        0.3604040899815447,
                        -1.5083940671969271,
                        0.6231277029645002,
                        0.41009063744288343,
                        -1.6121897980176414,
                        -0.5040895584798765,
                        1.1401893681683182,
                        0.07260459725247648,
                        0.5876001012191048,
                        -0.39449935049675344,
                        0.863655594777523,
                        -0.8490852154091977,
                        -0.7006271920066423,
                        0.5358013266722296,
                        0.2894785407995983,
                        0.7856249334573866,
                        -0.900737171617751,
                        -1.5604371494949487,
                        0.22955012996209928,
                        0.7813896594406297,
                        0.7032031769280024,
                        1.547576962992757,
                        0.3390166686233723,
                        -0.9750459595681706,
                        0.0918010043548633,
                        0.09618819605512598
                    ],
                    [
                        0.11119526145296739,
                        -1.600911175261695,
                        -0.9610124993078986,
                        -1.0872470654235973,
                        -0.5202235605993601,
                        1.7501672920764202,
                        1.20028759692836,
                        -0.35566252145714955,
                        -0.9161227427648451,
                        -0.40560594172533465,
                        0.966650994280091,
                        -0.14170497547834396,
                        -0.9365197748998831,
                        -0.3662586503340481,
                        -0.39530482769637815,
                        -0.15682908878024113,
                        -1.0027584523612627,
                        0.11966648973258398,
                        0.2182928404940189,
                        -1.1671863864973868,
                        1.0430787850419085,
                        -0.452432390038541,
                        1.0911272290928489,
                        -0.30896138753373537,
                        0.2134446168344861,
                        0.3016586462213772,
                        -0.3420173322531942,
                        0.6946740833466986,
                        -0.8308115124901292,
                        0.5457922759031979,
                        0.18886080973414587,
                        -0.039631435515534885,
                        0.6237304168277045,
                        0.011395001902924586,
                        -0.14315855047165682,
                        1.140057433257062,
                        -1.8747433408722853,
                        1.312742324085247,
                        -0.6768046749999832,
                        0.29467834547746585,
                        1.2520576296418597,
                        -0.4865591182289493,
                        0.12181528171174426,
                        0.06899339046917147,
                        -1.1211233345083396,
                        0.16031020961978434,
                        -0.8540343922828815,
                        0.1010252229935927,
                        0.57192998158851,
                        1.1265233853436467,
                        -0.32081604056943497,
                        -1.2403491100736448,
                        0.8037251354416765,
                        -1.9887115137332976,
                        -0.08712279569541533,
                        1.0345170171616753,
                        -0.008679002326966187,
                        -0.4016206350587995,
                        -0.2435834842425622,
                        2.027675660218729,
                        -0.01818607888005977,
                        -1.2958033218661094,
                        1.919140517888045,
                        0.3828100700882553,
                        -1.0019339409073302,
                        -0.3767812694434795,
                        1.6028587627813464,
                        -0.8384832524909996,
                        0.5546207589725596,
                        0.6973420564800045,
                        0.17991597933060677,
                        0.003832134147585062,
                        0.031638199690384755,
                        0.9529376392632821,
                        -0.7371111090857698,
                        -0.32339555230000266,
                        -1.8045918643939363,
                        1.5570222454458371,
                        -0.17556468883186685,
                        -1.28603120870431,
                        0.2943123656560155,
                        0.21743323180095672,
                        0.321818610932722,
                        1.2762552194860557,
                        -0.7992215599098619,
                        0.7525383830692054,
                        -0.9612319099927095,
                        0.8924514446497409,
                        0.6103232370226751,
                        -2.5204319381910594,
                        0.6770689523083664,
                        -0.7551772835523651,
                        0.6491469952254658,
                        0.7875695194889667,
                        1.5686058314328772,
                        -0.6039093774565427,
                        -0.8808298193029723,
                        0.21489595636466657,
                        -0.9637315725270894,
                        -1.5491689625584133,
                        0.5471377997772324,
                        -0.02770092314758895,
                        -0.3396657446239293,
                        1.5931940221614105,
                        -0.9869618982263246,
                        -0.034127138127869855
                    ],
                    [
                        -0.29723905436504394,
                        1.1307714553730617,
                        0.5305387710242389,
                        0.42484357594515254,
                        1.1027975556467409,
                        0.362994443194144,
                        -0.2063540130946718,
                        -0.5281784572640897,
                        -2.3368006788943236,
                        0.6044543327042433,
                        -0.2752409594437493,
                        -1.5128221346419846,
                        -2.213173645572365,
                        0.8754390061797866,
                        -2.1099716938516346,
                        0.062183221423886256,
                        0.11304985914110262,
                        1.7164730359552838,
                        0.345738008244411,
                        -0.4049113493141059,
                        -0.4336053860487584,
                        1.349052683682271,
                        1.1519535236030296,
                        0.9016830161372162,
                        -1.6458491271639455,
                        -0.37675771274389164,
                        -0.7288822769521736,
                        1.149622300019175,
                        -1.3013984346187288,
                        0.6153162362246098,
                        0.1605954500266679,
                        0.7179333205830436,
                        -2.3618187908460277,
                        1.080165256065215,
                        -1.4292349135891744,
                        0.9066969652317929,
                        0.2385725541370588,
                        -0.5984776549029966,
                        -1.882794794989524,
                        -0.26825183680192904,
                        1.2134290507494,
                        -0.6599098108574206,
                        0.6361256763575639,
                        -1.3600819634420613,
                        0.8987538070119532,
                        -0.7292211336155733,
                        1.8005820885863264,
                        -0.34386776866170105,
                        -2.1819291260810485,
                        -1.4361089267751996,
                        -0.6515013373606795,
                        0.33909266584337633,
                        -0.37403645551949133,
                        0.05517149789793709,
                        -1.2567682190240632,
                        -0.17758279563287538,
                        -1.1073930531452878,
                        0.38085214782571564,
                        -0.36072849493981257,
                        1.1782589283023337,
                        1.402578268565619,
                        -0.18832236402257196,
                        0.7211973407150155,
                        0.05454925757153814,
                        -0.2875982023843783,
                        -0.7270161499795641,
                        1.2223895812280248,
                        -0.7242742637931648,
                        0.7009954951573164,
                        0.6519431836218195,
                        -0.819479831260366,
                        -0.3424611440736234,
                        -1.172415440102241,
                        0.8011545778924978,
                        0.1664623812086416,
                        1.0508583109223657,
                        0.34296669989707806,
                        1.2161488031162622,
                        -0.7798232118461835,
                        -0.5439675265046289,
                        -0.1440136646111356,
                        -0.49188520989790513,
                        -1.1187360944188178,
                        -0.8992065366379866,
                        -0.5635857527715518,
                        -0.09006522560413095,
                        0.1930185059983378,
                        0.47135986929894524,
                        -1.1432408245993424,
                        -0.4030267218967146,
                        0.7561654073651919,
                        0.41258865989742416,
                        -0.33608150348362914,
                        -0.4105350516613416,
                        -0.393484389318534,
                        -0.6584286825647324,
                        0.230662219285362,
                        -1.7882943457389975,
                        -1.0623858109063458,
                        0.3487163151299933,
                        0.7938778858820655,
                        0.3576914149163966,
                        -0.9623483350152604,
                        2.7370957195736825,
                        -0.9198892008842681,
                        0.9499738645284576
                    ],
                    [
                        -1.0929832604826915,
                        0.6476511338237794,
                        -0.1591116760633807,
                        -1.7570278646379829,
                        0.4693229706926339,
                        -0.557924437393328,
                        -1.3972362693342946,
                        0.16454570543841968,
                        -0.2818833656670437,
                        0.036448771763977525,
                        -0.3583839421353418,
                        0.2230650211905728,
                        -0.12383333989227248,
                        1.2496806551789021,
                        -0.2252659722722891,
                        -1.1832464297795793,
                        -0.42446744179712964,
                        0.4905667198761379,
                        0.4195161771508608,
                        1.229859706340886,
                        0.1935979775635465,
                        0.3237040106528137,
                        0.784915513358784,
                        -0.29427757278721106,
                        -2.579823719302576,
                        -0.01997125765764199,
                        0.42840104928690254,
                        -0.09015770887972088,
                        0.23486439549665064,
                        -1.5741031929047755,
                        -0.4039066654410998,
                        -0.9405353061551085,
                        0.30916229825404123,
                        0.35367405157505993,
                        -2.1776382578762994,
                        -1.4204095447695035,
                        0.5688254596149802,
                        1.6089865978156244,
                        0.09776901499856881,
                        -1.482553309914258,
                        -2.2552111639218753,
                        0.1641262623507836,
                        1.1275676193925552,
                        -0.5967229923837017,
                        -0.36133265755919036,
                        -1.7460285118292431,
                        0.2541286272948488,
                        0.5954407286961173,
                        -0.4329188925154399,
                        -0.5358455973055344,
                        1.2847228553174115,
                        1.1086130666654614,
                        -0.8748363208777026,
                        -0.9443993315116923,
                        1.5626760864579976,
                        0.3193516474994142,
                        -0.01885392503022923,
                        -0.9307836307159525,
                        -1.0218520794752186,
                        0.7424333961544289,
                        0.7844952257191864,
                        1.6105856157423348,
                        0.7601273490829272,
                        1.510767028874631,
                        -0.4445424256275787,
                        1.6690791335236546,
                        -2.141840713051101,
                        0.8452366347558221,
                        -0.7000109698966852,
                        -0.41196241914471693,
                        -0.1305133073062393,
                        -0.13724806710954388,
                        -1.1094022449243202,
                        -0.25867244200567174,
                        -0.40619418948306013,
                        -0.9044220070961921,
                        0.12452359455555735,
                        0.2570191465700861,
                        -2.382325032146507,
                        1.612043417653175,
                        -0.6968199202012634,
                        0.39755909584223875,
                        -0.3683282703777739,
                        1.6747534320724826,
                        -1.230869437379509,
                        -1.357534919570423,
                        -0.1445052609655379,
                        -1.1288609537457384,
                        -1.4233617098256663,
                        -0.9033547517327554,
                        0.17479968977694715,
                        0.05599324982811737,
                        0.1518410240044745,
                        -0.5785738275540111,
                        0.7636342566240407,
                        -0.5296805092484872,
                        -0.3006825159143515,
                        -0.6174854210727594,
                        0.464281062919013,
                        -0.8598565630410988,
                        -0.05158090368793605,
                        -0.6146374602124794,
                        1.1041066318828903,
                        -0.18183825194159978,
                        0.8293875974051728,
                        -1.5944032846401643
                    ],
                    [
                        0.31669037057615507,
                        -0.10500356497036084,
                        0.4524586534489804,
                        -0.6919705319569446,
                        0.3429893618087487,
                        1.4924551086557938,
                        0.6213039138799413,
                        1.0705271153196756,
                        -0.19522283460794007,
                        1.196802749952548,
                        -0.6421068450872416,
                        -0.08161414999951568,
                        -1.7052411222849175,
                        1.7310858539723915,
                        -0.28117786716466997,
                        -0.6313383263469483,
                        1.7481903749579835,
                        -0.1055276031318861,
                        -0.4305894767580207,
                        1.0996134624349838,
                        0.5221091870079779,
                        -0.9466820354253105,
                        -0.8338673649792641,
                        1.1006051216294692,
                        -0.15338775261771725,
                        0.7785624898030967,
                        0.680010552004986,
                        -0.7840827732728908,
                        2.6294687317481977,
                        0.21030415228511487,
                        -0.4488160531125011,
                        0.6435857150230099,
                        -0.7985223963642546,
                        -0.8125431710676958,
                        -0.6142644450430247,
                        -0.3421836078248298,
                        -0.23078352541715672,
                        -0.3055901391487657,
                        -0.10976414476386465,
                        1.6052935822229488,
                        0.15389404641318213,
                        0.5114749674646057,
                        -0.5287044201230516,
                        -0.4129392036965094,
                        -1.7591138436339133,
                        1.5491561545811077,
                        1.346904032449115,
                        -1.256972202735289,
                        -0.8814564973659843,
                        -1.235880783380135,
                        0.6762681534012155,
                        0.10792264354084818,
                        -1.3966023103498693,
                        0.5407811206685534,
                        -0.4725526615673421,
                        -0.2790067839152968,
                        1.1377266288431804,
                        0.753394034745556,
                        -1.9419545111359293,
                        0.07407602888151903,
                        0.6770920253750542,
                        0.5468388862171275,
                        0.7834158869565852,
                        -0.9182589957307112,
                        0.34093159496421027,
                        -0.20887235621228553,
                        -0.2002630629744045,
                        -0.32667935783572905,
                        -0.7370873218686599,
                        1.166637592101535,
                        0.24995752938628,
                        -0.6069885499660297,
                        -1.022350839220747,
                        -0.4960060786327376,
                        -0.3272357238238402,
                        1.62235292477607,
                        0.8293679115480174,
                        -0.5871022808602271,
                        -0.08993692811761558,
                        -1.079203136719472,
                        -0.1209828456003205,
                        -0.29114370332159645,
                        0.6449739082116309,
                        -0.6308266244065833,
                        0.7185143938737676,
                        0.6420372328883931,
                        -1.3922591656802332,
                        1.251300289931863,
                        -1.525595107379294,
                        -1.6509111437137878,
                        1.9334216256971815,
                        -0.4963507365883583,
                        0.22217413495147945,
                        0.13509603976132842,
                        1.5024339228703838,
                        0.007601823940479289,
                        -2.586907457357099,
                        -1.6199970977332234,
                        -1.386476231853741,
                        -0.4112894969987479,
                        2.58615439331783,
                        0.3068967348639268,
                        -1.1739262248333555,
                        -0.4494712239854866,
                        -1.0369116320490828,
                        -1.0569629473178186
                    ],
                    [
                        0.10467860065098111,
                        1.355582669755886,
                        0.3334360155293977,
                        -1.0757690621494853,
                        0.850313247402741,
                        -0.8644126887039967,
                        -1.747379614813047,
                        1.1264312598336281,
                        -0.833190953729836,
                        0.3173022460883451,
                        0.5983532586872196,
                        0.015691337799411637,
                        1.0267038943154345,
                        -0.7153021933384917,
                        0.16046520700972752,
                        -1.6500889636465867,
                        -0.9232226969856443,
                        0.6561443675960951,
                        -1.003162185275187,
                        0.08772590498909179,
                        -1.1249697628145199,
                        -0.1189112752983892,
                        0.6273830758453594,
                        1.6853445160550002,
                        1.1288681590245333,
                        1.5584202594068075,
                        -0.7102401234386723,
                        -0.24887985448470773,
                        1.2206802262589809,
                        1.3867650310232855,
                        0.5138757001766587,
                        0.8378329687187961,
                        1.130544916588931,
                        1.239070738502079,
                        0.0031355105096542027,
                        -0.5278595339594261,
                        -1.5107980941212136,
                        2.142269405535917,
                        -0.023117786541302636,
                        -0.42538393881476433,
                        0.2820665000925269,
                        0.11994519113931328,
                        0.16438602897262408,
                        -0.5164692087259368,
                        0.8318211375583942,
                        1.3532625990514968,
                        -1.0371700906031878,
                        -1.5602238645615296,
                        -0.8003497611190371,
                        1.3496913012772902,
                        0.5044896002973471,
                        -0.5275849438996846,
                        -0.9325841248407034,
                        -1.9192515891121749,
                        -0.5206601281403579,
                        0.03406375955702111,
                        0.6447982554288904,
                        1.0299743096516223,
                        -0.28715145200507836,
                        -1.3716125680228304,
                        -1.3838329235048934,
                        -0.8643990568166249,
                        -0.6776841777925734,
                        1.0636204345933138,
                        -1.08474356222597,
                        -0.5517168228826482,
                        1.0385501149039884,
                        1.328967773903072,
                        -1.2803621275053418,
                        1.3218492370155135,
                        0.32026918979586566,
                        -2.177988603524257,
                        -0.466018566493808,
                        0.5265528574716563,
                        0.47909777966369954,
                        -1.129031594755439,
                        1.5425074179698417,
                        0.6485496945944927,
                        -1.065500675352035,
                        -1.2292618833012396,
                        1.2605925632609625,
                        1.003174871620483,
                        0.5822870300416124,
                        0.5428217996037726,
                        -0.6066297060937019,
                        0.7893174256220931,
                        0.22673314463562502,
                        -1.2071064807052787,
                        0.4682679667790697,
                        0.230021170714258,
                        0.6164107282039724,
                        0.28512805822479526,
                        -1.5170931668735728,
                        -0.33649527918497285,
                        0.19994817820389005,
                        1.4613404825803875,
                        -1.400145789333651,
                        -0.19940422570942587,
                        -0.2620885654600713,
                        -0.32764402241062324,
                        1.1765046980473766,
                        -0.7693405675359675,
                        -1.2470352029680567,
                        0.36283617414960007,
                        2.9989036062701984,
                        0.16747848556116518
                    ],
                    [
                        -0.8932658782534293,
                        1.0556411211108432,
                        1.6582171770298764,
                        -0.7499532620143877,
                        -0.6197991493317936,
                        -0.5772849434495371,
                        -2.152042327604795,
                        -1.9844113191856994,
                        0.924005446798863,
                        0.6025268524833542,
                        -0.8213778708362551,
                        0.5440455632911788,
                        0.38749290368245415,
                        -1.531913018872242,
                        1.6675462870943383,
                        -0.45778543849421705,
                        0.14744945441307045,
                        0.0018053342691574164,
                        -0.507223185132479,
                        1.1121444404115524,
                        0.30702687722180294,
                        -1.2015927877417125,
                        -0.4025013007649427,
                        -0.3618864507429575,
                        -0.39459765369355876,
                        -1.3493172818206776,
                        -1.122478108304358,
                        -0.025467944378269283,
                        0.8943285178537704,
                        -0.2802456439006767,
                        -1.5065793544437267,
                        -0.6529041208890168,
                        -0.7940284558920642,
                        1.2112536758807717,
                        0.5685479526467742,
                        -1.9132996520316243,
                        1.8950817051991582,
                        -0.6989707206325784,
                        -0.1677571988152081,
                        1.8050556462710616,
                        0.7062728124730229,
                        -1.0423828206158807,
                        0.03518527836453417,
                        -0.6782649954800885,
                        1.0077923523413255,
                        -1.2381993849418154,
                        -0.024880467276615956,
                        -2.5096560068703733,
                        1.0466835991025312,
                        -1.5650313519556676,
                        0.014490800399453907,
                        -1.6568536517253667,
                        -0.3715982597136044,
                        0.3006349202359022,
                        -1.2199849941648988,
                        -0.002782692848386228,
                        -0.25388957410876856,
                        0.4173349358928834,
                        0.07799950489148075,
                        0.32137277900645345,
                        -0.7107154822428747,
                        -0.2282953640944266,
                        -0.268550241523191,
                        -0.187226489559508,
                        -1.8565318666761845,
                        0.26380395945704577,
                        1.584907655039319,
                        -1.0101583166789485,
                        0.4519618214279253,
                        0.02530426225562522,
                        1.326432806547176,
                        0.8817601718488421,
                        0.20600641516845322,
                        0.18323050161497934,
                        -0.4100882123210519,
                        -0.41715267232780895,
                        -0.9669442760792709,
                        1.4919071859213622,
                        -0.3884946801817776,
                        0.2471175095438822,
                        1.6413336551139568,
                        1.2748917635692527,
                        -1.540110901188042,
                        -0.14548902603842195,
                        -0.9649958900658961,
                        -2.3279830338954373,
                        0.13436614525020743,
                        2.3901577135993213,
                        0.15019754145754294,
                        -0.09479973485938474,
                        -0.910016454799124,
                        -1.4942094684684673,
                        0.7947717726968118,
                        -1.1325297394522365,
                        -1.5764824728461952,
                        -0.3866097471046861,
                        0.8834321054343076,
                        -0.5935748490442625,
                        -0.346302757793724,
                        -0.8008237011773651,
                        0.29894960796414793,
                        -0.6376987780206059,
                        -1.236656296369422,
                        0.2031355510865058,
                        1.708506126425089,
                        0.1444056335422389
                    ],
                    [
                        -1.444617083869526,
                        -0.14999555961198704,
                        -0.7822336446702587,
                        -1.1284569119741104,
                        -0.7134073811864666,
                        0.4863884995125234,
                        -0.047814666201140735,
                        1.0502770438448605,
                        0.03141605336534192,
                        0.20252053079619728,
                        0.4204708859931782,
                        0.8983934079229835,
                        -1.814461890669186,
                        0.25444174703932154,
                        -1.1880308795094852,
                        1.4512628327118817,
                        -0.45288366402568886,
                        1.10323635118623,
                        0.5941001679409915,
                        2.0714505743607834,
                        0.6204205069103231,
                        1.9022956342148432,
                        1.5151240953921081,
                        0.7726008026936824,
                        -1.5782539822689596,
                        1.4012473112381947,
                        1.5041343248839194,
                        -0.33444221309811023,
                        -1.1616310210318206,
                        -0.23769777043592777,
                        -0.8448487427099592,
                        1.0075780519738646,
                        -1.7307354042942684,
                        0.7770652598197364,
                        0.1554752280065747,
                        1.6272206197733414,
                        -0.4521967178303592,
                        -0.6257225108503663,
                        1.4337497334966842,
                        -0.2642429941745426,
                        0.5669437955764681,
                        -0.9540105762309888,
                        0.7744045908669049,
                        -0.08540618230684159,
                        1.389670139498587,
                        0.45184976333247806,
                        0.3427648413750815,
                        0.45860874223656894,
                        -1.1265173224273435,
                        -0.0416045843531119,
                        -0.5802868967702458,
                        -0.8906795823740714,
                        -2.1788078301431804,
                        0.7994130678829177,
                        -0.9436409654642022,
                        -0.5232109381723966,
                        1.1742512485554033,
                        -0.02029087438005877,
                        -0.6729837710448702,
                        0.008266950540048685,
                        2.3036581139361627,
                        1.0597263429984594,
                        -0.40029014825230447,
                        -0.16562578324572594,
                        -1.3152808276157009,
                        -0.04858965540211955,
                        2.4168394278668983,
                        1.4162489878986204,
                        0.49007933921350383,
                        -0.5510378125809781,
                        -0.08724508882138612,
                        0.5400375931566871,
                        2.4713621426825174,
                        0.7365420064501546,
                        0.12073905670550655,
                        -0.3749808581039436,
                        0.7800862692745321,
                        0.8844436609433821,
                        -0.5913192484324445,
                        -0.1722526764337207,
                        -0.2016345738301188,
                        0.11360283068041843,
                        -0.45416385790372327,
                        -0.20038241324254766,
                        0.5152811690706999,
                        1.2902285287479442,
                        0.07156054686070315,
                        0.7748768147483487,
                        -0.2653204476484123,
                        -0.610387643875829,
                        1.2075895534647803,
                        1.4228088827234318,
                        0.9783598630120639,
                        1.1899981186190847,
                        -2.317796270650542,
                        -1.60499470323698,
                        0.7321807905351496,
                        -0.8804509473005868,
                        0.32534382462149547,
                        0.29701575363184457,
                        0.5893982756734695,
                        -0.36352588680647707,
                        -0.3740653353686223,
                        -0.6133370086084473,
                        0.42800254888265893,
                        -2.4671936455748753
                    ],
                    [
                        0.6359817061793717,
                        -0.39804477956857515,
                        1.8416031562416417,
                        0.3918580473973619,
                        2.1619738753881537,
                        0.11991972148088126,
                        -1.0296730457423773,
                        -1.3791011077283264,
                        0.7977515257879542,
                        0.43685915492127847,
                        -1.8144402981460337,
                        -1.5158004649032428,
                        0.3239551211195718,
                        -0.37831025142565783,
                        -1.3370801875372518,
                        1.8358982029350241,
                        0.37232328518769514,
                        -1.1829981965725616,
                        -1.0346904806638848,
                        -1.7654047044941272,
                        -0.7533456777547519,
                        -0.016603195819280502,
                        0.016836210450182052,
                        -0.3876134098156317,
                        -1.0296179917009716,
                        0.6021011998423429,
                        1.977501419864087,
                        2.0432066828589805,
                        -0.6319874726797672,
                        -0.456901215156551,
                        0.5326847231613988,
                        -0.09757006372908218,
                        -1.2597629141607438,
                        -0.14605940232404857,
                        0.8869488137709627,
                        1.5293720422001367,
                        0.5611509004235499,
                        0.21449677677048287,
                        0.29773031444866493,
                        1.1216785534425415,
                        1.0269582919782396,
                        1.5460430814652106,
                        -0.11771163639129836,
                        0.4976856498502248,
                        1.204567683854972,
                        -1.0165070141933699,
                        0.3301143121614017,
                        -0.29566683887338197,
                        -0.04397382509363716,
                        -0.5595393755218493,
                        -0.639851224113821,
                        0.21624233896227912,
                        0.9932962857580855,
                        0.9601005776403627,
                        1.1697299757115664,
                        -0.6610887672165778,
                        0.12313762811580227,
                        0.15521663041256653,
                        -1.3627247120764436,
                        2.853978226755389,
                        0.07266072777063522,
                        -1.0790100556218412,
                        -0.921362353610322,
                        0.2575550042061878,
                        -1.1296729666080962,
                        0.8035439624672573,
                        0.7402035607565083,
                        -1.1821351255341384,
                        -0.4011688860632315,
                        -0.002678799402763058,
                        -0.7715613151247251,
                        1.2293261925361016,
                        -0.9124302616908936,
                        0.271406679693978,
                        0.8696209205917971,
                        -0.46618841125554183,
                        -1.078593687318368,
                        -0.3989624983087639,
                        -0.6053569215186837,
                        0.41063888235931667,
                        -1.1420244418573577,
                        -2.0345195606678246,
                        0.8544717202924912,
                        0.5575202440118276,
                        1.2784005849109803,
                        1.7143846601404136,
                        1.7164294184312836,
                        1.281992867104317,
                        -1.0185391365289833,
                        1.1851550391359877,
                        -0.965615112733055,
                        0.2514624771429751,
                        -0.8462194714446784,
                        -1.5201262446683625,
                        0.5728700549922416,
                        -1.1370296586946447,
                        0.2881163893624824,
                        -0.6946296203585718,
                        -1.0371897316593202,
                        0.24190130038194985,
                        -1.0088808819751685,
                        -1.4444083535007253,
                        0.46989455018330933,
                        -0.014418792683560003,
                        -1.40694716218277,
                        1.0601488297749508
                    ],
                    [
                        0.15019593859649663,
                        -0.2698833138623603,
                        1.018794877190084,
                        -0.141021607447147,
                        0.6572726304705564,
                        0.9336090760145814,
                        -0.7622264047733536,
                        0.24859557637175125,
                        0.960631035593239,
                        -1.550645585690998,
                        -1.5832233453328928,
                        -0.0457823907277966,
                        -0.29809184541504397,
                        0.9187171654702244,
                        -0.5245163026613028,
                        0.20539281050386785,
                        -1.790385824557279,
                        2.284172858753861,
                        -0.3849459680730224,
                        1.0261698596218725,
                        -2.482160456119283,
                        0.22492736394764293,
                        -1.2210068561335732,
                        0.49504436129469404,
                        -1.9029713790687564,
                        0.4196431868826993,
                        -0.35119569594396305,
                        1.578692298836669,
                        0.2757994469497975,
                        0.5483197151742731,
                        -0.7351669881704124,
                        -0.28696252736515704,
                        1.2605804953158362,
                        1.2590535661307543,
                        2.078468825856067,
                        -0.45014170881051113,
                        0.9779393973994964,
                        -1.1544296350962788,
                        -0.022020755909638118,
                        -0.3480797616414854,
                        0.428091227183931,
                        -0.795389243550143,
                        0.705965947604504,
                        -0.6753429474189443,
                        0.8039830167473748,
                        -0.3637672560189409,
                        0.20575454610713062,
                        -1.4669500069950199,
                        -0.5399965988185419,
                        -0.7130621112844587,
                        0.7882450774395386,
                        0.3827790168033124,
                        -0.94726893192535,
                        -0.539529072310342,
                        -0.6114065776243507,
                        -0.4806892076295161,
                        -0.16399413995777565,
                        1.7741999149759602,
                        0.18633783941655294,
                        0.005290658311111496,
                        -0.46985521435647454,
                        1.4675771566763038,
                        -0.8168115692980258,
                        -0.27266447027814805,
                        0.3628034246834366,
                        -2.0186885295611328,
                        1.4715477791876088,
                        0.04102695596597314,
                        0.20210517282144058,
                        -0.4887230933849558,
                        0.014663182517301084,
                        -1.884676311376376,
                        -0.8176300211032005,
                        -1.0899631714935256,
                        -0.13566063634507045,
                        -0.9896075127956279,
                        -1.3561582332477329,
                        0.366647964176257,
                        1.0209429990565206,
                        -1.6434631830471575,
                        0.17297299290751586,
                        -0.2264929440845233,
                        0.4131748072194707,
                        -1.3142542134834185,
                        0.7795114797070998,
                        -0.05032188208405677,
                        0.1883600637377884,
                        -0.9591507318749591,
                        -0.8265968203888827,
                        -0.16804723427564006,
                        1.707477027303575,
                        -0.8086970141881343,
                        1.0100141642174187,
                        -0.923515174171503,
                        1.2599433046982285,
                        -1.5831502218322955,
                        -0.3434024650707802,
                        -0.8671176831908206,
                        -1.3333153468395764,
                        -0.16507034383479868,
                        0.8325509981280251,
                        1.7636857606090133,
                        1.458189090339621,
                        0.15734747698168844,
                        0.39261737109012335,
                        -0.11244582060366386
                    ],
                    [
                        -2.06965300058639,
                        -0.8801581797337179,
                        -0.8019370249970263,
                        0.6625951873724439,
                        0.4082191983041117,
                        0.22308440749361833,
                        -0.45053558694553864,
                        -2.3054465334126757,
                        -0.327204064871407,
                        -0.5532062271508149,
                        0.9170897632810221,
                        0.6361932424512123,
                        -0.7824018823335795,
                        -1.217069110679214,
                        -1.1887217088100228,
                        0.8774837138238729,
                        1.4943968828930754,
                        -0.03811700915219735,
                        -0.7289951475493311,
                        -0.12189203001690115,
                        -1.2911001710032208,
                        0.3371914597054038,
                        1.35971618761116,
                        1.1331436458170132,
                        -2.0802820445013133,
                        -0.7443041526829398,
                        1.3259599207382848,
                        0.958802291684388,
                        -1.176683300125868,
                        -1.1027191528094455,
                        -0.6487597606039004,
                        0.0221453324647017,
                        1.4265441608506992,
                        0.1101535903694612,
                        -0.4488700851778347,
                        -1.21987891771006,
                        -0.5613805477435512,
                        0.0975344645700502,
                        0.27931136964369846,
                        0.17686850459113218,
                        1.7230251345351706,
                        -2.189505176397417,
                        0.5755636582916321,
                        0.24450046139143858,
                        -0.7208716036287788,
                        -0.13933814942263875,
                        -1.5076924934558893,
                        0.49845887238047043,
                        -1.211211254174291,
                        -0.3180412072483698,
                        0.2919984680623929,
                        0.02589320847939667,
                        -1.3779672667738705,
                        -0.5158703994514928,
                        -0.41952562618066924,
                        0.8032999313100643,
                        -0.2834944426517414,
                        0.11114146404112371,
                        -1.3173378412787105,
                        -0.8924278441721373,
                        -1.531905284182524,
                        1.4727905497971545,
                        0.12097841997593063,
                        0.06562203579639159,
                        0.9310117186064534,
                        -0.15132573690533913,
                        -0.4481537686306138,
                        -0.019249928304775624,
                        1.4840199021644338,
                        1.1677417465498474,
                        -0.48256606537685953,
                        1.1252552638450526,
                        0.7325856451331882,
                        -2.141566611280899,
                        -1.738588412593891,
                        -0.5602083948623594,
                        -1.6421564937596516,
                        -0.23116589866562523,
                        -0.18595503692656873,
                        1.2452761253449236,
                        0.9684539372532197,
                        -0.2226213541176601,
                        -0.7844286691360978,
                        -0.743276618264065,
                        0.8939960911623884,
                        0.6604941622831682,
                        0.7411742141033998,
                        -0.2793129406476766,
                        0.5303399885484976,
                        1.6786996300186445,
                        1.539701676944133,
                        0.36360059501440123,
                        -1.7753514537908963,
                        0.16702730964053933,
                        -0.8511518723834409,
                        -0.1430568780809744,
                        -0.9355533061919636,
                        -0.09103372329814267,
                        -1.2798982766055031,
                        1.1047638351026434,
                        -0.2346958394577983,
                        0.6974603979778778,
                        0.9563703517652821,
                        -1.491329919450716,
                        -0.6961418228237671,
                        -2.237939277776439
                    ],
                    [
                        0.7031005162391875,
                        1.3398351226583622,
                        -0.01672432209381267,
                        -0.5167855904526708,
                        -0.0012446257208109015,
                        -0.35975351662137883,
                        0.19350611492366507,
                        -0.9373111763217161,
                        -0.8335513192398232,
                        -0.8897873027333572,
                        -1.6437022931817915,
                        0.857866944741008,
                        1.8527998870723321,
                        0.7466401498447928,
                        0.4220053192083668,
                        -0.13099226255471486,
                        -0.8167876779222232,
                        -1.0299300097806876,
                        0.43906334153356935,
                        -0.13287560906346615,
                        1.4100997797282115,
                        0.006099308644303377,
                        -0.2586101573875135,
                        -0.34816103135322896,
                        0.277534794045604,
                        -0.5390476853551386,
                        0.8627719197289581,
                        0.2789448814338786,
                        -0.24745502942580572,
                        0.5063578488832396,
                        1.685167253967244,
                        -1.215817516718925,
                        -2.0248767760893065,
                        -0.580060550255629,
                        -1.098585413051509,
                        0.3303828321945931,
                        -1.2197199192256523,
                        1.2117723193066936,
                        1.953154774875745,
                        -0.4688379718535225,
                        0.9381479494389822,
                        0.5818300026757803,
                        -1.1787112525923134,
                        -0.6571488182112378,
                        1.433675094720589,
                        0.0983224088043445,
                        1.2864451480524415,
                        -1.9398743667508207,
                        0.7399607772132456,
                        0.9190377391916589,
                        -1.4138377851501704,
                        -0.04292809580091586,
                        0.8003890252971707,
                        -0.9408323284137028,
                        -0.01858848196619345,
                        -0.6583313812959561,
                        1.649854862383002,
                        -1.1558731903262573,
                        -1.6817586732749652,
                        0.7212365037913775,
                        -2.0262980669254578,
                        -0.47765549997065243,
                        -0.030919654981146953,
                        -2.099178939832751,
                        -0.5811615602033458,
                        0.682512215484153,
                        -0.5805031857525235,
                        -0.2919914074095957,
                        -0.7132775522447665,
                        -1.6415176922628116,
                        0.47110435278155544,
                        -0.16496351343966748,
                        -1.0747619734491005,
                        -1.9100131434734733,
                        0.7998048142605144,
                        -2.117199848738452,
                        0.9879859358043867,
                        0.24455037286782055,
                        0.8063548088293492,
                        -0.5368838956149043,
                        0.6526352450209651,
                        -0.5083055834141027,
                        -0.2942625215233165,
                        -0.7408431291151054,
                        1.1434537428833829,
                        0.5702423714928381,
                        0.3888841828810568,
                        0.09553846474676407,
                        -1.0099253953536207,
                        0.2846578940049598,
                        -0.22697557117759753,
                        -1.363186086570562,
                        -0.696706346187927,
                        1.9599287786979347,
                        -1.015341321388638,
                        -1.4952647270892063,
                        -0.621457624046047,
                        0.15175181457051842,
                        1.9102855240665273,
                        -1.7197833751063418,
                        -1.1874213393096344,
                        -0.730934972642001,
                        -0.26444340941071715,
                        0.951189497757669,
                        0.12636576115817374,
                        0.03044948042622818
                    ],
                    [
                        -1.664721771685307,
                        0.14202971611157902,
                        1.863653506360714,
                        0.04391288819097424,
                        0.1796110130811168,
                        -0.9879813573250502,
                        1.3581857567790632,
                        1.7627004744724353,
                        1.7347284466792858,
                        0.0726858857415342,
                        0.88877886231322,
                        -1.3031608690914989,
                        1.6832728339332903,
                        -0.6010298329083537,
                        0.8217364087131322,
                        0.24067493329984313,
                        0.6235099912526371,
                        0.07712246581493996,
                        -1.2308550566874503,
                        -2.7042685132025377,
                        0.5382012044049757,
                        -1.1939015126183796,
                        1.2674961765185102,
                        1.4708667824101316,
                        -0.9881727306748918,
                        0.6164276599526542,
                        0.42706484742677603,
                        0.8862516154878944,
                        -1.2570865004460832,
                        -0.8711750663789548,
                        2.47442920076346,
                        -1.3468678267967178,
                        -0.3311273840085644,
                        -0.5711459391648143,
                        0.03654936394608534,
                        -0.003745898768343341,
                        0.752733164462091,
                        -1.0563298702635422,
                        -0.7025294671363892,
                        0.46691097889548266,
                        -1.0724027396133287,
                        -1.6343081410757052,
                        -0.4499866032283147,
                        -0.2878351651007822,
                        0.9685467869012618,
                        1.6387724647587187,
                        0.1469289400225601,
                        -0.5784282901070972,
                        -0.17786717406198727,
                        -0.5102002198003178,
                        -2.4042351402655835,
                        0.5135396266762859,
                        -0.7523929460981494,
                        -0.03568797319837985,
                        -0.1069743547759804,
                        -0.5526488009367576,
                        -0.40712946403168465,
                        1.6684130413397256,
                        -0.9793522438969208,
                        1.5884784121552493,
                        -0.8039002308172426,
                        0.695000359250146,
                        0.8177659383960577,
                        1.105217097395113,
                        -0.1384036477781443,
                        1.6395314095208782,
                        -1.048256399453849,
                        -1.4077823171825687,
                        0.009861725007727817,
                        0.7919472116046213,
                        0.7679439788806155,
                        0.12875192948623493,
                        0.513710095664269,
                        0.45143077153948125,
                        -0.4142029119408632,
                        0.04283277336046252,
                        0.6208340382733406,
                        -1.0284255136055396,
                        -0.7046996138704019,
                        0.027153791817043693,
                        0.07906651209878884,
                        0.3414271388140795,
                        0.6504770682332802,
                        2.042070612740746,
                        0.6564470849813857,
                        0.47453322366235307,
                        -1.932260366557166,
                        -1.2618339189742172,
                        1.2350794689147493,
                        0.581601001737208,
                        1.1741276912733711,
                        0.4426068478529346,
                        -0.7670286748212164,
                        -1.1705122709822835,
                        1.980522974494259,
                        1.5607863935625574,
                        0.6215658147016223,
                        -0.982140508314486,
                        0.5035793649014483,
                        0.08929913657778613,
                        -0.9032907228294252,
                        -0.7678259187160863,
                        -1.071722269892772,
                        0.39014804476996806,
                        0.40043112352582855,
                        1.40796943368679
                    ],
                    [
                        -0.7480499826675552,
                        -0.16929204618203816,
                        1.1232905227562342,
                        0.09476141278255337,
                        0.15725371523902695,
                        -0.47775378677502456,
                        0.3793833509859603,
                        0.4417511328944529,
                        -0.3798666903746228,
                        0.2877221174764425,
                        -1.458614007868709,
                        0.443629000994443,
                        1.6807094087005632,
                        0.5968363328726176,
                        1.437452900218008,
                        -1.6207613382316877,
                        1.664875291973966,
                        -1.9185733260023332,
                        0.7181840917555791,
                        -0.05775621648379882,
                        -0.3584431508619875,
                        0.7508981155842319,
                        -1.561722724735184,
                        -1.0818452973244512,
                        -0.8994026521932765,
                        1.1487296795589421,
                        -0.6851016296241196,
                        0.36223041653120197,
                        -1.7582003602388052,
                        0.4418460002134679,
                        -0.6980146202384148,
                        -0.9116432809466057,
                        0.7726933164813491,
                        -0.6107457725416441,
                        -0.8273605773348784,
                        -0.8911644957358137,
                        1.2188811711530394,
                        -0.2742975133166787,
                        -0.7099057545583402,
                        -0.9057954811298258,
                        -2.299978572308972,
                        -0.6110955600081001,
                        -0.2919899543423159,
                        -0.21982104428653287,
                        -0.17411163932376153,
                        -0.05556129158718801,
                        1.6656305747617088,
                        0.7218285301854506,
                        -0.08246701705949663,
                        -0.10923810016835542,
                        0.5178795365576918,
                        -1.5968771702237887,
                        -0.27540916253921516,
                        -1.4007296506698137,
                        -2.722959015672103,
                        2.0936857866484786,
                        -1.6683189779413319,
                        0.9532581520715221,
                        -0.03658970106265681,
                        0.7345280417104043,
                        0.9916207669435938,
                        -1.947159598314766,
                        -0.403767890999834,
                        -1.2827362292068416,
                        -1.0849512724502937,
                        0.49417386239261063,
                        0.2005335554022097,
                        -1.0739164224421869,
                        -0.981885051485789,
                        -0.5278206500630532,
                        0.2210515664361522,
                        0.10094744774631868,
                        -1.449958596029913,
                        -0.7905919952869225,
                        0.7605867431625786,
                        -0.35317698432245587,
                        -1.0968904582684582,
                        0.611091829663573,
                        1.8363339731356885,
                        1.3879595739408723,
                        1.22952897972651,
                        0.6542242208532734,
                        0.9042146932849028,
                        -0.5971555406064919,
                        -1.0039298597106858,
                        1.175318911021289,
                        0.5278051383969241,
                        0.31564793692301507,
                        -0.21964337047110916,
                        -0.33826939504835646,
                        -0.2507215575181356,
                        1.70300159647336,
                        0.4126447800123352,
                        0.6395590185955292,
                        -1.7225111754046272,
                        -0.4676187907637735,
                        -0.8427706789092446,
                        -2.32276066684174,
                        0.22782543460468646,
                        -0.0139321758996247,
                        1.4832954248291128,
                        -1.7869828780206887,
                        0.4155216282038907,
                        -1.1734843932333896,
                        -0.10655581744125155,
                        -0.595847273717772
                    ],
                    [
                        -0.523170186607489,
                        -1.1326865735346292,
                        -1.5529492994585667,
                        1.3926607214124564,
                        0.7589319397400096,
                        0.16645375932032536,
                        -0.7870565755889652,
                        -2.999957344845373,
                        1.277194794259867,
                        -0.18229874920652397,
                        0.9597005732920199,
                        -0.8347213206854064,
                        -1.4244400942265403,
                        -0.1449354949051882,
                        -0.5358620265523076,
                        0.5591140249007361,
                        -0.8439386489608179,
                        0.11118129960974453,
                        0.1942606937363663,
                        -1.1868450847207959,
                        -0.45113656507889244,
                        1.184663980940718,
                        1.6759285745688361,
                        -0.19109245310387432,
                        -1.752693635801363,
                        -0.6799386407563354,
                        -0.3659222746017045,
                        0.3693800253732349,
                        -0.11434716390241513,
                        1.817802845670295,
                        0.21429747822514703,
                        -0.8587610873421437,
                        -0.8610846956693485,
                        1.5643874081455484,
                        -0.36587857996817263,
                        0.41012907565751283,
                        0.6089208654630575,
                        -0.658595037018281,
                        1.2581974571400996,
                        0.30366073684386147,
                        -0.2941195891553095,
                        1.513556349846126,
                        0.32031144981703885,
                        0.6011004644714465,
                        -0.790442984608695,
                        0.3169408454017043,
                        0.7207164771811769,
                        -0.2955894670929069,
                        1.3699239025265977,
                        -0.44438185352521953,
                        0.37463306825322773,
                        -0.8333878041879829,
                        -0.416943167945739,
                        1.0235832661380266,
                        -0.5276635866443344,
                        0.7826492553532357,
                        0.14787752855625402,
                        -0.718943781357099,
                        0.4959839038271734,
                        0.7377809439622359,
                        -0.6734288763011929,
                        0.25559083870565774,
                        1.5047371955056266,
                        -0.43676116846793883,
                        -0.5715297889736192,
                        -1.5183699194919125,
                        -1.8846804905017023,
                        -0.4214388259781874,
                        -0.6740682769512513,
                        -0.27943480886511385,
                        -0.8626392589243692,
                        -0.15850697644040185,
                        0.10739708156687608,
                        -1.4314157077278638,
                        1.697122273968173,
                        -2.15392152471965,
                        -1.183078337584398,
                        0.3356613112071752,
                        -1.0687897334920606,
                        -1.402014024578891,
                        0.6786417210829802,
                        0.1064801284725155,
                        0.8198023460756728,
                        0.6814678193461422,
                        -0.029436634103351744,
                        0.019620544073385923,
                        -0.7075622573312567,
                        -0.6742256164115471,
                        -0.5122989719714776,
                        -0.9971621449637801,
                        -0.4683990459701104,
                        -0.06086603895480882,
                        1.2177860712803508,
                        -1.0327218168015442,
                        -1.3123912673412952,
                        1.6507105794539014,
                        -0.7131212515649924,
                        -1.5709904082116373,
                        -0.29866867858963636,
                        -1.0197840940258593,
                        0.47758130732117643,
                        0.9588766304873653,
                        0.07370597069149232,
                        -1.0312974688513512,
                        0.7941848893598932,
                        -0.05225447661561999
                    ],
                    [
                        -0.2969079821496089,
                        0.4566417198637948,
                        0.06794020292979149,
                        -0.3237066442768982,
                        -0.46357117922986746,
                        -0.872035903729841,
                        -0.7554898314081653,
                        0.5206711463903175,
                        -0.6536708776985483,
                        1.2007284834010978,
                        0.40260400285895265,
                        -0.030797024295914462,
                        1.6182917383095912,
                        1.0368688644884834,
                        1.3187466193401918,
                        -1.8210340028036989,
                        -0.30507641692739734,
                        -0.14286872065826417,
                        0.20989377334073578,
                        -0.6447652362278342,
                        -2.1019335766267444,
                        -0.0029300438055849297,
                        0.08166955584930098,
                        -0.29291995171951385,
                        0.5689083770218881,
                        0.29768406685066556,
                        -0.023222032926933384,
                        0.17970872651485292,
                        1.0035917587675285,
                        1.8937729804676409,
                        0.5702421002315771,
                        0.41162303442505593,
                        -1.57922343328433,
                        0.43444857020121985,
                        2.4741815993922063,
                        -0.8206567317724194,
                        0.2963137139853592,
                        -1.3482001438002993,
                        -0.5725844509455008,
                        0.3895571839131477,
                        -1.182485930183067,
                        0.4316516978751341,
                        -0.2490593043786543,
                        0.810805516481584,
                        -1.438365205478932,
                        -0.8261412505321354,
                        0.7240671137866793,
                        -2.521999918428205,
                        1.382619259259817,
                        -1.1317986954521149,
                        -1.078859725584712,
                        0.9177744136135593,
                        -2.16053493616722,
                        0.9693001351926557,
                        0.06092152730614371,
                        -0.6332215636244646,
                        -0.985231091891379,
                        0.10028300039688197,
                        -2.9999155263383375,
                        -0.9832348119028981,
                        -0.8727849888617849,
                        1.4079968824412687,
                        -0.6255723859472134,
                        -0.9190641797553297,
                        -0.8365792020163644,
                        -1.7146882823102416,
                        1.588601876097867,
                        0.11112343701002064,
                        1.2221522340739601,
                        1.5129896605290563,
                        0.41260278575052833,
                        -0.9433616067972229,
                        0.9578408863292412,
                        0.8999392899504962,
                        0.22332349889695113,
                        -0.2991459489243684,
                        -0.7659209102139951,
