{
    "settings": {
        "batch_size": 12,
        "loss_function": "multiclass_cross_entropy",
        "output_size": 2,
        "hidden_size": 106,
        "avaible_id": 2,
        "activation_fun": "Sigmoid",
        "convolution": false,
        "input_size": 106,
        "input_shape": null,
        "kernel_size": null,
        "depth": null,
        "optimizer": {
            "optimzierType": "SGD",
            "layerType": "Dense",
            "weights_clip_range": 3
        }
    },
    "hidden_layers": {},
    "input_layers": {
        "init_0": {
            "id": "init_0",
            "act_fun": "Sigmoid",
            "is_ending": false,
            "is_starting": true,
            "input_layers_ids": [],
            "output_layers_ids": [
                "1"
            ],
            "optimizer": {
                "optimzierType": "SGD",
                "layerType": "Dense",
                "weights_clip_range": 3
            },
            "reshapers": {},
            "weights": {
                "W": [
                    [
                        -1.147899775611087,
                        -0.7091591511160638,
                        0.20284543501390873,
                        1.9796233231318754,
                        1.7529122535187,
                        -1.0065425763680467,
                        0.36160421828579953,
                        -0.9202259500665212,
                        0.32936491944314183,
                        0.7318816582156894,
                        0.0360471559137075,
                        -0.6293782224068541,
                        -0.7551701190578637,
                        2.1260998289579445,
                        1.855941031509268,
                        -0.45092989204323436,
                        -0.7798516344409623,
                        0.9955499664688998,
                        -1.0557645769554018,
                        0.21772190030056537,
                        -1.170181411012632,
                        -0.01827020876580496,
                        0.28391005344458614,
                        -0.017564087052247247,
                        1.3009176035381085,
                        0.34534303718873743,
                        0.9326642762711241,
                        -0.2092723147988237,
                        0.7734763895075616,
                        0.697857291268529,
                        1.2971340097395843,
                        1.6654289533890196,
                        -0.08416075986813638,
                        0.12106349346614505,
                        -1.941666567176006,
                        -0.11893071563251284,
                        0.801440555220098,
                        0.7427535143648377,
                        -1.4004671779442535,
                        -0.5216404573810961,
                        1.3038756986924813,
                        -1.3444457021133613,
                        0.9333126499239409,
                        -1.2935709554949621,
                        2.5310743601156775,
                        -0.9291545119156185,
                        -2.4207525328893764,
                        0.6791083838040813,
                        -1.2538420236983732,
                        0.317307781564108,
                        -0.26193509292155004,
                        1.488684414857149,
                        -0.46859362522219195,
                        0.09438638601489543,
                        1.9243715338917313,
                        0.3872033176554061,
                        0.15902819284182032,
                        -1.0889398332961993,
                        -0.37989114110290595,
                        0.359272321146338,
                        0.795089205110433,
                        -0.08998779468183263,
                        0.1314591299501689,
                        0.45126574782109313,
                        0.11536741140951977,
                        0.9925803678190097,
                        0.08691239064453157,
                        -0.00631463841008549,
                        -0.27907915917159076,
                        -0.6658353555854017,
                        -2.2342751918190538,
                        -0.1649084179745936,
                        -0.9284619211167837,
                        0.48233464748679616,
                        1.0708519310207483,
                        -0.8043312295248554,
                        -0.010487659748041289,
                        -1.6415038835498836,
                        0.07328871938800981,
                        0.08239888877649906,
                        0.22112119918710976,
                        -0.13020676795425115,
                        -0.8859845382173276,
                        1.129634964714789,
                        0.9748162574968086,
                        1.360104587225435,
                        1.2961917209357638,
                        0.45418010511283274,
                        -0.9282623078640629,
                        1.455730439502158,
                        -0.03979697585774286,
                        -0.09115173274073408,
                        -1.734892772011325,
                        -2.607790184461131,
                        -0.8195445021338336,
                        0.5556763088161907,
                        -1.5737221956972605,
                        0.08878149678005641,
                        2.560854645420788,
                        -1.913618462865207,
                        1.796533871793502,
                        -0.41036664068162554,
                        -0.39393726639633664,
                        0.1637515914896378,
                        0.16563315051366928,
                        2.5335511595323568
                    ],
                    [
                        0.17199028045290427,
                        -0.8732006564608297,
                        0.2586801855734087,
                        -2.9937273017746877,
                        -1.4921400339565294,
                        -0.529802573771193,
                        -0.8852784626130451,
                        0.8567605203803866,
                        -0.12336935510647315,
                        0.5797483806948398,
                        -0.28337311719027114,
                        0.18534417301696912,
                        -1.536759806427131,
                        1.4201877642090384,
                        -1.2044521534224155,
                        0.15011032675746233,
                        -0.0875247259997263,
                        1.1405149613600771,
                        0.6882496876104007,
                        1.0969116498142968,
                        1.6691599408870028,
                        -0.8016207850696361,
                        0.05585688858612055,
                        -1.2624485439102333,
                        -1.3330274884912081,
                        0.9720629681849493,
                        0.3877408988368913,
                        1.0483357720905968,
                        0.9632062282887849,
                        0.3846118581126355,
                        -0.7568777977169548,
                        -1.0661547328522651,
                        0.34454003536324,
                        0.2754678385351527,
                        -1.2666277158376424,
                        1.5346179921270886,
                        0.4957167987912836,
                        -1.2973018392360562,
                        -0.31408355587487974,
                        0.0752498966007402,
                        0.9824867189993187,
                        -0.570537219301898,
                        0.7341720734308776,
                        0.6708800391209448,
                        -0.8437743278558826,
                        1.3882094749844205,
                        -1.3704119692731043,
                        -1.626232650354966,
                        -0.1228066457736866,
                        0.4494707729996408,
                        -1.7688653276784692,
                        -0.5005985442143425,
                        0.7107013700524109,
                        1.2694739707980913,
                        1.0528025257012292,
                        -0.7720502118225485,
                        -0.8997860310937328,
                        0.5087100947888313,
                        0.881897563874292,
                        -0.009764641718382188,
                        -1.5156528176186126,
                        0.8884715369596761,
                        0.05072313503269992,
                        1.0104755169662032,
                        0.3209240302184441,
                        0.5469635999970636,
                        -0.06377777740319944,
                        -0.7196495938618932,
                        0.13288133347789563,
                        -1.0461322765111962,
                        -0.9529260465543445,
                        -1.8602954783521577,
                        2.020287759572797,
                        1.9760781394555373,
                        1.873580016279049,
                        0.3761084015245408,
                        -0.8514976574073624,
                        0.1995292569226941,
                        0.6050663489582642,
                        1.0274051322639586,
                        1.7124458176232662,
                        0.49249994216550547,
                        0.6024293775489482,
                        -0.9013601665855394,
                        -0.7416961585266878,
                        0.22698892755529596,
                        -0.7580315795411102,
                        0.7554921685148726,
                        -0.1681129428671126,
                        -2.183005817721493,
                        -1.8697431872256591,
                        0.3017349516183619,
                        0.48366368223784206,
                        1.3211284540004236,
                        1.3606013234814072,
                        0.5485689946394381,
                        1.5169640949347365,
                        0.4244011905938844,
                        -0.4969719366539621,
                        -0.07194632903491209,
                        -1.6806607926125472,
                        -1.6403570547410218,
                        -0.501528261358123,
                        0.8903489063829648,
                        -1.2914446263275323,
                        1.3811096858962073
                    ],
                    [
                        -0.9601826045360496,
                        0.6770830816767667,
                        -0.23494430726853724,
                        0.16867137893600898,
                        1.2117190708942318,
                        -0.03588809545442553,
                        -0.9026282897065828,
                        0.7635618447861386,
                        0.47805210085203476,
                        -2.9655322810300677,
                        -1.132803371115843,
                        0.420247213613001,
                        -0.14556584839778636,
                        1.961410644958339,
                        -0.15504694082063714,
                        -0.29867758116474863,
                        0.3774374534233345,
                        0.8070049192780118,
                        1.374421984801264,
                        -1.1354477477859675,
                        0.564339376861112,
                        -1.7998257064471905,
                        0.997547841529302,
                        -1.204083303088515,
                        -0.22987155383786734,
                        0.7586141375547629,
                        -1.3671542020589356,
                        -0.8518735371981775,
                        -0.290824120535498,
                        0.1917614071409837,
                        -0.46900043251266815,
                        -2.6892017125091914,
                        -0.9701928724505818,
                        0.6818316842720886,
                        -0.5183460242682136,
                        2.26343374230239,
                        -0.6795111442314873,
                        -1.2101034753547975,
                        -0.4466182991666176,
                        0.15268202371940456,
                        -0.8216813096155515,
                        -1.910259220354847,
                        -0.9000391971959334,
                        -2.5662497862093416,
                        -1.1800187066200456,
                        -0.337053647794983,
                        -1.6055649152009648,
                        0.684324821162667,
                        0.1763927232591903,
                        -1.3400830664003072,
                        -0.06729584175064095,
                        0.694814300783325,
                        -1.028967419358267,
                        0.06014274968022424,
                        1.6949735653900615,
                        0.7568834562219838,
                        1.1796394613358918,
                        -1.9546656288365076,
                        0.7154409269734072,
                        0.43908608160235224,
                        1.3738144060082387,
                        -0.1760388211016559,
                        0.6011956718453079,
                        -1.2985359885386274,
                        0.08014783970251532,
                        -1.200598618777274,
                        1.414591939350931,
                        0.974906081661276,
                        -0.3225513413055724,
                        0.25500403849542447,
                        0.16182808305030563,
                        0.598113201663268,
                        -0.48274662465493373,
                        1.2300914250817054,
                        -1.735441677459039,
                        -0.0018893609455645302,
                        0.09603238741394372,
                        -1.8542017760598237,
                        -0.5707506737486343,
                        -1.1129494874245252,
                        0.36016633492559547,
                        -0.30783195183519796,
                        1.6596788367502908,
                        -1.0862449214478227,
                        -1.0624131742093268,
                        -2.0038999415593537,
                        1.6248465917622905,
                        1.1075241606099122,
                        0.3133581316086682,
                        -0.3909115202060162,
                        0.48192049833343553,
                        0.5646051639652598,
                        0.4083614087522954,
                        0.08915620229469212,
                        0.42393789700754175,
                        -1.8027310457387145,
                        0.5841084169440881,
                        1.5556494072008913,
                        0.5495646519935149,
                        0.22118671828385766,
                        0.8969345986438807,
                        0.05015531691804525,
                        2.602420523634187,
                        -1.6879525456939086,
                        -0.896115469237864,
                        -1.3950728552961726
                    ],
                    [
                        -0.15547041136123396,
                        -1.3534943214346111,
                        1.327335539893327,
                        -2.8004850011995424,
                        0.8553053922398557,
                        -1.6295988564377049,
                        -0.13661909275411174,
                        -1.3954144945632672,
                        -0.9039702114965292,
                        -1.955405453192836,
                        -0.3250798523796116,
                        0.21127234223755184,
                        0.11442669528775574,
                        -0.622943426555498,
                        0.7440945943712628,
                        -0.26304179035744985,
                        1.231802059157706,
                        0.6838899251364958,
                        -1.5413851251005335,
                        0.816993425243858,
                        -0.05886300634722946,
                        0.6454374847951279,
                        -1.405417201862226,
                        1.1941806127155001,
                        0.7331148005436043,
                        0.1935094435966816,
                        -1.250746482505436,
                        -0.48604982582664247,
                        -0.5262744215393269,
                        0.4353349997882914,
                        0.4129191352080043,
                        -0.32170111749202573,
                        0.8765912172239063,
                        -0.4249156854805855,
                        -1.6015707198550335,
                        0.7888380501325217,
                        -0.4134751831852313,
                        0.5830123750919678,
                        2.4186270243271966,
                        -0.5469395756234791,
                        0.9730574120824785,
                        0.36654881773721426,
                        -0.8930499708586764,
                        1.0641556086138713,
                        1.5157536342488043,
                        -0.12114458302838294,
                        1.6779780399817592,
                        1.318229212566347,
                        0.5721414752305648,
                        -0.7021374333837337,
                        -0.068753520442537,
                        1.3853716028810983,
                        -1.740279086832427,
                        -1.1927182125598685,
                        0.2104675403467222,
                        -1.1680148272200968,
                        -0.7491790792814947,
                        1.402354945787238,
                        -1.0887410704000688,
                        -0.2177885019542652,
                        1.8714764277237415,
                        0.16389205064942122,
                        0.23137910899990705,
                        -0.046848484569801646,
                        0.20476306926784912,
                        -1.0365748190971569,
                        -0.8304396967359692,
                        -1.0782814033764392,
                        -0.053081518399060605,
                        -0.10709210381638955,
                        0.8756566745046176,
                        1.0718996272572485,
                        0.14353247322293541,
                        0.6470489208195354,
                        0.8544523942882917,
                        -0.8360699351291236,
                        -1.1161618329629917,
                        0.3271730143944618,
                        0.5018427400905119,
                        0.3189637575855973,
                        -0.2778890212161465,
                        -1.8124937724597663,
                        -1.0432387006524375,
                        -0.7272337565516822,
                        -1.7525382289103197,
                        2.4449476591770627,
                        -1.0160200162310908,
                        0.9781357983122572,
                        1.19439753442289,
                        -0.9976501715887898,
                        -0.17193704396886872,
                        -0.5900337517000018,
                        -0.8404433637502666,
                        0.5869425310792251,
                        1.2609035633821195,
                        0.676521846585236,
                        0.27421026419650174,
                        1.4660177965611256,
                        -0.771535737575981,
                        0.5739669599875217,
                        0.11235617374144267,
                        -1.8270552798886117,
                        0.7286654411314474,
                        -0.3041662392565904,
                        0.22969863527125642,
                        -0.3728639717142958
                    ],
                    [
                        -0.7364773304868824,
                        0.8395780328870205,
                        -0.5215142504076897,
                        -0.47551240912927184,
                        -1.1220826121141236,
                        -1.7465815934146376,
                        0.051751983494496875,
                        -0.48716220752596673,
                        -0.3764322598637046,
                        -1.3595508204320264,
                        1.4378320370132893,
                        -1.7744874715365277,
                        0.5077636542928128,
                        1.1572383355010116,
                        -0.8715415097857715,
                        0.36934181857997544,
                        -1.693958676081626,
                        0.017054411091366056,
                        -0.19615888834336712,
                        -1.2695414514021992,
                        0.7101101089041326,
                        -0.37213369377464395,
                        -1.3346397883551981,
                        0.9864424231640531,
                        0.6665673840135774,
                        0.8052779250309972,
                        -1.3228432268296375,
                        0.2373739617543564,
                        0.2949188024492084,
                        -1.1522161336516008,
                        0.19734191863759162,
                        1.0559938192837786,
                        0.4682828166409771,
                        -1.1735004672622933,
                        -0.9435209912661484,
                        -0.13285390974915906,
                        -1.7598277576131034,
                        -0.42299471908135744,
                        0.06002669979499849,
                        -0.7199163484045025,
                        -1.5087883962624768,
                        0.4361198548942092,
                        0.17957785917326108,
                        0.02379215076467438,
                        0.30991916564380356,
                        0.17886309139501427,
                        0.018109007547764726,
                        -0.8852612399684604,
                        2.0754989690832537,
                        0.8416213593780448,
                        -0.5857047644751298,
                        0.9195985057710362,
                        -0.8583936520617269,
                        -1.2289926491121979,
                        0.4455387064302442,
                        -1.2973345584102234,
                        0.7395538736806174,
                        -1.927655196801552,
                        0.3061854402004771,
                        -1.284625692690879,
                        0.1800801282177653,
                        -0.5205531561841653,
                        0.30838538563439427,
                        -1.6741799241308626,
                        -0.0399744881361441,
                        1.0662227156254067,
                        -0.057963520435302805,
                        -0.4935375014882143,
                        0.6547051232625536,
                        -0.2722584770343874,
                        -0.13922361794316462,
                        -0.14377459480679808,
                        -0.7292801455836181,
                        -0.8130165026993593,
                        -0.5182491887032566,
                        0.5499129087590988,
                        -1.7867610608812579,
                        -0.0614514998154915,
                        -0.7911219311783063,
                        -0.6295050591297313,
                        -0.1871200004019576,
                        0.4435478647626744,
                        1.3018624897561184,
                        0.031253329837449356,
                        0.6517274742835363,
                        0.47161687958624826,
                        -0.41494975175904725,
                        0.3916644985991902,
                        -0.37398130317444606,
                        -0.7507161037205212,
                        -0.28239479005639406,
                        -0.24312838757405333,
                        -1.3223262417461268,
                        -1.4678857635931495,
                        -0.9936035696149027,
                        2.1465021087718337,
                        2.000684882102977,
                        0.279328514912634,
                        0.35462814620800986,
                        -0.2292117530599194,
                        0.4262316825395398,
                        -0.7217760066029701,
                        -1.1664037776940201,
                        -0.4425070665378218,
                        -1.016747413702905,
                        2.2668124970455787
                    ],
                    [
                        0.41054208223632643,
                        0.5474800387083909,
                        -1.1266242461924136,
                        0.48485330027407036,
                        -0.2701247681489046,
                        0.7351811032171671,
                        0.8222294641590824,
                        -0.5728451852018759,
                        0.9968907425052256,
                        0.7104673924475723,
                        0.7406655275682636,
                        0.01891995327185197,
                        -0.4721778931249583,
                        0.2834282702110314,
                        -1.053559455174038,
                        1.440965559770042,
                        -0.616264263110458,
                        0.7602612628118735,
                        1.5637345209794655,
                        1.7751595899043078,
                        -1.3102165590557138,
                        0.682573298324953,
                        -0.19994288838254543,
                        0.9890846605463707,
                        0.6609493979798203,
                        -0.828014976740534,
                        -0.6668030724989429,
                        -1.4831789996626792,
                        1.1987448794860474,
                        0.39351760827661086,
                        -0.6019032163511616,
                        0.47254166595046165,
                        2.217192766538363,
                        -0.8731538960489251,
                        -1.2310494750413903,
                        1.7033713661567014,
                        0.5723678050065588,
                        1.0783340084965638,
                        0.12301399930635662,
                        0.9195284530412113,
                        -0.8457657428605034,
                        -1.453099559290497,
                        0.4122312631119251,
                        0.18879638527726517,
                        0.3269374227259944,
                        -1.0083213499196906,
                        0.2299789844825087,
                        0.3056692203039391,
                        1.0429063835581571,
                        0.487854318313155,
                        -1.1809680450366271,
                        1.383622820807162,
                        -2.1501707553150613,
                        -0.04597938166942002,
                        0.5341319091197478,
                        -0.19518563755153528,
                        -0.8759705174801682,
                        -0.04366219654697094,
                        -0.9555407447390196,
                        1.4214217815795964,
                        2.291679446993673,
                        0.35643090785527487,
                        -0.9734010262113874,
                        0.38810540773001956,
                        1.8376787325831003,
                        0.9255012958399732,
                        -0.1602894139010651,
                        1.2162984034664905,
                        0.4622924527235461,
                        1.2685288166116013,
                        0.3689663226922957,
                        -1.7188836236224654,
                        0.922570409482691,
                        -2.0580736385459706,
                        -0.6346609960785683,
                        -0.31586027805128203,
                        -0.7471028484373972,
                        -0.5045503362120226,
                        1.1580539729383348,
                        1.2733566011026343,
                        0.12701385141191676,
                        -1.1741615203502291,
                        -0.06930694752467513,
                        1.026579753042877,
                        -2.3849791527545303,
                        -0.4823802540952916,
                        -0.20618370413495732,
                        -0.37682902429061954,
                        -1.5931609621346,
                        -0.14427568988612743,
                        1.517037683943418,
                        -1.0787150640634144,
                        -0.11371793920587528,
                        -0.4021381911100099,
                        0.9711883788376484,
                        -0.9872319179305404,
                        1.7426831467460306,
                        0.9619444672229125,
                        1.0089127002363767,
                        -0.9231087845000963,
                        0.9260795591361234,
                        -1.7521129565702676,
                        0.1308800293458771,
                        0.3332104177365116,
                        1.6766656570124645,
                        -2.0012226052247426
                    ],
                    [
                        2.49304996970799,
                        -0.1956288243352539,
                        -0.2914367700134357,
                        -0.1386890253822088,
                        0.833332784199883,
                        0.5976267073438224,
                        1.0800591212245805,
                        1.7878545476726324,
                        -0.13502390812161957,
                        -0.7902510252464723,
                        -0.30990536741328173,
                        0.8740150222009155,
                        0.16501417865246654,
                        -1.0570150002688021,
                        0.8101761679101818,
                        0.7000417140156865,
                        0.458773898019628,
                        -0.7209233621817605,
                        1.1937872169563561,
                        -0.30812353230074563,
                        0.18449809616001298,
                        1.0490603063670552,
                        -0.45783710637607744,
                        -1.0185273480327197,
                        0.5754698484748685,
                        -0.49948849677514406,
                        0.2672311193660543,
                        -0.5842702546903062,
                        0.8700827711208797,
                        1.0822580863312898,
                        0.599560312641062,
                        -2.186826335979031,
                        1.6911111732317454,
                        0.6657732523743634,
                        0.3750779899551598,
                        -1.0757574087980029,
                        -1.1848928123833773,
                        1.0110365341713368,
                        -0.8511951091893942,
                        0.2094010521514333,
                        -0.8006198849935894,
                        -1.1133564127393132,
                        -0.5445153035369837,
                        -0.34077243446016736,
                        1.7255738349445966,
                        -0.007516824190093205,
                        0.3503866557598056,
                        0.9531165138260352,
                        -1.4191676864954696,
                        -0.3652269759755517,
                        -1.298403941856294,
                        -0.7779150041795948,
                        0.20436840406363332,
                        0.7956452758298718,
                        1.2556030799016105,
                        0.0024165891817809395,
                        0.9415982634062097,
                        -1.1563901734397217,
                        -1.416967266642433,
                        -0.6222173368812703,
                        0.880113299276411,
                        0.05513341626565549,
                        -0.14463025026161155,
                        1.6538239895982954,
                        -2.2265742397010078,
                        -2.52307867676803,
                        -0.3000919397394181,
                        -0.04741491841208736,
                        0.3662034500145908,
                        -1.3282632723227739,
                        -0.08262964348832678,
                        -0.4393034365449105,
                        -0.9387091384866865,
                        -0.557280147032653,
                        -0.420514830358606,
                        -0.2023333369535492,
                        -1.4157354315621387,
                        -0.7709250877007602,
                        -0.9892648522850206,
                        0.19593836310750823,
                        -0.9215982332778533,
                        -0.8545584111978932,
                        1.1607325478586186,
                        1.281357546494866,
                        0.22217764056383515,
                        0.6196479213199716,
                        -0.356157982730481,
                        0.3892578700114695,
                        -1.9264595596805143,
                        0.4630130495490237,
                        0.4918570073497206,
                        -1.4073544136481657,
                        0.00015980408708523262,
                        0.7042338538785133,
                        0.9005277284348959,
                        -0.09678776938991213,
                        -1.894859401223084,
                        1.1438143372176022,
                        -0.8060075367419894,
                        0.4113105837142877,
                        0.05046912383837471,
                        0.7246893789717035,
                        1.0957444523694428,
                        -0.4916945901422905,
                        -0.06678759064843667,
                        1.3575168562068574
                    ],
                    [
                        0.1572559213207985,
                        -1.3826440889826086,
                        -0.3321871153573802,
                        0.7943552788858035,
                        0.6063176071731577,
                        0.5694866488134194,
                        1.3577280690950568,
                        -1.0467301202600596,
                        0.14575045129147465,
                        0.1959014479075058,
                        -0.23290771844114017,
                        -1.55686158372062,
                        -1.1574968458223003,
                        -0.8497494733722638,
                        0.2820199955625226,
                        -0.6185479392344903,
                        1.2314297752932013,
                        -0.1733962286638219,
                        1.215926932056559,
                        1.0353085529226551,
                        -1.9133017389416633,
                        -0.8546489247000243,
                        1.0777817229808453,
                        -0.8705190921301968,
                        0.32235626349162766,
                        -0.5220116890231066,
                        -0.9802347808410189,
                        -1.1483577588726455,
                        -0.9009266683254322,
                        -1.0409274112391158,
                        -1.3692711654982486,
                        -0.9826231697886052,
                        0.42215315704629364,
                        -0.8718250689662009,
                        -1.1940838581108724,
                        -0.25066253737659705,
                        -1.130055546011254,
                        -0.1262664073194076,
                        -0.0176938177399234,
                        0.17996382165612446,
                        -1.4151331522793202,
                        -1.1040665738286588,
                        1.7208943738800138,
                        1.5541980852398214,
                        -0.2085641868942255,
                        0.4532749841443137,
                        -0.8649379796924649,
                        0.4958322284113851,
                        -0.7591656048359157,
                        -1.1852519882674857,
                        -2.127650386542427,
                        -1.3680398000836702,
                        -1.5069974717224692,
                        1.2190770535258395,
                        -0.4541683505735782,
                        0.1807728456502346,
                        -1.1320435681924892,
                        -1.3338724386789698,
                        0.2852087059231274,
                        -0.4607436398168046,
                        2.106688757985507,
                        0.8301886230382451,
                        0.0701917650614215,
                        1.4438676642604913,
                        0.012737176474332057,
                        0.36071238269820133,
                        -2.231648689304322,
                        -2.497702828670046,
                        -0.6199900079562046,
                        1.2433442491543962,
                        -0.5305098206516101,
                        -1.0584135848728289,
                        -1.0192332380294804,
                        0.2934117382889124,
                        -1.9556855919705751,
                        0.029027003119017195,
                        0.3712819438401727,
                        -0.2744035216701684,
                        -2.9655145931296594,
                        -0.38111823209858786,
                        -0.25260353231174226,
                        -1.9985236676438645,
                        0.9478864778281971,
                        0.03689106361527605,
                        -1.4690431070905896,
                        1.6350385236261855,
                        -0.7827048297997085,
                        0.4759918223418402,
                        0.14131081909458545,
                        0.8108471481182723,
                        -1.3371667646029288,
                        1.390753920259448,
                        0.6114695367376229,
                        -2.350042054732595,
                        -0.9891655570982038,
                        -0.23030676237254308,
                        1.0294661577384578,
                        -1.0758882532452874,
                        0.2799402794696903,
                        1.7195443817006628,
                        -1.0048252790273116,
                        0.18033311914750638,
                        -0.6170823922968361,
                        -1.3471203062296664,
                        0.8080916539646452,
                        0.13610111985605589
                    ],
                    [
                        -0.7298031803530484,
                        0.6921793871589863,
                        0.5898724395710997,
                        0.12717345183752343,
                        -0.31724747154137134,
                        -0.16449087622304998,
                        -1.1977209154308428,
                        -0.28952474825329666,
                        0.5178249103594579,
                        1.3649307115673681,
                        0.49736864983810153,
                        1.251888883345726,
                        0.41435654494511215,
                        0.8728043047487078,
                        1.1715589708608707,
                        0.03060172091111192,
                        -0.015097610114074907,
                        -0.4081139650509795,
                        -0.16830959978835597,
                        -0.7329320404207703,
                        0.5298975588631163,
                        -1.2943584993288155,
                        -0.0507074833686136,
                        -0.28660233787203093,
                        -0.674610206337022,
                        -0.19673373815657472,
                        -0.07135108356837529,
                        -1.4229200218861364,
                        0.028922202342241264,
                        -0.15793353687581038,
                        -0.35378488329260493,
                        -0.22170668414715547,
                        0.7307922452614491,
                        1.0117190249182928,
                        -0.31362170497378167,
                        0.29689038973383114,
                        0.25285792633675946,
                        -0.7625294670383213,
                        0.3585290308818177,
                        0.3771418992681789,
                        -0.8527108264095534,
                        0.8663942726269901,
                        -0.01807535101755263,
                        -1.043250773522893,
                        -1.421798706871239,
                        0.9586140775247957,
                        -1.4026479940578904,
                        1.0662662101157503,
                        0.374208817494843,
                        -1.4234477768286469,
                        -0.1824407799778666,
                        -0.899263922479869,
                        1.498134378599346,
                        2.502191863358382,
                        1.0217521307827673,
                        0.6120215530558797,
                        0.14543819135040517,
                        -0.9121657897905531,
                        -0.29702344958421384,
                        0.7849844763748658,
                        -0.20311436646376588,
                        0.08996778123783665,
                        -1.5958902312600796,
                        0.044845809913460696,
                        1.215852549592119,
                        -0.7702529675272606,
                        0.3504171919866516,
                        -1.08383848185392,
                        -1.1070134729863212,
                        -0.9690055560929312,
                        -0.12071510109518213,
                        0.6231256861691131,
                        0.7180799145769831,
                        -1.4049681462257912,
                        -0.6375800192571263,
                        -1.687232791474834,
                        -0.7348312375390419,
                        -1.282799760468195,
                        -2.7271566723073617,
                        1.774506496358139,
                        0.14485937259230197,
                        2.1653145497425235,
                        -0.6218746356201439,
                        -0.002941955459129146,
                        1.213826599638887,
                        -0.40565303160127286,
                        1.4083857681824234,
                        -1.4939534520048037,
                        -1.6224581676510659,
                        -0.8602826993629461,
                        0.6801980035886999,
                        0.008732615826584916,
                        1.7759851044794066,
                        0.07120623295221094,
                        -0.006629602701631408,
                        -0.0219458977168961,
                        0.6971366881133673,
                        -1.6381416616495137,
                        -1.531357185429583,
                        -0.7244709158261537,
                        -0.5886018190734819,
                        -0.4921017069245529,
                        -0.3814842608565997,
                        -0.6211276679450414,
                        -1.8411038416665788,
                        0.8119262995132555
                    ],
                    [
                        -0.03812375007206845,
                        0.3125683215503085,
                        -1.6425109715565822,
                        -0.3157724809869965,
                        -0.42276749729221397,
                        1.5960633203185017,
                        -1.0689143810535977,
                        0.10446505166300293,
                        -0.12101656688252431,
                        -0.7174092165324816,
                        0.19363614613772348,
                        -1.3060644704418385,
                        -0.0025198450217497744,
                        0.8017407456110457,
                        1.058088333713317,
                        -1.9914324598333313,
                        -1.6991379872733077,
                        -1.681482998037352,
                        -0.466798990653339,
                        -0.5956319625274651,
                        -1.275151507172963,
                        -0.9788319145216462,
                        0.0839948046066162,
                        -0.6061931200151396,
                        -0.23976881920102336,
                        -0.6772506384297405,
                        -1.497785833119752,
                        1.0818716500279124,
                        2.8812851149250194,
                        0.29496721897973266,
                        0.5771529937485622,
                        -0.8536503317092884,
                        -1.6100521732699162,
                        0.140755657574229,
                        -1.2304580866072452,
                        0.4799717034737896,
                        -0.7197640476600375,
                        0.3793916246835962,
                        -1.872658491624061,
                        -0.41284379124907195,
                        -0.7037128740770195,
                        1.0089237451644302,
                        -1.4744580443662112,
                        -0.5526130660002276,
                        -0.3196470070110125,
                        -0.6831117742294238,
                        -0.4351772254847897,
                        0.8722356138326561,
                        1.7221803636054214,
                        -1.031944174300293,
                        -0.37887295939581245,
                        0.7922072950941967,
                        -0.1852553585826787,
                        0.0016771909431494566,
                        -0.5152832435585318,
                        -1.3225293681681012,
                        -0.3654520757165599,
                        -2.513145297196168,
                        -0.8169142917495922,
                        0.18542266068124322,
                        0.02551567950594739,
                        -0.7264367102848784,
                        1.3858496139584258,
                        0.4122133601996732,
                        -0.8282667192042489,
                        0.06236396345624244,
                        -0.07694223762338034,
                        -1.2113621929034732,
                        -0.8507094834354169,
                        -0.9395229858880966,
                        -0.9585616925347332,
                        -0.17030673029805243,
                        -0.2477599414608971,
                        -0.40479394594944434,
                        -0.9167190237647938,
                        -0.7573065079925141,
                        -2.1561370137484603,
                        -0.5183325239244776,
                        -0.23596615675866253,
                        -1.0316790654098513,
                        -1.352397959033239,
                        -1.2031932877228178,
                        0.928420832539383,
                        -1.2219082612116774,
                        -1.437760934013172,
                        -1.4146392609373883,
                        1.3068727895085253,
                        1.4082366783051732,
                        1.2621620096923953,
                        1.1401902099033747,
                        -1.1237098195324933,
                        -0.6916233086191057,
                        -0.29521318034068134,
                        0.25964511077281194,
                        -0.6980075764880442,
                        -1.157734127921598,
                        -1.0291659116931695,
                        -0.3088972740245087,
                        -1.0312269079585508,
                        -0.024355546629660267,
                        -0.05766211202186627,
                        0.5433542560775667,
                        -1.7353353516085626,
                        2.496231368134564,
                        -0.2920966448239309,
                        -0.35570274064471924
                    ],
                    [
                        -0.4087506201056778,
                        -0.1884410223282415,
                        -1.3331410533652484,
                        0.13038056014437255,
                        0.6320544432158296,
                        -0.21116036524771362,
                        -0.2538018848588775,
                        -0.5874505936886094,
                        -0.7130462799440513,
                        -1.541585687922722,
                        -0.8409369371762515,
                        1.8905364023487221,
                        -0.29811938809889804,
                        0.8714847505432942,
                        -0.8186906754693473,
                        -0.17353132907210675,
                        -0.008576729150344175,
                        -0.6774438329605132,
                        -0.25860481745183217,
                        -0.6318397048060498,
                        -0.5329568885644406,
                        -1.7855646250525539,
                        -0.8132393284115029,
                        0.023676283406204642,
                        -0.7263898874095416,
                        0.7148223005187697,
                        -0.9576190761822024,
                        0.31043219141233147,
                        1.6760334367541445,
                        1.6667363489998035,
                        -0.3087902791518697,
                        -0.4577755560370392,
                        0.06014249483141866,
                        0.2251082638794617,
                        -0.36471371037006634,
                        0.45943880000842074,
                        0.9528509053430887,
                        -2.337068333427994,
                        -0.8445241138854943,
                        -0.6797164729566634,
                        0.9359373931570175,
                        -0.2803246392049937,
                        0.5493555665092114,
                        -0.36955238677935026,
                        0.8371686157047618,
                        -0.3566801581195727,
                        -0.4109891311117691,
                        -2.096352632663562,
                        0.0768378341507787,
                        -0.8366345129401402,
                        1.0910119531552105,
                        -0.47298262961673165,
                        -0.6804693880943302,
                        -0.6974593706033947,
                        -0.9910211731577115,
                        -1.0264509639618158,
                        1.211560901335168,
                        -1.0935725225294546,
                        0.5732515431563469,
                        0.5124692138977539,
                        -0.337899883753985,
                        -0.4468084260425989,
                        -1.0147623815711797,
                        -1.8400006933589785,
                        -2.5429342377030832,
                        -0.04763736916618124,
                        0.01307273169126573,
                        0.4597614715448681,
                        0.11981139306170334,
                        -1.2832354084742599,
                        1.016131963836243,
                        0.16493349813908256,
                        -1.193848137747553,
                        -0.20223248625139362,
                        0.880297535996762,
                        -1.1133180221886616,
                        -0.03180550359661896,
                        -0.9957105701511868,
                        -0.9617534260753058,
                        -0.8930947731959689,
                        -0.23024275542020775,
                        0.9363608017518078,
                        -0.7005557045255557,
                        0.6005872077374992,
                        0.4399654518974721,
                        -0.4231012906568106,
                        -0.847644607895361,
                        -0.2724618333950948,
                        -1.4911869397448947,
                        -1.17089903877585,
                        -0.5527252321293638,
                        0.7098182695162892,
                        0.3445492492491403,
                        -0.7074528055882948,
                        1.0885725970747544,
                        -0.755075881460279,
                        -1.727462260287116,
                        -0.9789087064477905,
                        -0.25394477426217443,
                        2.750593580413339,
                        0.8791396607201467,
                        -1.2000517979350367,
                        0.2885924429710543,
                        -1.020524103186914,
                        1.3533502037530565,
                        0.9769462267700383
                    ],
                    [
                        0.6199683529317582,
                        0.30239617500520577,
                        -1.4930849616363986,
                        0.8626779317017726,
                        0.17421565247143447,
                        -0.6732859802737374,
                        -1.3740214363120806,
                        0.8336604197881312,
                        -0.2843359157354183,
                        -2.07668530540242,
                        -0.4364297253873155,
                        -0.6808640602523722,
                        1.6757595509015513,
                        1.0803272646035118,
                        0.7884102450735352,
                        -0.0596404655854676,
                        0.2546582485543923,
                        -0.8019373347576777,
                        0.31740833985617295,
                        0.04335332586965716,
                        -0.1770789257829832,
                        -0.7738534469209601,
                        0.8677494790966743,
                        -0.32262396484860373,
                        -0.5434435381329312,
                        0.5903526008424154,
                        0.4349847856947536,
                        2.2142794672318713,
                        -1.1234580765848448,
                        -0.971296832523851,
                        -0.2954590855086425,
                        -0.7433723546002561,
                        0.36898315773611834,
                        2.039037721532684,
                        1.2281665302431213,
                        0.8108917570882077,
                        0.20070714484638105,
                        1.3590037691376116,
                        -0.5835099908168564,
                        -1.0748206920461558,
                        -0.7604473601650144,
                        -0.4854968817451256,
                        -0.24410535905718955,
                        0.09715974393966331,
                        -0.031319893959380764,
                        0.5846049125524424,
                        1.5372999996041605,
                        0.10729465236629449,
                        0.8687678136050033,
                        2.2418714791017935,
                        0.4987568319663591,
                        1.5712659489395393,
                        -0.44763591477501297,
                        -2.8819630292381637,
                        1.1083669471856408,
                        -1.4611497537506923,
                        -0.1384140341092719,
                        -1.0403748486510924,
                        -0.9372608624373349,
                        0.19393921935757646,
                        -0.24170854383134285,
                        -1.1406792393940097,
                        -0.7996951524115528,
                        -1.1440737990781955,
                        0.381280250476124,
                        1.079278269609581,
                        -0.49467311282908416,
                        0.964708060278733,
                        1.6642341403424301,
                        -0.22106760543935042,
                        1.9247311103070932,
                        -0.5224429137989064,
                        -0.07665954794562131,
                        0.5498955160463612,
                        -0.6288823832910762,
                        0.1313049472949961,
                        0.5092992553274001,
                        0.9588358588694074,
                        -1.7750588652435009,
                        1.904133170993029,
                        0.10380143155520569,
                        0.3090728587800651,
                        0.29693587844264163,
                        0.11065730936381273,
                        -0.8718399332954003,
                        0.31197301420654727,
                        -1.8135470856196814,
                        0.13014785770845178,
                        -0.09573169195997319,
                        0.4691681645138024,
                        -1.0503185135281747,
                        0.5269067020837553,
                        1.7631725764333228,
                        1.562444605198161,
                        -1.1894121502167205,
                        1.4724595632823243,
                        -0.18957277907489511,
                        -0.6543838530610542,
                        1.8692928633604302,
                        -0.28082562109703235,
                        1.6150264982863094,
                        -2.372503646052199,
                        0.9970514300169955,
                        -0.11023178370903426,
                        -0.383248711733882,
                        -0.28411106910177814
                    ],
                    [
                        0.4720467889862451,
                        -1.6986879111058235,
                        0.3239816223024996,
                        0.14508748700143387,
                        -2.0885845170912773,
                        0.02484863134144345,
                        -0.16815129154792097,
                        0.18241257867934088,
                        0.13391540888844475,
                        0.45349994873973803,
                        0.3191469034008914,
                        0.6498569463333584,
                        0.49316956003383094,
                        -0.06543817345486348,
                        0.9228318032943512,
                        -0.2654250765321477,
                        -1.2956020053260293,
                        1.4775264660252552,
                        0.4807299511481834,
                        0.15257521946310415,
                        -0.6228614252265545,
                        -0.41100785255784267,
                        0.16529992376764469,
                        0.6184457837883144,
                        -0.05492804737550929,
                        1.5107252229312043,
                        0.4935268017291042,
                        -1.396371011293411,
                        0.2974658969777273,
                        -1.4154599104563053,
                        2.1758905356295437,
                        0.08325019794944191,
                        1.0387991978003341,
                        -0.2289690286764033,
                        0.6371375622934311,
                        -0.8782011386177977,
                        -1.3506263536243932,
                        -1.1709659435924193,
                        -0.05416982210767488,
                        1.50143603532941,
                        2.2181912786542384,
                        0.3613693808219173,
                        0.1560105242183082,
                        -1.9686165534230329,
                        -0.7799462857924747,
                        0.09077504722746119,
                        -1.735535549596019,
                        -0.6827539602380334,
                        1.8184064867743996,
                        -1.6102792756438744,
                        1.0580761255342233,
                        0.9589479160458642,
                        0.6150630560493562,
                        0.3686359952797397,
                        -1.174855722566234,
                        -0.872384670727954,
                        0.43905860472110436,
                        1.284760408137637,
                        -1.2920644127825676,
                        0.7608387223430046,
                        0.5264045545102741,
                        -0.4149983630086319,
                        0.1039191382030528,
                        -1.5696257650619758,
                        -2.930728490697507,
                        -1.7650831202536914,
                        0.7762048753447286,
                        -0.18632170563509148,
                        1.3382116301599771,
                        1.4969394300086958,
                        -0.2372221097331773,
                        1.2325898425883828,
                        -0.9840631051088129,
                        0.26356711249886644,
                        -0.800846390796168,
                        -0.7605494334063191,
                        0.8185193621578791,
                        0.9983706658441717,
                        1.3370807434237355,
                        1.9372749593410679,
                        -0.3062146877793594,
                        0.26674228258722227,
                        1.831400939490331,
                        -1.3191083797984717,
                        -0.5978521444323489,
                        0.13377454600979,
                        -0.25233493974896015,
                        -0.8294232928573734,
                        -1.79480665074785,
                        -0.8204583251170147,
                        0.6084591487604467,
                        0.32882265367191843,
                        -0.7425680003567129,
                        2.3121892554218726,
                        0.4597699637880248,
                        1.9507076362434717,
                        0.08440849155865586,
                        1.8854215507934136,
                        0.5712472847654999,
                        0.13330970622169033,
                        -0.6152024177777287,
                        0.028279115279123242,
                        -0.666447895158078,
                        1.498769888899772,
                        -0.6326173966603293,
                        -2.2742293007941585
                    ],
                    [
                        0.8873533625689483,
                        -0.9154808367144184,
                        -1.2560556196843737,
                        -0.6605442690534281,
                        0.17640731466359894,
                        -0.776161795261358,
                        0.1484194977118167,
                        -0.2834091805399197,
                        -0.010119525999099606,
                        -0.6160520480838825,
                        -0.21723992162447422,
                        0.2245408948567651,
                        -0.047056949251057696,
                        -0.07016593125413133,
                        -0.9224196157599226,
                        0.1748921627721854,
                        -0.0331851214045203,
                        1.945101770635955,
                        -0.16975604478843742,
                        -0.7798417965623712,
                        -1.0172166569199808,
                        -0.36214588093967065,
                        0.6354887883868806,
                        0.7664764826730339,
                        -2.1330634492441085,
                        -0.2808988896372052,
                        -0.42427804430177407,
                        0.2840479376626723,
                        -0.8015026657143972,
                        -0.43676418388862265,
                        -0.6400745024622544,
                        -1.1480447965630032,
                        1.7303288650402406,
                        0.45790590893615735,
                        -1.5878055221904337,
                        -0.4264057490709183,
                        -0.0955801373005489,
                        -1.3523477394061985,
                        -0.018315136631346454,
                        -1.4879323317890445,
                        -1.4272298784058361,
                        0.6585445312787621,
                        -0.2010270333143793,
                        0.14496578356407505,
                        1.5013246804525682,
                        -1.0487696463354241,
                        -0.896580129771072,
                        -0.4744398697083067,
                        -0.23326425219857821,
                        0.6874077930555186,
                        -0.19702353788441065,
                        0.908246968412335,
                        -1.2726898827158482,
                        -0.8578411255704741,
                        1.7088151006744852,
                        0.20172146103038283,
                        0.16167904715765896,
                        -1.6455241155707139,
                        -0.7440772299360994,
                        -0.7791335134734704,
                        -1.4970393419958299,
                        -0.17729468529317996,
                        0.2856213148366338,
                        -0.44118653418826326,
                        0.30188193792943874,
                        0.47013784484742827,
                        -1.4419048181799536,
                        -0.3692608129763231,
                        -0.04918867847323205,
                        -0.19182697382689662,
                        -0.030295046764141964,
                        1.4608833737353268,
                        -0.09757673232757924,
                        0.7078103621810188,
                        -0.3033510360775418,
                        -2.0668882722435256,
                        -0.9686431852704038,
                        1.196924376781368,
                        -0.5975602955056554,
                        -0.10505956337750547,
                        1.7638122607456088,
                        -1.1228581163572169,
                        -0.15446768181597026,
                        0.34660185572471003,
                        -0.97481139373646,
                        -0.7490068669539687,
                        -0.14181734052940154,
                        -1.0992866205964127,
                        -0.014013850433580777,
                        -0.7031970927536533,
                        0.2690211306201931,
                        -1.3835781880527374,
                        -0.09457472808950246,
                        -1.7888983428342604,
                        0.030889555817941984,
                        0.11436352231607604,
                        0.4830189897767316,
                        0.7221510570374671,
                        0.0825410261211974,
                        0.11610402800616926,
                        -0.014181292614557276,
                        -1.6408906152198686,
                        -1.9315350942761804,
                        -0.21350011581221806,
                        -1.3771423581662716,
                        -0.25073936719934947
                    ],
                    [
                        0.7871219269574433,
                        -2.5460667291851142,
                        0.0059692661740377165,
                        2.184397557715757,
                        0.3760835519722309,
                        0.015113532553222522,
                        0.985365280877867,
                        0.15004695478574537,
                        -0.13277019450596755,
                        -1.1693209993494318,
                        -1.3265990508706205,
                        0.10109921116218824,
                        0.3092793991550341,
                        -0.5278228137928945,
                        0.17209765137537944,
                        0.32242483969139263,
                        0.6453236178893402,
                        -0.009191752827124033,
                        -1.3007504761346196,
                        0.28432506406012187,
                        0.15861539506540975,
                        0.2662581891563384,
                        1.3416205930204144,
                        -0.5891557766268363,
                        0.6307749103917719,
                        0.05796640064987139,
                        0.13719761795866162,
                        -1.5960348937945739,
                        -0.4446091617557878,
                        0.6423748011829528,
                        1.1692433602217687,
                        0.03541870503382556,
                        -0.40392746396696905,
                        -0.8448175134288715,
                        0.7492899574304362,
                        -0.42217631450424775,
                        0.3659256432185531,
                        -1.4433656629253717,
                        -0.34684049152676266,
                        -1.7337748619391695,
                        0.3899763008320392,
                        -0.028224789382361275,
                        -0.49269079117420367,
                        0.06683002296928309,
                        -0.434225682446763,
                        -0.18299337594557186,
                        -1.510457824821446,
                        -1.1343379665750026,
                        -1.9190753511186487,
                        0.471505245868081,
                        0.8424551894558835,
                        -0.22312593114318438,
                        -0.3543251336358871,
                        1.122927770354908,
                        1.537571303924841,
                        -1.177251539690034,
                        1.5226328394369095,
                        1.4585786732931882,
                        0.7875349538159673,
                        -0.7585603942532502,
                        0.7912898202794622,
                        0.8251797990337818,
                        -0.07726106984653375,
                        0.5123737752716038,
                        -0.4863075170606013,
                        -0.7413284418517503,
                        0.5853034767470205,
                        0.34388174143863026,
                        0.6622728409642595,
                        -1.6052468050821544,
                        0.05002466050317955,
                        1.5810720065106092,
                        -1.3786244272628783,
                        0.1915734560300278,
                        -0.9757493132991537,
                        1.3601581811891141,
                        0.9192496986654533,
                        0.36872974118916463,
                        1.255302089520339,
                        -1.5704329971714346,
                        -1.541016034883696,
                        -0.6673269742491543,
                        1.1285205873132882,
                        -0.6500205151410963,
                        1.5875032692165705,
                        -0.19346682518056355,
                        0.712452873722872,
                        1.7746521404870808,
                        1.3927243968903624,
                        -0.12703035567383875,
                        -0.2746386770740135,
                        -0.5269795825908103,
                        0.6012138598713825,
                        0.8238482266556648,
                        -2.033540130657462,
                        -0.2625498935291297,
                        0.029078175142768035,
                        -0.12793560792331243,
                        0.8132546810303356,
                        -0.7743379218230979,
                        -0.18870165940692554,
                        0.6689669816002044,
                        0.9311378097874594,
                        0.5143529884315895,
                        0.570968019889564,
                        -0.29985133564377936
                    ],
                    [
                        -0.1321154205387778,
                        0.8248566243678522,
                        -1.3731060317654284,
                        -0.06385456876768157,
                        -1.2875213980968283,
                        -0.11083717019574081,
                        -0.40323991752864413,
                        0.5937165941830604,
                        -0.10949782067769101,
                        -0.5871677439287408,
                        -1.6817705150248183,
                        -1.4382770219985452,
                        -1.2860842614717813,
                        1.1298525775657333,
                        -0.29247557182224254,
                        0.3222131086670195,
                        1.0493655839332883,
                        0.7362304735905127,
                        0.6589884277696101,
                        0.6214231694642978,
                        0.9138855007408264,
                        -0.3328427549479575,
                        -0.6493902572881919,
                        0.6610355997199127,
                        0.9759504625750866,
                        -0.6323100293755919,
                        -1.1274305354855343,
                        0.1695631020486811,
                        0.6955873125538685,
                        -0.7794706261547694,
                        -0.66597057838024,
                        -1.091202848866747,
                        1.0413459041217037,
                        1.7846085812962977,
                        -0.040258524901663276,
                        -0.6895608474753929,
                        0.514002503434899,
                        0.340385234699242,
                        0.9889551251462664,
                        -0.9646715488816232,
                        0.09945123032333113,
                        0.4223267278501761,
                        -0.7007118952036998,
                        -0.09730001869566754,
                        -1.9324260381308267,
                        0.685590275185884,
                        -0.6075856819312125,
                        0.8845923191729111,
                        0.3865785217572813,
                        -0.8473135360879832,
                        1.039755041329906,
                        -1.7144574704549664,
                        -1.1103868699028354,
                        -0.35787484733071373,
                        1.1706083126331677,
                        0.5945391521990911,
                        -0.46336214678811566,
                        -1.182162603872045,
                        1.9845779195389055,
                        0.5806011948153073,
                        0.0787950587181165,
                        1.2899706929144255,
                        0.618853975895329,
                        1.6629217518105746,
                        -2.333542395998963,
                        2.614328584874366,
                        -2.6865327077347922,
                        1.4034816393093745,
                        -0.2952023776814838,
                        -1.2310071759745371,
                        1.1991316645231511,
                        -0.9691931350093442,
                        0.19323238772853815,
                        0.6016994457162277,
                        -1.286348039599491,
                        -0.18766321586452636,
                        -1.2377239498779256,
                        0.10053506288018454,
                        -1.989562273160704,
                        0.1892610776368113,
                        -0.6286517576911935,
                        -0.386436907016165,
                        -0.2248673513184746,
                        0.6245884573002167,
                        -0.13256233802302636,
                        -0.10071176110060104,
                        0.5409781991361584,
                        -0.4068611928200125,
                        0.24846737278000092,
                        -2.0517724668539983,
                        -2.499579330758901,
                        0.8117306186962697,
                        0.48953842534653236,
                        -0.6022731826841864,
                        1.1606594369560712,
                        0.025610705447138022,
                        0.48346902948062587,
                        -1.537480570545374,
                        1.2854454954978387,
                        0.30550862215034574,
                        -1.4991562724995684,
                        0.7693806948244771,
                        0.7483477472906692,
                        0.24607971798104875,
                        0.06476222864421957,
                        1.0232992963275058
                    ],
                    [
                        -0.3425900470557845,
                        -1.5806867818751624,
                        -1.1395397900140647,
                        0.1047512199401495,
                        0.766453912468233,
                        -1.5671762767591,
                        1.3290911401243222,
                        0.3509080078676183,
                        0.6236739308619762,
                        0.22106845655907395,
                        0.04142334670563704,
                        0.3676139115147372,
                        0.02867409410854086,
                        -1.4591930252850014,
                        -0.4268465796632566,
                        -0.69965856964825,
                        -2.0817897079555228,
                        -1.426455864831655,
                        1.4553797790628724,
                        -0.15881993873243044,
                        -0.6228034934056513,
                        0.40337238225520067,
                        0.387885916081129,
                        -0.10655967452836346,
                        0.9054826179620016,
                        -0.685993637632943,
                        -0.9924256160526149,
                        -1.1242276614252578,
                        0.8212719865897211,
                        -2.9998332104708005,
                        -0.6724638575116815,
                        0.64689992838099,
                        0.6102298398557261,
                        0.29378683239208986,
                        0.5756358963793703,
                        0.8717143811514135,
                        0.1527555135955209,
                        0.6826272451191578,
                        0.010126280324683346,
                        0.03990539719791383,
                        1.7850141665002748,
                        1.1742734164172415,
                        0.21134246047153754,
                        -1.4547604774702594,
                        1.2264799076538075,
                        1.0622244045514824,
                        -0.3808027092147809,
                        0.8637348737668754,
                        1.8861014890455778,
                        -2.493094557236399,
                        -0.2729611779997789,
                        0.10616655844282344,
                        0.3665788762234175,
                        2.0720446125885426,
                        0.1468660303363704,
                        -0.25017701380842033,
                        -1.0463064098531536,
                        -2.027500392869421,
                        -0.3155390675628068,
                        0.3754558042617121,
                        1.4515728990206422,
                        -0.022605853839538254,
                        0.43306528013642553,
                        -1.6450330430686326,
                        -0.6880494365147914,
                        1.9322162333217459,
                        2.092569785113074,
                        0.37062999732833113,
                        0.4161651216960564,
                        0.9415445240125271,
                        -1.0637184930408021,
                        -1.6049398911357398,
                        -2.906297038429785,
                        -0.1881704297250589,
                        -0.07735443885887666,
                        0.4094031864960423,
                        0.6089935232739422,
                        -0.5982268334188323,
                        1.1728805463838263,
                        0.5652959297391745,
                        -0.886593839196377,
                        -0.6939157462993891,
                        0.7110620618104276,
                        0.292971283854267,
                        -0.6984070275420211,
                        -0.9622698383511423,
                        -0.990999394195125,
                        0.3582889081270942,
                        1.4743502114992855,
                        -0.5862794059976797,
                        -0.14681207585278352,
                        -1.5329347571471355,
                        1.1444468084600488,
                        1.1466497812016214,
                        1.0060593896164687,
                        -1.2488069057867963,
                        -1.927020398024978,
                        -2.012247324274494,
                        -0.9729687065963544,
                        -0.17317028888414146,
                        -2.289885304332104,
                        1.5338777301370425,
                        -0.0603743367959077,
                        -0.01813411542070705,
                        -0.0556544348468189,
                        -1.390837141915955
                    ],
                    [
                        0.598922343393064,
                        -0.021238879241127613,
                        0.3515667346341585,
                        -0.22656930741286727,
                        -1.0958412603530974,
                        -1.091847856095351,
                        0.9431465061190087,
                        2.0223102365938765,
                        0.42572741212361004,
                        1.5373519709963426,
                        1.971745126376677,
                        1.367476529794096,
                        1.1859881058078807,
                        -0.00877466606276379,
                        -0.2065883216424654,
                        1.4597463059063223,
                        2.6706888048436017,
                        -0.9265384593573079,
                        1.7632975549230705,
                        0.9353022310490654,
                        0.4109554567549346,
                        0.49262853231984316,
                        -0.6988120271314059,
                        -0.40606973924797013,
                        1.0256224444108808,
                        0.92580998693604,
                        0.16786689389447942,
                        2.104446783513934,
                        0.8080112985282064,
                        -0.15799285806841698,
                        0.47543578431566585,
                        0.43323113358851933,
                        -1.7393068337386957,
                        0.9248295546917412,
                        0.4482573600401138,
                        -0.5663443970316674,
                        0.5349282444149418,
                        -0.1672170291808488,
                        -0.3676619285367273,
                        0.9049809786941806,
                        -0.56226112520476,
                        1.3139434528408256,
                        -0.7552216156114216,
                        0.40965833240948857,
                        1.6028502038113401,
                        0.3713420259649418,
                        1.0052688195350252,
                        0.29147732180949393,
                        0.6133771552943937,
                        2.2277386578089353,
                        0.1791352287098333,
                        -0.30152624138841494,
                        0.6910004333076436,
                        -0.7126654446624925,
                        0.10416916623104573,
                        0.6037192563456125,
                        -0.6092951774634489,
                        -0.5170625588216891,
                        0.32664797719500155,
                        1.6870022081930447,
                        0.2225259804093364,
                        -0.5111427355327991,
                        0.6560963778068416,
                        -0.12981813290241262,
                        0.20674621280843763,
                        -0.04997904924080419,
                        -0.2849735350170829,
                        0.23437899872640947,
                        1.333414688001885,
                        -0.6928449098071562,
                        0.4160556679041566,
                        0.21569979932829986,
                        -1.2765655447458004,
                        -1.5486700533000517,
                        0.24437405771780327,
                        -0.38731572546859244,
                        0.9581069010204556,
                        2.9999999999551674,
                        2.2004117587355525,
                        0.4590439542975862,
                        -0.5506044024201485,
                        -0.10785599756858007,
                        1.5909406903765075,
                        -1.3504480985344827,
                        0.25666250408981944,
                        -0.024620315690025683,
                        1.2650457386270477,
                        0.6528617223422933,
                        0.6204548336931159,
                        -0.847246764287018,
                        0.5902695108835356,
                        0.10515058225914843,
                        0.5788848064125509,
                        -1.5664481901798695,
                        0.904321941889938,
                        0.516039655818049,
                        0.6329229442858445,
                        -0.6462057748420764,
                        -0.7761586796439522,
                        1.0239004730764447,
                        1.0276632574856412,
                        0.20312255198319495,
                        0.05943839407204155,
                        1.0765455717588064,
                        0.7643921624869212,
                        -0.5203708031410271
                    ],
                    [
                        1.0554919835355288,
                        -1.3664908026334768,
                        -0.556480690613994,
                        1.5911076615577329,
                        0.6368521225557009,
                        -1.09849673788769,
                        0.980889737256342,
                        -0.9044589171551447,
                        0.49653685322722674,
                        -1.27639636260145,
                        -1.5474264611871638,
                        -0.29875339349711555,
                        -0.17765771349945356,
                        -0.15592604526646908,
                        0.047006315879604216,
                        -1.626248874906127,
                        -0.44728173897181367,
                        -0.9547936964828685,
                        -1.0675849318915258,
                        0.09347019059922043,
                        -0.880454459650971,
                        0.015013015814218947,
                        -0.9659795149815642,
                        0.6374897672126374,
                        -0.3244593241433328,
                        0.6020836482899896,
                        -0.058933312394310426,
                        -0.15436818549328915,
                        0.497447661776278,
                        -2.513694114963217,
                        0.4803998251505398,
                        -0.44635242157277044,
                        -0.12361531748864169,
                        0.7253653403173579,
                        1.7278418908387019,
                        -0.06829841357389846,
                        0.2938007028062665,
                        0.8867459727393064,
                        -1.0039834479563001,
                        -0.6460357957158142,
                        0.02237062221938402,
                        1.2443460425132489,
                        1.010281902439957,
                        -0.6516954373096205,
                        -0.9357256679747117,
                        0.3148958639034406,
                        1.435679751817178,
                        -0.30770138149545745,
                        0.10737073581365145,
                        -1.0692529952714491,
                        -0.7511692665987908,
                        0.006482386820305013,
                        -1.347257190030657,
                        -0.49065563542937773,
                        -0.9693826979400587,
                        -0.8733826436768793,
                        0.018339812155734103,
                        0.3425492901782632,
                        -0.38666948193954576,
                        0.11110867122111694,
                        -1.3894778406760686,
                        0.49255034145105087,
                        0.4129387487113646,
                        0.08632590805682239,
                        0.65726498998835,
                        -0.7856745405218339,
                        1.8575502138842874,
                        1.05076106534035,
                        -1.0555305073296297,
                        0.9154675162092907,
                        -0.2208222144428225,
                        0.18861343585816712,
                        0.9745580347593445,
                        -0.22303682716541343,
                        0.5568294676607742,
                        0.3995881076628011,
                        -0.31210930806813236,
                        -1.6541555358100841,
                        1.151215648845154,
                        0.008682218614914354,
                        -0.48505817656424915,
                        -0.5021208529294502,
                        -1.1160626616077216,
                        0.8457304857794504,
                        -0.9424171598039864,
                        -0.5543187307848215,
                        0.03492845296213752,
                        -0.925181234504905,
                        -0.5844605590506108,
                        0.2650105251046002,
                        -1.3106350358647132,
                        0.4405832960655147,
                        1.055239653881684,
                        -0.8964219795225784,
                        -1.8867788271202042,
                        -1.4737171418833348,
                        0.9419082106958685,
                        -0.19908220295205806,
                        -0.16523728209961885,
                        0.35934826825244276,
                        -1.4002752785826644,
                        -1.2870652587001792,
                        -0.9399954897309113,
                        -1.2926691913501949,
                        -0.4189875687445733,
                        0.7528332112010611
                    ],
                    [
                        0.8745927697604435,
                        0.018741760897852216,
                        0.17877863940712707,
                        0.17293577370934002,
                        -1.650818515862226,
                        -1.023835657182138,
                        0.4228517217038351,
                        0.06606807744297223,
                        1.0280477815128966,
                        0.4246935855617356,
                        1.5839167220821633,
                        -0.3232413445794627,
                        0.3827139275306494,
                        2.1086279294234327,
                        -0.09657801476935211,
                        -0.06493859139304227,
                        0.4068929238436898,
                        0.47604580721768797,
                        1.6145401670216537,
                        0.30957319114206694,
                        0.8060819000907747,
                        0.4237829075119912,
                        -0.3277753113822971,
                        0.19655254300483557,
                        -0.8688979850745456,
                        -1.2401109205252876,
                        0.6217335928533531,
                        -2.2795650966941654,
                        -0.9775431592898712,
                        1.1691899494982343,
                        0.7766167035664864,
                        0.9002694481763414,
                        -0.962656461442895,
                        -1.024950688148325,
                        -0.5484086124943283,
                        0.12882366641950033,
                        -0.46569895174927195,
                        -0.9713736261198289,
                        -0.1300980551924598,
                        -0.5796701286520451,
                        0.6682203083085159,
                        -1.2672916258397975,
                        0.38733331311013663,
                        -1.3129113345401842,
                        0.9866621744122466,
                        0.8347504764336715,
                        -0.7426242572574242,
                        0.03283325670559184,
                        0.481120799419387,
                        -1.7231311038541015,
                        2.3829820641998327,
                        -0.9272147035902728,
                        0.051569114679801915,
                        1.573513421438815,
                        1.1250924715405142,
                        0.33641855507328433,
                        -0.4133494280880268,
                        0.361409770485391,
                        -0.7121148130175444,
                        -0.37320961519428386,
                        -1.0858274815862223,
                        -1.3985904179008948,
                        -0.036486784309160025,
                        -0.4513652913094259,
                        -0.45335970585763324,
                        -0.9138523143895468,
                        0.2071808984820474,
                        0.5966642703387529,
                        0.9196079747816409,
                        1.8034428190644032,
                        1.145540087298661,
                        -0.8560405719444864,
                        -0.8757704341922504,
                        -0.9707325812646384,
                        1.2268212293431255,
                        -0.054787211814118345,
                        1.085000092879001,
                        0.12964187798600837,
                        -0.4164603371868501,
                        1.2880216662398203,
                        -0.6081204791995921,
                        -2.1881078156874105,
                        0.20845066437979468,
                        0.714380074917682,
                        0.4863624716266819,
                        -1.7892905069840035,
                        2.142560113730903,
                        0.19552930594364462,
                        -0.755360516671431,
                        -0.3508731867037375,
                        -0.16993300506555162,
                        1.6963436085908115,
                        -0.31139724507325023,
                        1.2216374713679645,
                        -0.6026232309768043,
                        -0.9966842652229468,
                        -0.6907946601968684,
                        0.5746051008355082,
                        -2.03593127897524,
                        0.3712724891484816,
                        0.8471943474259045,
                        1.1448807671427708,
                        -0.6119031874740185,
                        0.25160813427015066,
                        0.9035419816051028,
                        0.21801521044921368
                    ],
                    [
                        0.6011770947328834,
                        -0.8398514758408131,
                        -0.3396008818381695,
                        0.8283557970791336,
                        1.1853332197367348,
                        1.8717166164871117,
                        -1.0254718370279907,
                        -0.5962807473828337,
                        -0.5866611667062153,
                        1.0763879449485563,
                        -0.5735399573446234,
                        1.2001302379011407,
                        -0.4421606485786116,
                        -0.909516699479996,
                        -2.6145113136714313,
                        1.0577217408571171,
                        -1.2740008729580867,
                        0.34036026023314686,
                        0.08907748717337237,
                        -0.556876321327702,
                        -1.7335679227573848,
                        -0.45359408243119126,
                        2.3406429363178898,
                        2.0690148365919683,
                        1.1851934610199497,
                        1.8026711910236897,
                        -0.02401442083394091,
                        0.8820339336287477,
                        -0.3498143178345482,
                        0.8857703618259493,
                        -1.508140546678975,
                        -1.647584728340572,
                        0.7818627039118854,
                        -1.6400934296719316,
                        1.284227332227544,
                        0.25391858790880933,
                        2.112714358034273,
                        -0.2817343004092372,
                        -1.392051555922525,
                        -0.1708254507967044,
                        0.377251282706494,
                        2.152982474238248,
                        -1.4941999021670604,
                        1.4801697935455125,
                        0.7174045173225395,
                        -0.11893487057668241,
                        -1.0849648338021673,
                        0.5175200417829903,
                        0.32500604862925264,
                        -0.2828118269197917,
                        0.30680788023757366,
                        -0.7960664113822122,
                        -1.6316377840014915,
                        -0.46750998631290414,
                        -0.2698791011103169,
                        -0.021549359796932472,
                        0.9785971537601459,
                        0.8268802908718427,
                        0.17608093223086807,
                        -0.32335212485225523,
                        0.980624921729357,
                        -0.4234165145072991,
                        -0.8135718514880772,
                        0.5832582772027702,
                        0.6955675781019406,
                        -2.2137340567289714,
                        0.9934300040733909,
                        2.256646392023974,
                        -1.0432417540593069,
                        0.8481049885141808,
                        1.5077574157409648,
                        -1.2488414031669577,
                        1.4001283601095842,
                        -0.4842843216475649,
                        -1.6186758711061007,
                        -0.7741173931471522,
