{
    "settings": {
        "batch_size": 12,
        "loss_function": "multiclass_cross_entropy",
        "output_size": 2,
        "hidden_size": 106,
        "avaible_id": 2,
        "activation_fun": "Sigmoid",
        "convolution": false,
        "input_size": 106,
        "input_shape": null,
        "kernel_size": null,
        "depth": null,
        "optimizer": {
            "optimzierType": "SGD",
            "layerType": "Dense",
            "weights_clip_range": 3
        }
    },
    "hidden_layers": {},
    "input_layers": {
        "init_0": {
            "id": "init_0",
            "act_fun": "Sigmoid",
            "is_ending": false,
            "is_starting": true,
            "input_layers_ids": [],
            "output_layers_ids": [
                "1"
            ],
            "optimizer": {
                "optimzierType": "SGD",
                "layerType": "Dense",
                "weights_clip_range": 3
            },
            "reshapers": {},
            "weights": {
                "W": [
                    [
                        -1.3845547169544843,
                        -0.6163791503697766,
                        0.06997594002070323,
                        1.9334940012685786,
                        1.900548452501242,
                        -0.7693688525054593,
                        0.2520282411360986,
                        -0.7545489037767439,
                        0.3307498421537655,
                        0.6407515589989515,
                        -0.016721591564473556,
                        -0.5945849198122447,
                        -0.6887869760177755,
                        2.0714493360504393,
                        1.8906133789889283,
                        -0.7868002029822483,
                        -0.7050311939279923,
                        0.9276124240171755,
                        -1.2177022079944029,
                        0.2884338084999852,
                        -1.2286262738979283,
                        0.05150622551225823,
                        0.1985671129443184,
                        -0.14320447465823505,
                        1.3284876066670959,
                        0.4966444175846783,
                        0.991389293272973,
                        -0.19349767026570436,
                        0.9057965289772939,
                        0.7370979813506064,
                        1.194801954514943,
                        1.5766849482030139,
                        -0.18218882399794578,
                        0.2038436223956393,
                        -2.129540973771525,
                        -0.2063545122719126,
                        1.2269954646348562,
                        0.8551609674017498,
                        -1.5583458229238925,
                        -0.6084647318332159,
                        1.1832689068448434,
                        -1.4935687731036573,
                        0.7179669208233074,
                        -1.4545593102138572,
                        2.5406784146256993,
                        -1.0906975122341407,
                        -2.5903120608271104,
                        0.5067256503255629,
                        -1.5443397697838757,
                        0.4185153326240363,
                        -0.20044702656521635,
                        1.2000051178428655,
                        -0.33726006792072477,
                        0.30378177891731295,
                        2.098936103219555,
                        0.24207806042028635,
                        0.17221191210663053,
                        -0.9607121353761556,
                        -0.46435432334448834,
                        0.27746987273698376,
                        0.8690966315312735,
                        -0.03359270050747575,
                        -0.16953942217227022,
                        0.39557152170933735,
                        0.1750420267338927,
                        0.86366432848867,
                        0.20641599717670883,
                        -0.0465651964792825,
                        0.019886478330768086,
                        -0.7600445112303897,
                        -2.0558219795387425,
                        -0.29304444372573946,
                        -0.846401134328355,
                        0.48119844378190946,
                        0.9851852781000128,
                        -0.6729564143452006,
                        -0.03606298415613436,
                        -1.7744440111443367,
                        0.17489839067742785,
                        0.3995925728781615,
                        0.10098814216553498,
                        0.04697826197032253,
                        -0.7716396149187709,
                        0.7234465806607867,
                        0.9040647376131485,
                        1.4210053721435862,
                        1.2052064533086924,
                        0.2823787307010075,
                        -0.9233520581200578,
                        1.2376078780468527,
                        -0.026526624250754603,
                        -0.10600492209790179,
                        -1.5883679492329443,
                        -2.891789129732572,
                        -0.746477810937221,
                        0.413178953289792,
                        -1.713982740089071,
                        0.2549524921614411,
                        2.5898756287504643,
                        -1.799341056733862,
                        1.9207049771466642,
                        -0.5545395608918365,
                        -0.34355973068342494,
                        0.10770387490983317,
                        0.038222803420027235,
                        2.5263757855785114
                    ],
                    [
                        0.18707856067557746,
                        -0.9719814932690515,
                        0.10617645916075492,
                        -2.9702418650250277,
                        -1.6337351729016714,
                        -0.6931260254290501,
                        -1.0553706267209977,
                        0.6710191832262661,
                        -0.24863726701025196,
                        0.49557352173731245,
                        -0.4770451185562229,
                        -0.09597042873531264,
                        -1.6262287792952712,
                        1.2126806989784822,
                        -1.382165113543214,
                        -0.0017493607489713358,
                        -0.1849317066336232,
                        0.8891663489652392,
                        0.38413144230045415,
                        0.8617450213844124,
                        1.6783591526995818,
                        -0.768642298112141,
                        -0.06123788937930068,
                        -1.2266248154568786,
                        -1.393118649117157,
                        0.280261092119499,
                        0.409741326638355,
                        0.933131869201562,
                        0.8233304846519643,
                        0.40747933143122705,
                        -0.7971015050536282,
                        -1.4179510191611828,
                        0.06624365779363954,
                        -0.03493237013512969,
                        -1.4499789349885448,
                        1.1790170931375885,
                        0.5802706491688431,
                        -1.410957560398359,
                        -0.5429815498503681,
                        -0.06322888695762723,
                        0.8408204418271746,
                        -0.7778478415191455,
                        0.7893917640377379,
                        0.8160440170113736,
                        -0.8912392230709492,
                        1.553809490200819,
                        -1.3108163377817477,
                        -1.7760387623724836,
                        -0.21961496849807896,
                        0.2560861553645913,
                        -1.8727371109483484,
                        -0.6456816420315352,
                        0.4143497971812218,
                        1.0481887791826474,
                        0.7681900339687949,
                        -1.2479581935633925,
                        -1.159228711888342,
                        0.3969326388691336,
                        0.45586226690129245,
                        -0.3391095444433772,
                        -1.5297193963836688,
                        0.9736639364110622,
                        -0.08505703039258503,
                        0.8057077030454376,
                        0.3525288578590329,
                        0.1745418388713564,
                        0.07289838336182553,
                        -0.7320289812290393,
                        -0.020923524202839112,
                        -1.1702831335082586,
                        -0.9900830891841418,
                        -2.072209928823781,
                        1.8807352697953614,
                        1.9195304414312955,
                        1.672933467091705,
                        0.061525762973908237,
                        -0.857552926446628,
                        0.07021907791614106,
                        0.5744964832787786,
                        0.7082450903561145,
                        1.5141231364523975,
                        0.4297820740847687,
                        0.389020379236794,
                        -1.1053653386008193,
                        -0.8961943930861173,
                        0.01912101256069582,
                        -1.0893403515198656,
                        0.7042822797421868,
                        -0.36924589423529364,
                        -2.326548970904546,
                        -2.173439056402468,
                        -0.05182438399856896,
                        0.20678237087360188,
                        0.949031577649683,
                        1.3487844004309963,
                        0.20635229479388453,
                        1.557110395999344,
                        0.2498556797554174,
                        -0.49100406249747364,
                        -0.21330818059098328,
                        -1.8804209127304436,
                        -1.9695148141802878,
                        -0.7899470175170159,
                        0.5593918335787432,
                        -1.436071302767631,
                        1.415190839710552
                    ],
                    [
                        -0.8411628817985047,
                        0.6789552029964913,
                        -0.4121161781217187,
                        0.24883251090942288,
                        1.16343795967737,
                        -0.1961494278410399,
                        -0.9771010682441166,
                        0.6799248420752074,
                        0.6831524021312478,
                        -2.9517497719598356,
                        -1.137744629502127,
                        0.391538115087091,
                        -0.1433568490494,
                        1.836613135519919,
                        -0.34737742111252456,
                        -0.3793024819809132,
                        0.4562606852212525,
                        0.7085313180034184,
                        1.29696313917586,
                        -1.1965122184572783,
                        0.5384125694049166,
                        -1.6830273209172815,
                        0.8541110770496982,
                        -1.222011278424925,
                        -0.32323167370116307,
                        0.6229888860694079,
                        -1.412033766702752,
                        -0.7787361349056967,
                        -0.21441883918381408,
                        -0.018227564196892827,
                        -0.27586435128762393,
                        -2.750220380714429,
                        -0.9884858651203771,
                        0.9116260639782063,
                        -0.5301125614326221,
                        2.3163885604219674,
                        -0.5254112770573087,
                        -1.2087232522322386,
                        -0.21728559314823526,
                        0.02523186440667468,
                        -0.8966156242956665,
                        -2.083310628017732,
                        -0.8889738757523074,
                        -2.580539938111936,
                        -1.34327606217559,
                        -0.25236550371566197,
                        -1.7801968183057042,
                        0.8767883813181462,
                        0.08316167382007311,
                        -1.3364668464330247,
                        -0.02637506545756737,
                        0.7114272233549498,
                        -0.9201111970386898,
                        0.12511266734738652,
                        1.7547989024964576,
                        0.7734949660053574,
                        1.3505288688091441,
                        -1.7155277848619408,
                        0.5502201868777516,
                        0.49352171403818157,
                        1.1869653707910761,
                        -0.2573745674370536,
                        0.6966596857811256,
                        -1.2543381198077859,
                        0.18305118004318902,
                        -1.1581249327924996,
                        1.1766724457284314,
                        1.2141939721375559,
                        -0.43343787768436404,
                        0.16285060595479658,
                        0.19436366131528515,
                        0.5846085519807414,
                        -0.5158664461275462,
                        1.1459597063938416,
                        -1.801633352833236,
                        0.37026906979162977,
                        -0.07868773204976655,
                        -1.7340417241419346,
                        -0.7330185844046816,
                        -0.9967002178296583,
                        0.3663848935991911,
                        -0.31806118871500383,
                        1.8082191272347536,
                        -1.177574824845422,
                        -1.0943954688605404,
                        -2.199251687716645,
                        1.6346859619716532,
                        1.2847412682534196,
                        0.2944305743802666,
                        -0.344996135062455,
                        0.41560254640979155,
                        0.3034316049411561,
                        0.21764404080799696,
                        -0.06052481460794151,
                        0.5844993230413499,
                        -1.6939483900164798,
                        0.665370142839374,
                        1.4035374086692334,
                        0.6094395632920614,
                        0.2020791662315873,
                        0.8531973981074531,
                        0.03962433314564374,
                        2.791088395999388,
                        -1.8245656459965542,
                        -0.7244115498016446,
                        -1.3449320357075933
                    ],
                    [
                        -0.22649366617616098,
                        -1.513969536192236,
                        1.5305895478081732,
                        -2.754055487784841,
                        0.8508947964060385,
                        -1.7465267859235505,
                        -0.3134658823574358,
                        -1.3257208524841482,
                        -0.8504974880434846,
                        -2.048194885475391,
                        -0.40191128287673406,
                        0.2958219999558059,
                        0.13832129832790563,
                        -0.6464249015857905,
                        0.8522066346096143,
                        -0.48045118368673134,
                        1.2344067407158195,
                        0.3225657735193192,
                        -1.71486180445222,
                        0.6866903857874633,
                        0.06619678290636717,
                        0.4744558725543439,
                        -1.2646283189746048,
                        1.3096386726918265,
                        0.8764805606043785,
                        0.35598723226935614,
                        -1.1243301617566481,
                        -0.8243715904840688,
                        -0.3736213686731926,
                        0.41294147657921915,
                        0.3520282574892477,
                        -0.6553501139831964,
                        0.4312720053790809,
                        -0.1448859670555591,
                        -1.5826368480930515,
                        0.7629368400143229,
                        -0.5990214561139171,
                        0.859148435220402,
                        2.234055620478293,
                        -0.6559571741502286,
                        0.7978549964416144,
                        0.30503066218766123,
                        -0.9014678828145188,
                        0.8239622400438475,
                        1.3645553475181436,
                        -0.019091583626450668,
                        1.5147772946818958,
                        1.3007822636674424,
                        0.5902675068221438,
                        -0.7732801403028485,
                        -0.556951846317953,
                        1.421388493919512,
                        -1.4324779582221332,
                        -1.323285510166878,
                        -0.23494209644252786,
                        -1.1407063650929594,
                        -0.7973303976097232,
                        1.2471958491805613,
                        -1.4157574944835405,
                        -0.25482762240189816,
                        1.643117935371405,
                        0.21083217626648298,
                        0.21565832881506264,
                        -0.2758787397790824,
                        0.15466162721001764,
                        -1.0307531520721018,
                        -0.6241216111014929,
                        -1.0545923819255552,
                        0.050138752061607436,
                        0.08805378166578577,
                        1.0480114150215263,
                        1.3534318434661257,
                        0.13962835142812682,
                        0.6964996859783746,
                        0.7579685187810999,
                        -1.0230809393872113,
                        -1.3384939839939487,
                        0.4813360286121573,
                        0.015731307882644912,
                        -0.00931352815243855,
                        -0.4471796828787632,
                        -1.9888166744753337,
                        -0.9834031795978108,
                        -1.0549814222612657,
                        -2.035701806279001,
                        2.4823613145316075,
                        -1.2728985294340327,
                        1.036444632743846,
                        1.0646593992264817,
                        -1.2284733145042288,
                        0.04193692136798834,
                        -0.5266600346310645,
                        -0.7097371090339827,
                        0.6980711828656433,
                        1.3887963772454472,
                        0.3445335753200028,
                        0.2383074808498964,
                        1.363576500804499,
                        -1.0912768076380206,
                        0.5166305500985594,
                        0.1064868391204216,
                        -1.9887906409040863,
                        0.45763410774288266,
                        -0.10148309780735841,
                        0.10643330437891224,
                        -0.36433754672484014
                    ],
                    [
                        -0.8204076481314005,
                        0.8594995657031628,
                        -0.5733300323888594,
                        -0.5306884656660831,
                        -1.1932249977417906,
                        -1.864629382405304,
                        -0.01053109642136688,
                        -0.6212437219944621,
                        -0.48591083873034596,
                        -1.3013065406839839,
                        1.5336302014695518,
                        -1.7547367168117005,
                        0.4187279447963891,
                        1.3004164902599538,
                        -0.9637917134524535,
                        0.13415002854237684,
                        -1.6874012987383804,
                        -0.22699851848178576,
                        -0.19769733504253206,
                        -1.3108925749457176,
                        0.6754873391190382,
                        -0.48846969182756694,
                        -1.3309503418113589,
                        0.8337027070143737,
                        0.47658303537641517,
                        0.6390599150140234,
                        -1.1956673914875415,
                        0.33985463225044177,
                        0.19212939228083606,
                        -1.1279751525467536,
                        0.3151893603799242,
                        1.1466871817950002,
                        0.8172924608369413,
                        -1.0944514526511633,
                        -0.7182006137957356,
                        -0.11529860464753625,
                        -1.8196108191661393,
                        -0.5993293139893402,
                        0.22520607144596566,
                        -0.8279369935209469,
                        -1.5004906975879801,
                        0.18347298877604787,
                        0.07461368554308702,
                        0.08266825146850759,
                        0.15353372468884047,
                        0.02877852800653328,
                        0.010476202958943213,
                        -1.064759464401934,
                        2.0332876356438607,
                        0.6446940750673755,
                        -0.364393705095801,
                        0.9748897259278604,
                        -0.6762058483083931,
                        -1.2616277833011558,
                        0.7724290541423191,
                        -1.316515128913783,
                        0.7948459967752681,
                        -1.968835986394766,
                        0.2882820844323568,
                        -1.2116997360657176,
                        0.19879935172654492,
                        -0.5239784705582339,
                        0.39056375055461956,
                        -1.525553244281067,
                        -0.16555427365128195,
                        1.0571537564264941,
                        -0.3277765675742923,
                        -0.49509166805008503,
                        0.5059925835269178,
                        -0.34034322770631253,
                        -0.3411567810664141,
                        -0.2654834616673196,
                        -0.8024559472541352,
                        -1.045213349738538,
                        -0.4325743673737522,
                        0.34649790615580184,
                        -1.6584758356852516,
                        0.06498672585985105,
                        -0.7080219700208253,
                        -0.7413458936101276,
                        -0.34274354824707715,
                        0.5026324050109078,
                        1.148763330426589,
                        0.18672161182201816,
                        0.6389877490265373,
                        0.5609615029991105,
                        -0.29106407399279394,
                        0.4496096896088255,
                        -0.422926337832092,
                        -1.016250470927242,
                        -0.39853775677666176,
                        -0.2136187555533172,
                        -1.2938412881382935,
                        -1.4541571202983745,
                        -1.070828138826727,
                        2.293667934376774,
                        1.9074819167468389,
                        0.48156731799056246,
                        0.21651640340432232,
                        -0.17744974080620413,
                        0.3314713154399958,
                        -0.7526992228456406,
                        -1.1602343723746436,
                        -0.45880286628419154,
                        -1.024544898025734,
                        2.268840369055506
                    ],
                    [
                        0.4651335254619492,
                        0.3768920000720305,
                        -0.782970039746576,
                        0.5492056126441699,
                        -0.6691679983276028,
                        0.43647304243846674,
                        0.996902293921503,
                        -0.9033832864040512,
                        1.0984411895867117,
                        0.5010334088169521,
                        0.17572925575834533,
                        0.23311723593444766,
                        -0.31171135650431286,
                        0.6782432479848602,
                        -1.6842131079360165,
                        1.22988588430674,
                        -0.8071349561845698,
                        0.39906632536862047,
                        0.7847737858900208,
                        1.7422194001501232,
                        -1.3636168761274359,
                        0.9742682264089444,
                        -1.067245742110752,
                        1.3137746771213406,
                        0.18534159481776782,
                        -0.3473121951808889,
                        -0.37524754455309667,
                        -2.236265070300025,
                        1.0641355074562224,
                        0.5067436742717054,
                        -0.8633462059055672,
                        0.18539219186992292,
                        2.531694883085993,
                        -1.145817711139775,
                        -0.4657180287957823,
                        1.4067569912340399,
                        0.22790589517644688,
                        0.1623822724596696,
                        0.1968263858853482,
                        0.6773605246917741,
                        -0.790342474113386,
                        -2.091626392307026,
                        -0.18216620634186395,
                        0.4775543761130584,
                        0.3964059159742306,
                        -1.9106484290948107,
                        -0.037376389473842676,
                        0.8495837299568809,
                        1.4282351624741345,
                        0.30274505152754794,
                        -2.0167765999978626,
                        1.932569851923131,
                        -2.4348742137635226,
                        -0.2855338108157067,
                        0.36683096602229515,
                        -0.3117876826981173,
                        -0.80471193249403,
                        -0.09760231463178894,
                        -0.8764577504911827,
                        0.953742909693244,
                        1.7052986710271452,
                        -0.1878112965608345,
                        -0.5625350318844243,
                        -0.03877784915164605,
                        1.4746549653772159,
                        0.501748779179492,
                        0.11064604397264628,
                        0.8905976485498952,
                        0.3370510259352404,
                        1.2201136130676418,
                        0.47527265865690094,
                        -1.8291195955251935,
                        1.0702218682608455,
                        -2.491149320620133,
                        -0.6215134280645812,
                        -0.6534544689822057,
                        -0.9292677962309491,
                        -0.4918420353649745,
                        0.6500338490526255,
                        1.0028375829643967,
                        0.2707421115903116,
                        -1.5142068418258214,
                        0.06741251847228785,
                        0.9079070935442506,
                        -2.956455128671328,
                        -0.083590960645259,
                        -0.40877843681100273,
                        -0.4919424266764655,
                        -2.2632170439757915,
                        -0.48954933415659396,
                        0.8316883198808185,
                        -0.7853703209774167,
                        0.07298046352126758,
                        -0.5601379988347774,
                        0.7092277202074737,
                        -1.1696612980826075,
                        1.888058295653308,
                        0.8616030344224973,
                        0.7891455769454534,
                        -1.554529241026719,
                        0.9482277514230824,
                        -2.2602887104403426,
                        -0.08882338386701567,
                        0.4494175391695915,
                        0.9661628937012464,
                        -1.848038190474814
                    ],
                    [
                        2.699173420482791,
                        -0.2991715902983137,
                        -0.5226225227179115,
                        -0.24135810161931623,
                        0.5391764558286991,
                        0.5699869295284562,
                        0.8323941606259241,
                        1.496486667997521,
                        -0.1035826131870173,
                        -0.6540499365293437,
                        -0.08663048107042462,
                        0.8188537849362753,
                        0.27933019604081233,
                        -1.2067550520879884,
                        0.7204417016285066,
                        0.651580004188628,
                        0.22819870605527778,
                        -0.9705987767191305,
                        1.115980177121223,
                        -0.27103099596009833,
                        0.2939705950485141,
                        0.8938112291655159,
                        -0.17195865672652227,
                        -1.1255457015130939,
                        0.11818898654961828,
                        -0.9923648148938023,
                        0.015719064341124096,
                        -0.6326611918697127,
                        0.4770406777010827,
                        0.6436268316786904,
                        0.3229443112709767,
                        -2.233014033782217,
                        1.891511511375555,
                        0.542733999241666,
                        0.27173828686383616,
                        -1.1973812906452295,
                        -1.5192416764976997,
                        1.1099446480877606,
                        -1.0381241707541353,
                        0.2079510927348476,
                        -0.7882965868878594,
                        -1.1515583123168978,
                        -0.3889032285236814,
                        -0.8330403031615936,
                        2.119927949037335,
                        -0.602694592765766,
                        0.029550667445009865,
                        1.0205855928941057,
                        -1.5438374702697633,
                        -1.10018911667678,
                        -1.2836686608269596,
                        -0.7363225871805011,
                        -0.06670664309011766,
                        0.9637573999591575,
                        1.3462552128450527,
                        0.19980548734238343,
                        0.615189118638188,
                        -0.915620059755946,
                        -1.546492227846731,
                        -0.6959336872755306,
                        0.8311684958854909,
                        -0.020966458009376958,
                        0.07788125574531261,
                        1.0238014825009158,
                        -2.261847593116561,
                        -2.4136310236751233,
                        -0.2954309492117813,
                        -0.2312136070190842,
                        0.48448151567432896,
                        -1.9152297855163603,
                        -0.16750564344786306,
                        -0.5588250921966895,
                        -1.253988569490321,
                        -0.07345458176335834,
                        -0.5251817890437621,
                        -0.1736788961773845,
                        -1.4762963878845028,
                        -1.3538440953392041,
                        -1.1290552430923873,
                        0.5411611311722765,
                        -1.24956828327899,
                        -1.3061879794838103,
                        1.522782265458437,
                        1.1639059349032463,
                        0.6111878156466269,
                        0.5188444038127065,
                        -0.11234895369755726,
                        0.16498099083621706,
                        -1.7015623196685203,
                        0.39901495227266537,
                        0.30271012715242285,
                        -1.0348671205780526,
                        0.4107173363203924,
                        0.16910569284763635,
                        1.2224208266332408,
                        -0.490607388618429,
                        -2.2882200147771576,
                        0.8985431618137794,
                        -1.0783922245790658,
                        0.28337538865094,
                        0.18375750014280154,
                        0.263615880121254,
                        1.2814141126190117,
                        -0.7390705683780083,
                        0.08725285575157254,
                        1.0644309625280546
                    ],
                    [
                        0.15582003966194408,
                        -1.3850975508878918,
                        -0.24276280585415566,
                        0.7634173113171573,
                        0.6256568173212056,
                        0.5991198023895458,
                        1.1991148488700725,
                        -1.2034494549617427,
                        0.16274582528399797,
                        0.005184550232216699,
                        -0.4338772476971872,
                        -1.664044051949096,
                        -1.2168507734820246,
                        -0.8835947179223015,
                        0.14358731202974118,
                        -0.5828875986570579,
                        1.3060437793467892,
                        -0.19956828622357783,
                        1.4979148118577779,
                        1.0048285578628644,
                        -1.9393960984005372,
                        -0.5130615118486629,
                        1.423684160836661,
                        -0.9532673572595082,
                        0.2599799672037717,
                        -0.49613493480979315,
                        -1.0395623753205332,
                        -1.1581288099348312,
                        -0.8829398472857091,
                        -1.128845480450889,
                        -1.3842857351665305,
                        -0.8786862254810294,
                        -0.032450151841425585,
                        -0.8025611505835949,
                        -1.4352294841546063,
                        -0.1308219970946885,
                        -1.0710534327605419,
                        0.10049143810027744,
                        0.0565393445475822,
                        0.15971524083483576,
                        -1.3899841159000874,
                        -1.1918693249168877,
                        1.6167698242731718,
                        1.710616453198052,
                        -0.3276811293353535,
                        0.4387785771345557,
                        -1.1228071939493591,
                        0.5554959138552505,
                        -0.6598366267071207,
                        -1.4038055276256287,
                        -2.064276059205368,
                        -1.3953073151672306,
                        -1.4873359109613429,
                        1.2912444706569441,
                        -0.4997946732914977,
                        0.298314892473042,
                        -1.284384305727278,
                        -1.252268440173977,
                        0.3646567798107259,
                        -0.4712522824586896,
                        2.2168686612118744,
                        0.7438342335242594,
                        0.1274371845147347,
                        1.4920848446164103,
                        0.1452887433342133,
                        0.0018899426567967476,
                        -2.3573571143962004,
                        -2.5060863763264556,
                        -0.8009269784880033,
                        1.625084950491549,
                        -0.5688158362777391,
                        -1.128392110489326,
                        -0.8542761938887725,
                        0.25310685148511,
                        -1.9788902246271054,
                        0.0003711567172138034,
                        0.3850192433904858,
                        -0.27720785567280254,
                        -2.8615806477506567,
                        -0.2611172473805314,
                        -0.15713129525633673,
                        -1.879953753412632,
                        1.198655842250071,
                        0.26557041180075175,
                        -1.4049455432489986,
                        1.2116046270582936,
                        -1.5094481033596883,
                        0.4845686389539859,
                        -0.07800558694548816,
                        0.7045555601056017,
                        -1.2090207179864614,
                        1.263218607014521,
                        0.46604959368773924,
                        -2.3736076855372388,
                        -0.8878599101486865,
                        -0.21759483575952424,
                        1.0462168188865983,
                        -1.0091795906494656,
                        0.07503077409942051,
                        1.9053981073892514,
                        -0.9649815259841381,
                        0.035366743393171,
                        -0.27560045942583883,
                        -1.342816806524614,
                        0.8099435767454297,
                        -0.4768931838149089
                    ],
                    [
                        -0.8931878013529073,
                        0.7315354335372807,
                        0.7061705633945705,
                        0.259210659465625,
                        -0.16528330745516356,
                        -0.4023232914529703,
                        -1.3071486483703576,
                        -0.583728672727353,
                        0.3324675889814656,
                        1.1968793553888042,
                        0.18384766386473686,
                        1.292581953222366,
                        0.04858089158290276,
                        0.6961803268228582,
                        0.8500036158269272,
                        -0.1141065411677978,
                        -0.08408810334648147,
                        -0.7902677734055088,
                        -0.3641882691698749,
                        -0.8056912293164381,
                        0.603550926453893,
                        -1.463527993069194,
                        -0.46741056613907966,
                        -0.46132516769780385,
                        -0.5359787409048049,
                        -0.27572090632583296,
                        -0.25922763458046333,
                        -1.7477389649130626,
                        -0.20650527611510686,
                        -0.13008125350504934,
                        -0.5233144278067563,
                        -0.48458730857695925,
                        0.565519832880767,
                        1.1509881629348635,
                        -0.7200068484197518,
                        0.34935482315097405,
                        0.22693768295598093,
                        -0.8117353765660835,
                        0.3384044619368419,
                        0.5257274135141855,
                        -0.7576433381351718,
                        1.0389313607069637,
                        0.03775908011135737,
                        -1.1279229905596664,
                        -1.2161525543192362,
                        1.0029825178734122,
                        -1.3781685141976434,
                        0.5375624225089137,
                        -0.10523701448737958,
                        -1.2550679359103383,
                        -0.613333989203823,
                        -0.993075509545029,
                        1.1774106807929938,
                        2.324361585486487,
                        0.8486148122165323,
                        0.427850778191064,
                        0.13046995244599796,
                        -1.2961359265574426,
                        -0.13656405596073234,
                        0.484933602936066,
                        -0.1624558312547707,
                        0.08312149316458374,
                        -1.8619355237806288,
                        -0.08713862977602457,
                        0.9730126376220748,
                        -0.741994890581037,
                        -0.05735574724957949,
                        -1.2310262736277835,
                        -1.146096096973516,
                        -1.0441159210719715,
                        -0.21531563017947114,
                        0.7514020953626748,
                        0.4897143452622801,
                        -1.328376770718624,
                        -0.7384547074511805,
                        -2.130749767173063,
                        -0.5866159172109052,
                        -1.148252534911016,
                        -2.9908181946857773,
                        1.682892896693298,
                        -0.10090844522977849,
                        1.5982292117415213,
                        -1.105482670959958,
                        -0.22880013725708356,
                        0.8442661300146518,
                        -0.3668941746858936,
                        2.4248394021737374,
                        -1.526311241832608,
                        -1.515343275457409,
                        -0.7828532942048366,
                        0.640955591954107,
                        -0.19783002237547592,
                        1.5553872091265273,
                        -0.4729689878949431,
                        0.09083744039199489,
                        -0.7341691604009036,
                        0.68608303225903,
                        -1.896349101525107,
                        -1.303587142702881,
                        -0.8576377946422449,
                        -0.9538292961511444,
                        -0.34356235302643756,
                        -0.7041208403625362,
                        -0.7942590255595489,
                        -1.9771520748385523,
                        1.0453079925849516
                    ],
                    [
                        -0.03788139099588059,
                        0.31303963730058226,
                        -1.6420971565504743,
                        -0.31535845473428603,
                        -0.42235347096294473,
                        1.5956204772577665,
                        -1.0685223298455455,
                        0.10486126518385112,
                        -0.12093201293731708,
                        -0.7170609564358637,
                        0.1939865750566108,
                        -1.3057159679552939,
                        -0.00217089257856618,
                        0.8020892639868038,
                        1.058073220102623,
                        -1.991206853791024,
                        -1.698282859136146,
                        -1.6811783143790668,
                        -0.46666598298297185,
                        -0.5948127449999313,
                        -1.2751115786877787,
                        -0.979494593580704,
                        0.08402181296012097,
                        -0.6061664523659102,
                        -0.23974215438930904,
                        -0.6781466454472298,
                        -1.4976932630833095,
                        1.0819640278628935,
                        2.883500529973315,
                        0.29511738411600513,
                        0.5785048056182064,
                        -0.853157231184337,
                        -1.6092157134210388,
                        0.1411343405432446,
                        -1.2301366186589018,
                        0.4810485207869164,
                        -0.7196226225972702,
                        0.38193624093734435,
                        -1.8734136792258447,
                        -0.4129177391534762,
                        -0.7037868212257825,
                        1.008830780176478,
                        -1.4745538185910554,
                        -0.552730134259589,
                        -0.3197646371126419,
                        -0.6831632744723721,
                        -0.4352292879084273,
                        0.8744712708230373,
                        1.7223436883135665,
                        -1.0298924166179726,
                        -0.3785955933900921,
                        0.7930017173784745,
                        -0.18489391080826117,
                        0.0020912676960355733,
                        -0.5145261186875424,
                        -1.321085264388902,
                        -0.3653241380312744,
                        -2.5130173965045626,
                        -0.8167863909960124,
                        0.18555050424500832,
                        0.02564357063188868,
                        -0.726308876800811,
                        1.385164849694305,
                        0.4123192610873518,
                        -0.8281606330892028,
                        0.062008940895180935,
                        -0.07687983624582406,
                        -1.211387009933457,
                        -0.8507126703288205,
                        -0.9394991453401293,
                        -0.9581996730792376,
                        -0.1701263479846925,
                        -0.24634601562071998,
                        -0.40528472949203914,
                        -0.9165775358772469,
                        -0.7547043574754887,
                        -2.1561672196723025,
                        -0.518292011483968,
                        -0.2359307759668751,
                        -1.0316437163346113,
                        -1.3523628020003653,
                        -1.2031579146019762,
                        0.9284561595270637,
                        -1.2218729630303509,
                        -1.4377256357679378,
                        -1.4144322778152891,
                        1.3079137253402122,
                        1.4084923428475595,
                        1.2624751047987635,
                        1.1408464017602282,
                        -1.123225024560887,
                        -0.6911106388148672,
                        -0.2951726297008455,
                        0.25918048969396024,
                        -0.6979888918615478,
                        -1.157956401958398,
                        -1.0291690699794416,
                        -0.30894416009932685,
                        -1.0311644841650462,
                        -0.02429315593886765,
                        -0.05806122440859732,
                        0.5434603570502103,
                        -1.7352292506361238,
                        2.4966598978458787,
                        -0.29185426654015045,
                        -0.35546036235908846
                    ],
                    [
                        -0.39297704860595606,
                        -0.2815718051815551,
                        -1.314418131984889,
                        0.13131593931145813,
                        0.6763511911222186,
                        -0.16540493584697963,
                        -0.33080401563047795,
                        -0.4692773023553789,
                        -0.6346895479451395,
                        -1.617501739159031,
                        -0.7126727376074921,
                        1.8951725854063712,
                        -0.23981936858301883,
                        0.9550023183852643,
                        -0.8855982788965684,
                        0.02481574133799672,
                        0.03588390065710982,
                        -0.596417546736131,
                        -0.18212332781772578,
                        -0.6294131767556504,
                        -0.4724640059689108,
                        -1.7989351077996918,
                        -0.9127856351759798,
                        0.08385654477556238,
                        -0.6169191070195488,
                        1.0308566755067972,
                        -0.9937584942140487,
                        0.2522923374548929,
                        1.9076635505066426,
                        1.5353695656289286,
                        -0.35099704431885925,
                        -0.19734166291168284,
                        0.00537376481276417,
                        0.3593378127272184,
                        -0.2627267150890969,
                        0.47846852669573303,
                        1.1691068892202432,
                        -2.3176247479547865,
                        -0.6563093142158172,
                        -0.5247206654621515,
                        0.8879710684513575,
                        -0.2677585306105601,
                        0.42094058310024696,
                        -0.7447828790589321,
                        0.925770011028911,
                        -0.372038892272314,
                        -0.5654933917776022,
                        -2.0483454957648854,
                        -0.09650200763512763,
                        -0.7583166423183262,
                        1.019504711267689,
                        -0.4869063610582074,
                        -0.6003894308981853,
                        -0.6433560568731809,
                        -1.007017357872376,
                        -0.9605494712399716,
                        1.2898626174574843,
                        -1.1276438960864867,
                        0.9230169161738678,
                        0.44934687390037054,
                        -0.293318760540504,
                        -0.528402603882333,
                        -1.0999493881447273,
                        -1.8529935963441824,
                        -2.8050411783399793,
                        0.0006708364681234593,
                        0.04892070504104652,
                        0.3470505737078067,
                        0.22153843587010338,
                        -1.53304613387703,
                        1.0399184142175624,
                        0.26283846284693085,
                        -1.1070578330712224,
                        -0.14015028106896868,
                        1.0335972969581044,
                        -1.1310149890957146,
                        -0.33327149849713866,
                        -0.8732621817730392,
                        -1.0635558331261394,
                        -0.7790680807450977,
                        -0.2919777658805453,
                        0.9258675485883282,
                        -0.8942536384864507,
                        0.6152588296119185,
                        0.5676316378737796,
                        -0.49943992728742903,
                        -0.7636213288231941,
                        -0.45024793331029106,
                        -1.5028988655138316,
                        -1.3696668238869794,
                        -0.5542254716561398,
                        0.7688169012337638,
                        0.3275117492782354,
                        -0.8819089515817693,
                        1.1888812231767938,
                        -0.5802262049453399,
                        -1.6331788209514277,
                        -0.9331405191686498,
                        -0.06810165129993026,
                        2.382855178835402,
                        0.7345075858660135,
                        -1.1138274124929928,
                        0.18304748194235188,
                        -1.0042518086509828,
                        1.369040658693266,
                        0.8058178396501438
                    ],
                    [
                        0.41520303241077305,
                        -0.09316854048589583,
                        -1.8707252006596355,
                        0.5177088109453164,
                        0.3309053455265749,
                        -1.1408564163384047,
                        -1.9644279751990021,
                        0.7837105902595425,
                        -0.7069226407378998,
                        -2.0801209142586985,
                        -0.6025219356581718,
                        -1.0126422224702103,
                        1.3661190912147907,
                        -0.050397933443061746,
                        0.4054817844553895,
                        -0.533436864161286,
                        0.30233238776475807,
                        -1.4937359385933837,
                        -0.18023905575010074,
                        -0.27421898670020817,
                        -0.26211035214188233,
                        -1.2282129411617058,
                        0.43082375515283117,
                        -0.6061349762943423,
                        -0.979804392116304,
                        0.013148744866782901,
                        -0.1049240380939317,
                        1.5133074937497177,
                        -1.5566860460163525,
                        -1.598864693096527,
                        -0.8016853877575608,
                        -1.0381415150001583,
                        -0.0451672535337421,
                        1.8847094779718216,
                        0.19735036428428995,
                        0.04861986072356134,
                        -0.46069154445400107,
                        1.1470183915048655,
                        -0.7689242532211638,
                        -1.1351989654905277,
                        -1.1228068290317306,
                        -0.9876103937806288,
                        -1.0963033977249257,
                        -0.2492682247894905,
                        -0.4033731940289444,
                        -0.17108231647541072,
                        1.1050382700723234,
                        -0.7005872687255759,
                        0.002929123860168192,
                        1.8913719755811675,
                        -0.5600761156430804,
                        0.8263012571918028,
                        -1.057573574176213,
                        -2.999913561186074,
                        1.1586151203708284,
                        -1.9123087264158383,
                        -0.5192441260993647,
                        -0.9686638831849878,
                        -1.1769996495250385,
                        0.08126824817885496,
                        -0.3049093702394092,
                        -1.4706372184769745,
                        -1.3826005649615283,
                        -1.560343832599051,
                        -0.5776581720423122,
                        0.7960261471761783,
                        -0.8419271809564707,
                        0.6520364570503995,
                        1.3082657484841669,
                        -0.2578975943979549,
                        1.4316827175869924,
                        -0.6781239839024268,
                        -0.311243805913461,
                        -0.10472832324464586,
                        -0.9142963531890979,
                        -0.30551185098519273,
                        0.03895036730487109,
                        0.1489552498187474,
                        -2.3345966170175676,
                        1.5624242310881487,
                        -0.172917004314046,
                        -0.482836429027494,
                        0.19380519869739443,
                        -0.24420467181643898,
                        -0.8644173199294273,
                        0.05027493985417237,
                        -1.9852826972842277,
                        -0.1806229322306414,
                        -0.6385230410905862,
                        -0.09301096063011483,
                        -1.9332396683069284,
                        0.4385871254917288,
                        1.0468129518878042,
                        1.2567824766471887,
                        -1.8134613125469485,
                        1.0643894227017552,
                        -0.30453795145006285,
                        -1.0635111454283566,
                        1.623088317326474,
                        -1.264685346886377,
                        0.646695947774662,
                        -2.9914572064858396,
                        0.7368400532208138,
                        -0.20585200075902993,
                        -0.8370354552621131,
                        -0.18888849205631966
                    ],
                    [
                        0.21721833948193894,
                        -1.1612656704880775,
                        0.3342178940450184,
                        0.19034362309552194,
                        -1.9983268577311373,
                        -0.4864526014919451,
                        -0.15033084948863512,
                        0.5196320687657998,
                        -0.37471828145381075,
                        0.48330000196082606,
                        0.1696410070286025,
                        1.3151248289734163,
                        0.5607509430693128,
                        0.12964424796803845,
                        0.9250739081883519,
                        -0.0577819081406478,
                        -0.9798868012343197,
                        1.5847697692047686,
                        0.32063868886914687,
                        0.0013300488426510836,
                        -0.42809070240263286,
                        -0.6050197470837764,
                        0.5350573406215725,
                        0.6773001612099822,
                        -0.2962972412777222,
                        1.1459803585955088,
                        1.166580826702594,
                        -1.5367258230874536,
                        0.28916990376124235,
                        -1.1472055940249009,
                        2.0339296379463883,
                        0.2531750207047591,
                        0.6012138332108952,
                        -0.15024159448963972,
                        0.8630322297135857,
                        -0.18421010845231017,
                        -2.13821208800042,
                        -1.8428197742231087,
                        0.0391383369628113,
                        1.455069148607522,
                        2.5089578007738136,
                        0.000712351990999216,
                        0.058337934256262915,
                        -2.041524318719838,
                        -1.0154480668112889,
                        -0.10364998688933688,
                        -1.551306922039546,
                        -0.8218869866774107,
                        2.111879259616282,
                        -2.347930815187021,
                        0.5474853885095148,
                        0.9760369369663203,
                        -0.17693025128411968,
                        0.5050874404553867,
                        -0.8503163194031222,
                        -0.8457701833539231,
                        0.4755272668390191,
                        1.194982654571226,
                        -1.4637274517463623,
                        0.397864460689282,
                        1.0454569438857328,
                        -0.3875492468363705,
                        0.8425803775598992,
                        -1.1218286025656683,
                        -2.1943273821451403,
                        -1.6624850333179768,
                        0.9787686427055825,
                        -0.2339510276432778,
                        1.7356855046518647,
                        2.161427156414119,
                        0.12290865473046969,
                        0.837576749840616,
                        -1.503071471391972,
                        0.5568685469876484,
                        -0.8098907255090853,
                        -0.281169263462875,
                        1.2752798983498375,
                        1.253566387772392,
                        1.484842128086129,
                        1.8959029856557261,
                        0.26318878172630356,
                        0.2915229915714495,
                        2.1464669016794136,
                        -1.5629409518138342,
                        -0.06721232093021562,
                        0.25837580009613437,
                        -0.21721023106480525,
                        -1.6572839585541246,
                        -2.0932858662269145,
                        -0.7280926924114541,
                        1.1117129537871313,
                        0.6510310864384439,
                        -0.4983230988320443,
                        2.586975861637376,
                        0.6034866288060337,
                        1.7997263277611588,
                        -0.2951714252699361,
                        2.3310092453765834,
                        0.8172818139844876,
                        0.2592433164135389,
                        -0.4269525831973899,
                        0.7601483410215294,
                        -1.181844733062953,
                        1.8814361816780423,
                        -0.8306827333543222,
                        -2.3519770241822058
                    ],
                    [
                        0.8771906895110826,
                        -0.9169041028835083,
                        -1.2574780944394373,
                        -0.6637610975131631,
                        0.16259395793266312,
                        -0.7715972692706069,
                        0.13769013668330038,
                        -0.28240389574917857,
                        -0.001487260095412438,
                        -0.6168609769059447,
                        -0.21853500738160292,
                        0.22337885991975548,
                        -0.05284267894186781,
                        -0.069686296564985,
                        -0.9254306133174566,
                        0.18166526501502242,
                        -0.037944737595430586,
                        1.9191461715140898,
                        -0.17310971735470299,
                        -0.7832901300695172,
                        -1.0496364006914465,
                        -0.34401840693712277,
                        0.6237602187205161,
                        0.7216762709582281,
                        -2.1431711768023907,
                        -0.2822155648327523,
                        -0.42224249972169775,
                        0.2819590770258572,
                        -0.7952255710300032,
                        -0.4637399066011503,
                        -0.6478559278058585,
                        -1.153694966900558,
                        1.7058553953678242,
                        0.4548342392505654,
                        -1.5898526208544803,
                        -0.44022150178538794,
                        -0.12356933819077134,
                        -1.3549453130437026,
                        -0.008002379076671302,
                        -1.493147949155859,
                        -1.4257213266702138,
                        0.6513085607042796,
                        -0.22701207479094834,
                        0.12934043220354866,
                        1.4768498207358878,
                        -1.0698441186613947,
                        -0.8998528230543918,
                        -0.47606595201483787,
                        -0.24274301478043914,
                        0.6656170822572707,
                        -0.17415545414696743,
                        0.89451216233756,
                        -1.2711282422331744,
                        -0.8583702699318974,
                        1.7377681395699327,
                        0.20138376335976857,
                        0.16613336237910972,
                        -1.6335255114435834,
                        -0.7343296911860231,
                        -0.7650901108589875,
                        -1.4956491224390251,
                        -0.1737966720477807,
                        0.2961229277075433,
                        -0.4582768482412728,
                        0.296364817372197,
                        0.4861834718804231,
                        -1.452901644819333,
                        -0.3837395129965834,
                        -0.05725050233073665,
                        -0.20494711039594535,
                        -0.0397525071584419,
                        1.4317461332499704,
                        -0.10085084126316936,
                        0.688997726934358,
                        -0.2967145190284073,
                        -2.068551854301525,
                        -0.9705628730478387,
                        1.197665537121536,
                        -0.594815865149608,
                        -0.09562668598231829,
                        1.7553919997401348,
                        -1.1188735950682107,
                        -0.14853809161600948,
                        0.35168001809004534,
                        -0.9646747225419089,
                        -0.7295782677544469,
                        -0.1433263714172994,
                        -1.100728257265,
                        -0.04238675354264422,
                        -0.7066430434111671,
                        0.262845624978141,
                        -1.4126714086447423,
                        -0.11865097943517944,
                        -1.8100963266671557,
                        0.011527951050870767,
                        0.12973913752269195,
                        0.4709029031495409,
                        0.7291729095926255,
                        0.09218268442974961,
                        0.08670333098311285,
                        0.007429508343455373,
                        -1.6384779688049183,
                        -1.9652317235061723,
                        -0.20343732612711177,
                        -1.377903111662531,
                        -0.2514463175834745
                    ],
                    [
                        0.682849972183699,
                        -2.9018222791423294,
                        -0.33603082549127045,
                        2.2399279226125253,
                        0.604740751171935,
                        -0.24560182150705262,
                        0.9223389412846263,
                        -0.06476803396348922,
                        0.007530629172022668,
                        -1.0444728752843226,
                        -1.3511404975753283,
                        -0.032965530563401894,
                        0.153034944431727,
                        -0.5636621987064778,
                        -0.008876114722729308,
                        0.4081882886881478,
                        0.7415214801892905,
                        -0.2861517683649884,
                        -1.0892683398419138,
                        0.5559434258046926,
                        -0.12193380936460985,
                        0.544824670237225,
                        1.75983511767935,
                        -0.46658337429778296,
                        0.632382416577804,
                        -0.0020486295551472287,
                        0.17475032925715478,
                        -1.6106211329840197,
                        -0.4082039099862243,
                        0.40169835042144497,
                        1.4106579803946406,
                        -0.17407259112700543,
                        -0.22098054111897947,
                        -0.5707739270685642,
                        0.4695123313230253,
                        0.011955023081165812,
                        0.23474220602488738,
                        -1.877410762246735,
                        -0.524879111420691,
                        -1.796187769268796,
                        0.3998115742087241,
                        -0.13207264799049992,
                        0.07993042050355127,
                        0.03065330370070995,
                        -0.654470259330292,
                        -0.1586650573922556,
                        -1.4763846442632225,
                        -0.955319295579168,
                        -1.8511034273664946,
                        0.48577317019820354,
                        0.6263965580194024,
                        -0.24993896100368326,
                        -0.26642414927402436,
                        1.3589219984575904,
                        1.4722888935827134,
                        -1.1044643659804472,
                        1.5562737285446764,
                        1.495012040013119,
                        0.563012845768263,
                        -0.9546877137069981,
                        0.9421097822237215,
                        0.5086929002496186,
                        -0.07737182058701181,
                        0.5875610944166996,
                        -0.7508755960868146,
                        -0.6977043409863058,
                        0.05587686374149909,
                        -0.06504041205028026,
                        0.6075077906839746,
                        -1.8192669984813497,
                        -0.17326385851075427,
                        1.4924064685247782,
                        -1.5509863089194473,
                        -0.1385310136155208,
                        -0.8661423109016497,
                        1.0483923133924382,
                        0.9203810528379063,
                        0.8529712296953412,
                        1.4130258810304936,
                        -1.6221629605584136,
                        -1.8922036613235567,
                        -0.38727594532323023,
                        1.47117116925174,
                        -0.8195489739403226,
                        1.6009385205012678,
                        -0.30607213756215595,
                        0.8426613712881386,
                        2.0654817153344918,
                        1.2896104389775909,
                        -0.11545424854340149,
                        -0.2749891326791886,
                        -0.30411363678773295,
                        0.3465265215517258,
                        0.9325333341898772,
                        -2.1649957196529663,
                        0.2801060110428632,
                        -0.015213098282243773,
                        -0.20990294333728987,
                        0.7954301267725117,
                        -0.7653698164652292,
                        -0.191155699120373,
                        0.5236967354357532,
                        0.851347730112572,
                        0.21779185828356115,
                        0.43807397761945704,
                        -0.28654593653606375
                    ],
                    [
                        -0.16121952773201315,
                        0.7825358246545759,
                        -1.126777665339501,
                        -0.3247764807813076,
                        -1.282397542082609,
                        -0.14248453677029424,
                        -0.2887836889487616,
                        0.9269129075343718,
                        -0.3990031308568571,
                        -0.44785886767180716,
                        -1.8708533040157391,
                        -1.1927336033949814,
                        -0.7905183662480265,
                        1.5096679756011855,
                        0.03083143224502602,
                        0.3995127982010462,
                        0.9851537923497812,
                        0.7178681563072207,
                        0.427594721946573,
                        0.7372720864506822,
                        1.3562677144443553,
                        -0.5323745840327367,
                        -0.3826077208326491,
                        0.9489329920366698,
                        0.9349886692136433,
                        0.2470839613274759,
                        -0.4177690625619282,
                        -0.30614784720885746,
                        0.6827174403587382,
                        -0.6750547377443555,
                        -0.3423533099968976,
                        -0.9422701084574567,
                        0.9993606360374033,
                        1.8252600235499181,
                        0.32120870218767755,
                        -0.5587416252399001,
                        0.21075333694627305,
                        1.2569744676262598,
                        0.7623095906661794,
                        -0.6188019294889503,
                        -0.19814620924611412,
                        0.4978166737637826,
                        -0.6913848326249757,
                        -0.4854053179419834,
                        -1.3974197136413484,
                        0.5631221471485252,
                        -0.35723637727788904,
                        0.6394270293253047,
                        0.4748430166417236,
                        -0.7245908231598487,
                        1.09218118637538,
                        -1.288906756701518,
                        -0.31188581594272224,
                        -0.06256465833179986,
                        1.1096859209360799,
                        1.1663199895130414,
                        -0.36313513281531506,
                        -1.353276326647923,
                        2.8118416198137415,
                        0.5993818990793962,
                        0.489124121738027,
                        1.6379081724798463,
                        0.8900114069757573,
                        2.0234633127112716,
                        -2.529632552673194,
                        2.8362473981518903,
                        -2.409762128211454,
                        1.773886111210111,
                        -0.38544376938505476,
                        -0.8012058932222254,
                        1.3710051468039601,
                        -0.9110283255856001,
                        0.3248052722496266,
                        1.2429109399185199,
                        -0.7419508340342935,
                        -0.3170931508041399,
                        -0.9393287026807949,
                        -0.1390391775108852,
                        -1.9889394681080752,
                        0.12101830530346477,
                        -0.4049517983916249,
                        0.1186694638901451,
                        -0.07894084133992399,
                        1.0036141130220517,
                        -0.19482677566959888,
                        -0.09298742253648311,
                        0.372240715312712,
                        -0.4171348301977784,
                        -0.10620436974382363,
                        -2.640811321088594,
                        -2.6485440666455196,
                        1.948290735827133,
                        0.10405724101905321,
                        -0.10705307697656218,
                        1.6438951592266913,
                        0.3692662259820962,
                        0.5554350154815171,
                        -1.2794580548186216,
                        1.654492259023701,
                        0.43527099906178923,
                        -1.286515761287455,
                        0.9550181234928752,
                        1.2732525842856943,
                        0.5173078634772179,
                        -0.5861152662210747,
                        1.2560730859160498
                    ],
                    [
                        -0.2822046866578935,
                        -1.5686816681049176,
                        -1.2625280903593674,
                        0.002579344251468227,
                        0.7925936546036091,
                        -1.4438735991144869,
                        1.0181982112177461,
                        0.1740357509525089,
                        0.8673848954207453,
                        0.34696026132423907,
                        -0.005099987623146654,
                        0.26638832691116376,
                        0.08971794156799356,
                        -1.380542512882252,
                        -0.4454908104566986,
                        -0.6141851073912753,
                        -2.059424049006333,
                        -1.5024472399062163,
                        1.2613444356813224,
                        -0.15121911513941025,
                        -0.5771973650166943,
                        0.2970371210982348,
                        0.5684967801185609,
                        -0.3004499511019293,
                        1.244115874764057,
                        -0.8140522766614487,
                        -1.207856819947968,
                        -1.1181371034296521,
                        0.8794181883067865,
                        -2.9562059328506516,
                        -0.5565410106941887,
                        0.7562305489438181,
                        0.6767633656125617,
                        0.32554872072918534,
                        0.45233254044437515,
                        0.6188176012753284,
                        0.14275607957859027,
                        0.7658613077979096,
                        -0.018260408475105582,
                        -0.2478744119239413,
                        1.7806800358069117,
                        1.1469178927666872,
                        0.2709883721620269,
                        -1.5507291879421727,
                        1.0669628339707058,
                        1.020585544523529,
                        -0.7037414498004395,
                        1.009142991926436,
                        1.9538583701293435,
                        -2.5538152881202283,
                        -0.5623095169979907,
                        0.2369182382442689,
                        0.195265360704386,
                        2.1668283882041637,
                        0.17300550587224708,
                        -0.2741210627380566,
                        -1.269255462248221,
                        -1.958199628636367,
                        -0.22304056687624735,
                        0.553121245039499,
                        1.4749790872667334,
                        -0.17926682913950415,
                        0.5035566609274963,
                        -1.9053472517981664,
                        -0.5700402317143802,
                        1.5748596877502543,
                        2.0887086403475728,
                        0.3775331402677474,
                        0.1116032580436778,
                        0.8678221449418293,
                        -1.2541535620398456,
                        -1.5598185519058645,
                        -2.8704055240089628,
                        -0.3967797522703428,
                        -0.10386512205346371,
                        0.2895685500379838,
                        0.4451475672013073,
                        -0.7130025602902544,
                        1.0767945809332917,
                        0.6687906890076077,
                        -0.8762604740264814,
                        -0.30504524069048633,
                        0.6778591272157957,
                        0.4967449227754555,
                        -0.6497778216360739,
                        -1.117035079845603,
                        -1.288656443323425,
                        0.7103531112489277,
                        1.3413545516899905,
                        -0.7848909135876674,
                        -0.1778908230823626,
                        -1.8723555521673387,
                        0.8331060623270912,
                        1.1839185326773944,
                        1.1019712638185388,
                        -1.325419927691911,
                        -1.8507121999521337,
                        -2.047615017417255,
                        -0.9313617869573037,
                        -0.03214998638106053,
                        -2.4669048043605537,
                        1.630599698183256,
                        0.26144147845741805,
                        -0.0721171422643418,
                        -0.14085803295557153,
                        -1.3534340669652019
                    ],
                    [
                        0.598922355048163,
                        -0.021238874297459524,
                        0.3515667395778266,
                        -0.22656930448262855,
                        -1.095841263237708,
                        -1.0918478444604798,
                        0.9431465077069611,
                        2.0223102381818276,
                        0.4257274383919184,
                        1.5373519716295008,
                        1.9717451270098352,
                        1.3674765304272543,
                        1.185988105873737,
                        -0.008774665855082327,
                        -0.20658832242756314,
                        1.4597463062558296,
                        2.670688805193108,
                        -0.9265384590078005,
                        1.7632975552725778,
                        0.9353022313985728,
                        0.4109554826078798,
                        0.49262853334049317,
                        -0.6988120269617094,
                        -0.4060697242751403,
                        1.025622445781039,
                        0.9258099936094865,
                        0.1678668960016357,
                        2.104446787502806,
                        0.8080113025170803,
                        -0.15799285475068636,
                        0.47543580910997607,
                        0.433231135138487,
                        -1.7393068321887284,
                        0.9248295852426888,
                        0.4482573597184776,
                        -0.5663444007571177,
                        0.5349282442351313,
                        -0.16721703318995035,
                        -0.3676619284328865,
                        0.9049809787980213,
                        -0.5622611251009193,
                        1.3139434529446663,
                        -0.7552216214642556,
                        0.40965833293880605,
                        1.6028502043406576,
                        0.3713420264942593,
                        1.0052688133985406,
                        0.29147735144363174,
                        0.6133771574116634,
                        2.227738659926205,
                        0.1791352279146217,
                        -0.3015262382125098,
                        0.6910004364835485,
                        -0.7126654416284126,
                        0.10416916792283903,
                        0.6037192746741581,
                        -0.6092951750346565,
                        -0.517062546107955,
                        0.3266479794439833,
                        1.6870022171635717,
                        0.22252598333957513,
                        -0.511142733803021,
                        0.6560963795366197,
                        -0.12981813117263438,
                        0.20674621453821587,
                        -0.049979046168739834,
                        -0.2849735319450185,
                        0.2343790038119033,
                        1.3334146977853802,
                        -0.6928449053928055,
                        0.41605570587566254,
                        0.2156998037426505,
                        -1.2765655449078543,
                        -1.548669954396348,
                        0.24437407007191667,
                        -0.38731572416429105,
                        0.9581069292743217,
                        2.999999999660711,
                        2.2004117590850587,
                        0.4590439512432789,
                        -0.550604377096521,
                        -0.10785600023539534,
                        1.5909406918226348,
                        -1.3504480890928505,
                        0.2566625073037095,
                        -0.024620308449277074,
                        1.2650457438543665,
                        0.6528617268984693,
                        0.6204548516721541,
                        -0.8472467604019852,
                        0.5902695362451478,
                        0.10515058480189535,
                        0.5788848089552973,
                        -1.5664481567645394,
                        0.9043219424192553,
                        0.5160396501070403,
                        0.6329229443896852,
                        -0.6462057789930031,
                        -0.7761586798237627,
                        1.0239004727548087,
                        1.0276632591774344,
                        0.20312255282403469,
                        0.05943839562200922,
                        1.0765455958819727,
                        0.7643921658046519,
                        -0.5203708026598085
                    ],
                    [
                        0.9315673554894986,
                        -1.4106289052382994,
                        -0.5991754811626256,
                        1.5852182722335952,
                        0.6721141979850307,
                        -1.1595228432013949,
                        0.9153394154380746,
                        -0.9159917145215113,
                        0.5202763711522312,
                        -1.226553261264204,
                        -1.5800877101952562,
                        -0.16922958687666237,
                        -0.15996188188954322,
                        -0.2602856533889531,
                        -0.09423567180379172,
                        -1.593343095050512,
                        -0.5903314830911116,
                        -1.0119679500163024,
                        -1.0788550857216268,
                        0.04693980177740019,
                        -0.8875056687466726,
                        0.007058598523679695,
                        -0.963583999950862,
                        0.5201578761760453,
                        -0.44857369951711046,
                        0.6537212674875993,
                        -0.008493449911420129,
                        -0.19597875860330669,
                        0.42128900089149884,
                        -2.5535169017896484,
                        0.4067798850594144,
                        -0.5209995357980572,
                        -0.06990349829489696,
                        0.7504506322801117,
                        1.4124031470229788,
                        -0.16417239895340183,
                        0.2378912772212778,
                        0.7308868307982934,
                        -0.9628057293304134,
                        -0.838937785806321,
                        0.19245602661850145,
                        0.9864456180252349,
                        0.6985855861512953,
                        -0.6385445729777908,
                        -0.986122869486262,
                        0.3772859991044359,
                        1.2723533123971238,
                        -0.21094357447376816,
                        0.13619192845731137,
                        -1.1620977481244792,
                        -0.9102484525269939,
                        -0.003650358453364064,
                        -1.2345136436989737,
                        -0.41862415488705834,
                        -0.9171379573562368,
                        -0.9859377128011361,
                        -0.01710005037693143,
                        0.2919117150274982,
                        -0.4267682894711449,
                        0.09679991855110129,
                        -1.4419588615134127,
                        0.43697973488193764,
                        0.35859851266144055,
                        0.2658915073362843,
                        0.7091089145413734,
                        -0.8421239673835867,
                        1.8926965681292955,
                        1.118836459789176,
                        -1.1219883272766167,
                        0.9811649798053312,
                        -0.29995581333158616,
                        0.11781079907417522,
                        0.8755293899808212,
                        -0.3204474036005958,
                        0.5290620101681806,
                        0.5867876862768056,
                        -0.3775045363282458,
                        -1.751951441137522,
                        1.3542707404295007,
                        -0.02005183910033239,
                        -0.5307154008441348,
                        -0.5125216385045203,
                        -1.0941212561931213,
                        0.7597853347493637,
                        -0.9748112494046277,
                        -0.5905967967136952,
                        -0.08266690325352888,
                        -0.9588540959241023,
                        -0.5630086919255256,
                        0.36606442441358794,
                        -1.3085569481754784,
                        0.3516333015114895,
                        1.245109253294691,
                        -1.020112614901914,
                        -1.9097348206830407,
                        -1.5648125853855819,
                        0.8401915115547891,
                        -0.08251435091283847,
                        -0.23476105190725824,
                        0.5177270512737993,
                        -1.4057808009568653,
                        -1.2563909277286673,
                        -0.987304755233925,
                        -1.2716010212532929,
                        -0.5137112996794096,
                        0.6006906135381938
                    ],
                    [
                        0.8493051177053913,
                        0.07272838003329893,
                        -0.02073664360219816,
                        0.1947745509253596,
                        -1.7178588625437383,
                        -1.080259493575633,
                        0.26942551959080074,
                        0.04109234836494854,
                        0.7853083950963268,
                        0.5115454899546696,
                        1.6023394437711989,
                        -0.4366311693951587,
                        0.3823438156252765,
                        1.9926032278662233,
                        -0.12938199293433356,
                        0.008229262838482148,
                        0.22750544960953367,
                        0.3810244982924074,
                        1.645278121552846,
                        0.09049844578640356,
                        0.7375327396341375,
                        0.5167095057533722,
                        -0.4127429690279127,
                        0.1297727889192931,
                        -0.8847446960173154,
                        -1.0691179408452103,
                        0.3127825559662578,
                        -2.343966722067425,
                        -1.1582214461966278,
                        1.0091446408997324,
                        0.7573285248352709,
                        0.8699805459822197,
                        -0.9784950338380738,
                        -1.1108708335636563,
                        -0.4817494403627009,
                        0.14510888220095727,
                        -0.7905696674716336,
                        -1.1076624709444858,
                        -0.3751536431686152,
                        -0.7775976181487978,
                        0.5474883028475398,
                        -1.4538352933626901,
                        0.3120592106764684,
                        -1.3731763144512326,
                        0.903033302617087,
                        0.8576359858977717,
                        -0.9945557633101162,
                        -0.23541787981003048,
                        0.3871387165773814,
                        -1.924808549626061,
                        2.4360324166248404,
                        -1.354278402856001,
                        0.4609533983656946,
                        1.3040378987877441,
                        1.151896391617162,
                        0.5411428652739918,
                        -0.4674136830207002,
                        0.22060038759945214,
                        -0.744664436507693,
                        -0.5100246789145031,
                        -1.008098726403501,
                        -1.6427868728683745,
                        0.08605674888045439,
                        -0.3583803791216851,
                        -0.3928027181105436,
                        -0.8563861947352834,
                        0.06990293303507862,
                        0.5739350715630799,
                        0.9137793326306948,
                        1.7879781025294965,
                        1.0594390462563392,
                        -1.006032957501938,
                        -0.9979914676769068,
                        -1.247975021464056,
                        1.040854048263894,
                        -0.07580411593782528,
                        0.9041134078289015,
                        0.10955261269278425,
                        -0.5149081192650048,
                        1.078089551246243,
                        -0.5893434542611646,
                        -2.2497594474189597,
                        0.11460042911407582,
                        0.6382400971847733,
                        0.41113902737165037,
                        -1.6090985770392894,
                        1.8353797785031776,
                        0.2615314174840899,
                        -0.8546339497045753,
                        -0.4524818571256599,
                        -0.2706071237717885,
                        1.7620169920537168,
                        -0.439617814176786,
                        0.9929359371305166,
                        -0.7982180857317822,
                        -1.0647375879178917,
                        -0.7519688794771822,
                        0.677386995972103,
                        -2.174308682196007,
                        0.36564328641395516,
                        0.8383262996756549,
                        1.1392092956742355,
                        -0.8196669285814984,
                        0.21829820137008557,
                        0.9454405822515146,
                        0.23300455478047644
                    ],
                    [
                        0.6542141619633964,
                        -0.7418910859758866,
                        -0.2316529294917762,
                        0.7104276014224715,
                        1.2449038284194915,
                        1.6311021701013009,
                        -1.1195409054989303,
                        -0.6602279715181222,
                        -0.7483285857626265,
                        0.9760195184115215,
                        -0.4903816446165538,
                        1.0480262669040716,
                        -0.4837426873381649,
                        -0.9503578117264775,
                        -2.7024989360019083,
                        1.070741335852433,
                        -1.6438980111017822,
                        0.0840780855998787,
                        0.3805565842182643,
                        -0.7792753240228738,
                        -1.4332166664538346,
                        -0.4377191014828982,
                        2.3402272490017277,
                        1.9547590361950533,
                        1.3147518156846876,
                        1.748791017699023,
                        0.11086722998512782,
                        0.8740503591450822,
                        -0.5535427373431531,
                        0.7818416123240769,
                        -1.7696730811928905,
                        -1.8198696962515164,
                        0.7551253136069603,
                        -1.7914447168532082,
                        1.184097305130036,
                        0.13448817002804314,
                        2.3592876249579695,
                        0.03253923210745115,
                        -1.8303079711103178,
                        0.10863256525074337,
                        0.429877178611227,
                        2.318719747652125,
                        -0.7894032932269709,
                        1.6356966839652365,
                        0.872690821280603,
                        -0.15482578869956082,
                        -1.0755491263109576,
                        0.5339572520613678,
                        0.6320083025658456,
                        -1.149348303034203,
                        0.4625257482307543,
                        -1.2445887753956362,
                        -1.537918698021779,
                        -0.7545613712893292,
                        -0.09577119304636848,
                        -0.3475689643998211,
                        1.0525365719511601,
                        0.7457033067892851,
                        -0.13229112262286738,
                        -0.4526216513986447,
                        0.873136523744678,
                        -0.48105963872089474,
                        -0.8398881983682981,
                        0.5869245435778222,
                        0.9715375950656668,
                        -2.1190671794068807,
                        1.1319095629764744,
                        1.9215390608560174,
                        -0.9010476488716648,
                        0.4111268039538183,
                        1.426902923329288,
                        -1.1967173337670236,
                        1.294499191631852,
                        -0.7847306166055683,
                        -1.8656267949656378,
                        -0.8438896826302343,
