{
    "settings": {
        "batch_size": 12,
        "loss_function": "multiclass_cross_entropy",
        "output_size": 2,
        "hidden_size": 106,
        "avaible_id": 3,
        "activation_fun": "Sigmoid",
        "convolution": false,
        "input_size": 106,
        "input_shape": null,
        "kernel_size": null,
        "depth": null,
        "optimizer": {
            "optimzierType": "SGD",
            "layerType": "Dense",
            "weights_clip_range": 3
        }
    },
    "hidden_layers": {
        "2": {
            "id": "2",
            "act_fun": "Sigmoid",
            "is_ending": false,
            "is_starting": false,
            "input_layers_ids": [
                "init_0"
            ],
            "output_layers_ids": [
                "1"
            ],
            "optimizer": {
                "optimzierType": "SGD",
                "layerType": "Dense",
                "weights_clip_range": 3
            },
            "reshapers": {},
            "weights": {
                "W": [
                    [
                        -1.3030898159266586,
                        0.1069167922165863,
                        1.8350390647753925,
                        0.5703594962277981,
                        0.06818484074192105,
                        1.2799468141674646,
                        0.1118248480234114,
                        1.6625230601022698,
                        0.6939084462491705,
                        -2.0494350274912225,
                        -0.8779315069424095,
                        0.26981264044854636,
                        1.4449563185949856,
                        -2.0584702603756053,
                        0.6069244726294543,
                        -0.8737222366708506,
                        0.765936799338457,
                        -0.5917109965800327,
                        -0.7834591626453177,
                        -0.33822135838100414,
                        0.9500735185233748,
                        -0.10656865159011131,
                        0.39515710332645393,
                        0.887837638276215,
                        0.15677957951800522,
                        -0.5477818961640787,
                        0.11295267355557473,
                        -0.40857749979865543,
                        1.3751953973466846,
                        -0.36084258841765277,
                        1.3293979822259672,
                        0.4927591948233148,
                        0.13538185444040124,
                        1.2123224524805682,
                        -0.5159054453779035,
                        0.4138798074618795,
                        -0.24622719887686342,
                        -0.5116346476800486,
                        -0.46581431098626275,
                        -0.19882132066207223,
                        -0.499643501624471,
                        -1.0193100360501401,
                        2.4006328846467153,
                        1.4805070350116565,
                        -0.31124896801019314,
                        0.015499857324356388,
                        0.3337284384011072,
                        0.1165422988896124,
                        0.14969846002160522,
                        -0.6104294679220186,
                        -0.5629175381136851,
                        0.07741969406337681,
                        0.5864822069025688,
                        2.016124609760422,
                        1.0102933314753086,
                        0.03447169648889084,
                        -0.05159232323748656,
                        -1.856054251127528,
                        0.3074501168084323,
                        -1.3883068563915786,
                        0.5711269511667108,
                        0.4675571561134428,
                        0.5071637301509748,
                        -0.12025194731303497,
                        0.39167754549750017,
                        0.3711125560622254,
                        -0.8124544614485657,
                        0.08031352614776623,
                        0.8106070752919403,
                        0.7890630888545467,
                        -0.6220083496933875,
                        -0.967292379287835,
                        1.2757281652627785,
                        2.489888255067778,
                        0.03195142840065918,
                        0.9092184479973668,
                        -0.08409375164443693,
                        1.1140519275582523,
                        -0.11428100269902326,
                        -0.07566679633132727,
                        1.6265212305195058,
                        0.5242655855694973,
                        0.44218073771202737,
                        -0.2187425679523592,
                        0.1955453809072922,
                        -0.24849884619928111,
                        -0.7537043007375218,
                        -0.7749666891516901,
                        -0.5857322175861728,
                        0.6452576802661433,
                        -0.7536665040190473,
                        -0.36540488930750514,
                        -0.38600536685488845,
                        0.44764075286412414,
                        -0.594643817867045,
                        -1.780086988719054,
                        -0.4858936109806702,
                        -0.366734278205416,
                        -0.5432114444954589,
                        -0.690243768410248,
                        1.4712064828090314,
                        -0.19133451725307396,
                        0.7921090386632277,
                        1.134163919392933,
                        2.4551925424315195,
                        0.8631564229617887
                    ],
                    [
                        0.053449136788960044,
                        0.4484863811836821,
                        -0.8209598500502205,
                        1.4951704464656779,
                        0.3080337465033747,
                        -0.9748982021019298,
                        0.592996756643112,
                        3.589492706769329,
                        0.7302164222302261,
                        -1.2332914815716842,
                        -0.9168842636030532,
                        -0.02906968569494259,
                        -0.6307526447262484,
                        1.5004936534045947,
                        -1.6120730615963281,
                        -0.46996567889415986,
                        1.4981631811147003,
                        0.3475809417926961,
                        0.3367803851669209,
                        0.846282998633112,
                        0.06795885407068185,
                        -1.2126274911637345,
                        -1.1995885112330675,
                        0.5367374448899339,
                        -0.4860940671978885,
                        -1.2365722808023965,
                        -0.13775209718362472,
                        0.5993158845689882,
                        0.9358942605083516,
                        -0.964186680326511,
                        -0.6531751784888156,
                        0.2652840750636207,
                        -0.33183798969090894,
                        -0.5424716829509891,
                        -1.3859283509858267,
                        0.474990988026937,
                        0.001962024316261751,
                        0.65958503028144,
                        1.016349383667726,
                        -1.022153707155268,
                        -1.1599002675984,
                        0.5149403506931677,
                        -0.21408581159606704,
                        0.5218453947134726,
                        1.7813985176285771,
                        -1.0253266569575568,
                        0.2707708449347689,
                        0.789715835339478,
                        -0.24853725484891454,
                        -0.037462171008947165,
                        -0.06088707833410569,
                        -0.9258953339089127,
                        0.2672094616140246,
                        1.294553703359164,
                        0.09297087283177585,
                        -0.25787599917927506,
                        1.1187264355053999,
                        -1.2367865600897023,
                        0.9754289311777584,
                        -0.3381225790822801,
                        0.9745072239881807,
                        0.8483139693672073,
                        1.0797215754615448,
                        0.37813715112573315,
                        -0.601503540507691,
                        -1.8517081080838893,
                        -0.7629108958711291,
                        1.2143144947893647,
                        -0.46051262069810295,
                        -0.6218102179377136,
                        0.3872715711647487,
                        0.8027402248593029,
                        1.3815692336767853,
                        -0.6733732290455745,
                        -0.3667202643939156,
                        -0.8434748064810149,
                        -1.1072756590617308,
                        0.44790014723534666,
                        1.0195790815611931,
                        0.19075352362803424,
                        1.1442823546441219,
                        0.5228628041721289,
                        -0.4823358908791142,
                        -1.1554271066952906,
                        0.45377141278019534,
                        -0.28894121145301166,
                        -0.25173612321790995,
                        -0.8815779828090755,
                        -0.2138079721501697,
                        1.3134401053934501,
                        -1.059195060417868,
                        -0.3434249572631104,
                        -0.38116865570750763,
                        -0.471189175375595,
                        0.404150921075219,
                        0.6166901880906488,
                        -1.6767926162748725,
                        -0.6151312684716864,
                        -1.0062216757380198,
                        1.5295654803544483,
                        -1.4739892444080847,
                        -0.6059636619555203,
                        1.6601716436969705,
                        -0.911316050238251,
                        -0.3708976311805519,
                        -0.6493906455071224
                    ],
                    [
                        -0.40683285933152474,
                        -0.5553340670734258,
                        0.04260322836715442,
                        1.6648321175420169,
                        1.0613323805065848,
                        0.7837508760008745,
                        -0.8761646482345747,
                        1.0518860089445554,
                        1.6651487297186183,
                        0.1491500281493797,
                        1.0488758903131385,
                        0.3748092419513357,
                        0.7012857357447766,
                        -1.4077904940290566,
                        -0.022815767957230438,
                        -0.5792320317298832,
                        -1.290547994074924,
                        0.2804777123893245,
                        -0.476856816937648,
                        0.3378086740260519,
                        -0.5712359623479062,
                        0.5296855217813244,
                        -0.5308264215857829,
                        0.6685628074200086,
                        -0.40122563972648134,
                        1.1845791556827994,
                        0.8492223931379081,
                        1.304255219529511,
                        -0.5500323572067853,
                        -0.16517080288745803,
                        0.687537717788731,
                        1.2686633487713574,
                        0.6240273633098702,
                        0.1542256909631675,
                        2.2530385259464816,
                        -0.13010897463649027,
                        -0.4027283756282438,
                        0.12192462565301035,
                        -2.6397836661229372,
                        -1.0021696929873085,
                        -1.636687585901876,
                        -0.8428263819962983,
                        -0.7244445624325406,
                        2.5333711148983125,
                        -0.400709238362556,
                        -0.9903567402903061,
                        -0.6851704298171467,
                        0.4683038635951079,
                        -0.6510299065144263,
                        -0.026535660789833895,
                        0.7019873124087392,
                        2.9336840539196527,
                        -0.5909413903982687,
                        0.02924657090202263,
                        1.2295901128061821,
                        -2.813657581942452,
                        0.7403736689707778,
                        -0.09965119505237566,
                        -1.169240922132829,
                        0.31281347274337273,
                        1.4014580674898838,
                        0.8172976475589019,
                        0.6508238066259009,
                        -0.810593941349482,
                        -0.3761396822680572,
                        0.1176567162246916,
                        0.04355153555801266,
                        1.4884462174721358,
                        -1.8740522289312205,
                        -0.26115871659443557,
                        -0.2305380558410478,
                        -0.9344606731282166,
                        1.6242585216173955,
                        1.2003035923825696,
                        -0.4390381821958876,
                        -0.9441140178821289,
                        0.783450602511112,
                        -0.2790064889142669,
                        -0.4811094800680865,
                        -0.5419658662566721,
                        2.263125455270372,
                        -0.6558183309129287,
                        0.4474433995571559,
                        0.2981717704777121,
                        -0.08337673188628757,
                        0.9556574740366204,
                        1.3027385507025457,
                        -0.2873795369012886,
                        0.024582835805845128,
                        1.635199176437533,
                        -0.027059942226018166,
                        -1.2137945899897846,
                        0.7781950776634768,
                        0.30101225513513086,
                        -0.08964108746785354,
                        0.6888255947720057,
                        -0.12750972737498378,
                        -2.013427917966643,
                        0.19797199847344196,
                        -0.504119114870385,
                        -0.4745519509095426,
                        0.9337607027247572,
                        -3.108721470200082,
                        0.602571380207418,
                        0.67009253180058,
                        -0.23682473161052806
                    ],
                    [
                        1.6339852404048374,
                        -0.1705712801043227,
                        -0.05767446292473537,
                        -0.05760921073546947,
                        -1.688315529061469,
                        -1.6609810634332354,
                        -0.5878522506710265,
                        1.6727792305352711,
                        -0.38033134812223063,
                        -0.7312932979993237,
                        0.42390146229015085,
                        -0.8754198783802917,
                        -0.29328494978507985,
                        -0.35179450365665027,
                        0.5979679697967037,
                        -0.30304674192293296,
                        0.6219737195468477,
                        0.17583138054394493,
                        -0.6015666867279115,
                        -0.8506197275874009,
                        0.4766935383599817,
                        0.26830115899852475,
                        -2.0424042813353935,
                        0.4497038955587144,
                        2.160565361730045,
                        1.8248526520381034,
                        0.006849297656499913,
                        0.971852679152341,
                        -0.8240488661172468,
                        -0.4613981256397297,
                        0.5302779990452472,
                        0.7099349984087657,
                        1.0325762490174815,
                        1.4256776993075784,
                        1.2112770159174666,
                        -0.36838963654298656,
                        1.406466506319997,
                        1.0829442749384257,
                        -0.28598402947102836,
                        0.709272828170952,
                        -1.1669179690385707,
                        0.8634041507148097,
                        0.2145417423554168,
                        -0.8640059175406297,
                        1.1565069111837036,
                        0.3845104000661493,
                        2.4038768260689465,
                        -1.2047745965376542,
                        -1.1089560380936079,
                        -0.9362082998022103,
                        -1.9202981319241055,
                        -0.5515688032291539,
                        0.3377476665748948,
                        -0.28170467679638145,
                        0.588592925731899,
                        -1.966294905208992,
                        1.270308957875778,
                        0.49558432136519065,
                        -0.55797088659972,
                        -0.6004554023746946,
                        -1.26694165895732,
                        2.3156020990245136,
                        0.2756001546261755,
                        0.7926008904458369,
                        0.3392952595402701,
                        1.4157764549665837,
                        0.02409104432794376,
                        -0.14454601262567757,
                        -1.0867684797459618,
                        1.5964043766092464,
                        -0.7096930235518294,
                        0.5924814422993675,
                        1.2992602249133942,
                        0.5324572369505001,
                        1.342319663713258,
                        0.27307507341389736,
                        0.42988673601558014,
                        -0.6354286371649084,
                        -0.1701167341498295,
                        -1.1134487728454832,
                        0.9266896890713008,
                        -1.0637038262385738,
                        0.09042048911648845,
                        0.19645951395899966,
                        -0.8289924615078947,
                        0.3326359010418779,
                        -0.3768721246673295,
                        -0.8712287360302884,
                        2.168868238096695,
                        1.2109373409681077,
                        0.6857506493775691,
                        -0.343123705453492,
                        0.7660582189651272,
                        -1.9268677144390656,
                        -0.22081443159956649,
                        -2.4350557285589742,
                        -0.48221909662503026,
                        -0.4129848260292203,
                        0.8191977534231633,
                        -0.9132086862006799,
                        -0.4375070405075653,
                        -1.1570489991902138,
                        0.07687773253928437,
                        -0.7442514847075112,
                        1.6751081599697386,
                        -1.3392317352422
                    ],
                    [
                        -0.13132642984847043,
                        1.3177124913941893,
                        1.697287111794355,
                        0.5903579443994806,
                        -1.0675771032132673,
                        0.20471252616901808,
                        -1.5910281772495927,
                        1.4945073768478134,
                        0.10837403103387862,
                        -0.22646551010897947,
                        0.23135824128726104,
                        0.3346647303047011,
                        -0.8497174965975065,
                        -0.35518732365750993,
                        0.1568179522447802,
                        -0.2505742383039826,
                        -0.06391029344491882,
                        -0.24824935411415555,
                        2.578326376957886,
                        0.14735877497972155,
                        0.07006061230233003,
                        1.410280644087447,
                        -1.3002105721119972,
                        1.4590838515480673,
                        -0.9119064352382541,
                        0.5678107340355348,
                        0.2892610665206431,
                        0.37984713640241885,
                        -0.6916321440756997,
                        -0.42184550479136956,
                        1.8554522348624156,
                        0.8112120932525,
                        -0.5132246425089646,
                        1.3419988291571963,
                        -0.1261610792122532,
                        -0.8348528997440494,
                        -0.12829184006801894,
                        -0.36292646090973707,
                        -0.3240686219828289,
                        0.7393474215649019,
                        -0.42530801834722337,
                        0.8669728786105529,
                        1.0833685595531766,
                        0.31492569368160983,
                        -1.3262039323127703,
                        2.760155491805365,
                        -0.20225944362571127,
                        1.0266449352355338,
                        0.23937074154472018,
                        -0.6973999161019202,
                        -0.5676399432127438,
                        -0.12490869546814999,
                        -0.4500873775190117,
                        -1.119965135040513,
                        0.7956125367112082,
                        1.0797220099493985,
                        -0.36916986883148173,
                        1.6475923619716664,
                        -0.7727367723416708,
                        0.2827995903005362,
                        0.18250986456835946,
                        -0.8565073071777253,
                        0.6688491081529411,
                        0.23058766808595024,
                        0.34634789746487243,
                        0.6704220228989869,
                        0.14046331700112005,
                        -0.5011970303803481,
                        -0.5209108303033336,
                        0.11666715264202333,
                        -1.9784480057573957,
                        -0.6153169490442917,
                        0.3858944192226442,
                        -0.9681823452936466,
                        -0.9027627696895354,
                        -0.2544937139503092,
                        -0.2028339648560207,
                        0.46847821654676663,
                        -0.8842901636507343,
                        -0.48501961519969466,
                        0.8937972244687551,
                        -1.481153347409843,
                        -0.7716403384922835,
                        -0.04561426812910208,
                        1.1333431379454384,
                        -0.14305995116020262,
                        -0.3420888946423667,
                        -0.2851142252410397,
                        -0.3332600235577239,
                        -0.10142681736362977,
                        0.6430075434262262,
                        -0.28894448407371964,
                        -0.7415577245766765,
                        -2.2747893622253597,
                        -0.3626781311642224,
                        -1.0273952745536294,
                        -1.6158959867744151,
                        1.226938112620676,
                        -1.7687771767766256,
                        -0.03477680157451939,
                        -0.227772860251101,
                        1.036033050374936,
                        1.8643962430704566,
                        -0.15945959327208623,
                        -0.15842346026266113,
                        -2.1994888890468336
                    ],
                    [
                        1.4632457679567976,
                        -0.9873096459469792,
                        -0.7215723246577488,
                        2.5131347348747606,
                        0.6069619751943726,
                        1.7362323692500234,
                        0.10783349875663731,
                        -0.11709660312622128,
                        1.1948652249420495,
                        -1.1964882391140934,
                        0.3844362172922414,
                        -0.572459384637598,
                        1.04239722010457,
                        0.018442014172862314,
                        -0.5880792189111284,
                        -1.104634235561848,
                        1.7491988575584871,
                        -0.38388005686174265,
                        1.5925562459459695,
                        -0.18178330954379465,
                        0.9743452111174576,
                        0.9112750005712172,
                        1.4585603938823406,
                        -0.46234435016794007,
                        -0.9257982356799929,
                        1.4156420108733923,
                        -0.062024087151676205,
                        -0.4276576902062255,
                        -0.30361179362083335,
                        -1.2543002693997602,
                        -0.9822383557573854,
                        0.757823331361765,
                        0.24385089413572553,
                        -0.43190282126586704,
                        -0.3955760440429044,
                        -1.3435234112073924,
                        -0.7813441400392278,
                        -1.2045307154848743,
                        -0.954734402355422,
                        0.5578504101868353,
                        -0.8551220959001609,
                        -0.1038348640472984,
                        0.36977428421083397,
                        1.3277023213905994,
                        0.11309117014378825,
                        0.27552803118498026,
                        -0.7670748418960849,
                        1.7105864896382983,
                        1.5854823214377898,
                        0.726614697168395,
                        -1.1183630120951782,
                        -1.0600181772571666,
                        0.025003337804562195,
                        0.5098747362842165,
                        -0.11157775059065604,
                        0.9990634592578287,
                        1.0993079257763219,
                        1.5436545050164434,
                        1.4654201694012943,
                        -2.711264760993341,
                        0.5406822676347143,
                        0.025506108121703053,
                        0.26188252828736824,
                        0.1304581522627655,
                        0.16542779979498926,
                        -0.5431537241831726,
                        0.3153109562192185,
                        -1.1656739519103065,
                        0.31280625223533903,
                        1.029229363050056,
                        0.03312818156145269,
                        -0.4929094870768181,
                        -0.4334727676921937,
                        1.3975100596856704,
                        -1.1662764509502122,
                        -0.07503783642730191,
                        1.0418384494294006,
                        -1.4012405650729851,
                        -0.1505604969963413,
                        -0.9059757425633465,
                        0.6251443128005861,
                        -1.3140708019853231,
                        0.6268258278498159,
                        0.41774596262555735,
                        -1.607870248099978,
                        -0.4842819506317512,
                        1.1903135295803424,
                        0.16043881183161016,
                        0.6183503560054897,
                        -0.1892071590503272,
                        0.8722635637075337,
                        -0.7566598202731344,
                        -0.3182109015159826,
                        0.6017311412093028,
                        0.35480337992314814,
                        0.7994651341817831,
                        -0.8789061219108383,
                        -1.5127125096253211,
                        0.5811759578142258,
                        1.165127292594624,
                        0.7407930195379422,
                        1.9108823452859294,
                        0.4128537277697797,
                        -0.9147388740454893,
                        0.09137751338355865,
                        0.12749721309282713
                    ],
                    [
                        0.18965987084487293,
                        -1.5530661897506883,
                        -0.9471049163569008,
                        -1.073538815607195,
                        -0.5252741422927178,
                        1.798773167017772,
                        1.2293713451153405,
                        -0.35769440932859686,
                        -0.9042932452366603,
                        -0.4055108466274378,
                        0.9941404682972871,
                        -0.13999671209962541,
                        -0.8704968782324197,
                        -0.3617314949013356,
                        -0.3325153332021949,
                        -0.10671457688956687,
                        -0.9940908038406177,
                        0.2557437305233598,
                        0.22456724703047037,
                        -1.164672267983937,
                        1.127616239206839,
                        -0.41434125426119806,
                        1.0920703180514386,
                        -0.30795970647607274,
                        0.21807201394128548,
                        0.30185961379530474,
                        -0.3424608270899897,
                        0.7044991377120746,
                        -0.8306000337161514,
                        0.5433171597767283,
                        0.2050066440545213,
                        -0.017664174187614803,
                        0.7006825020640121,
                        0.011081450227618165,
                        -0.14185135808764818,
                        1.1425163915262426,
                        -1.865609453253496,
                        1.325841253969417,
                        -0.6769796259273511,
                        0.3298352518756318,
                        1.2856900848297677,
                        -0.4129253844104636,
                        0.12098348455773345,
                        0.07774843891135012,
                        -1.124237343522217,
                        0.16070529954855853,
                        -0.8530907406283434,
                        0.23716815350605824,
                        0.5721275689525774,
                        1.1502951602156786,
                        -0.29646370128814076,
                        -1.1912584424396016,
                        0.8560555512470432,
                        -1.9913822569732271,
                        -0.07693271443542811,
                        1.0550399947005247,
                        -0.000831193418795136,
                        -0.3959598691399114,
                        -0.22798633386241238,
                        2.041723125968651,
                        -0.019903291769225475,
                        -1.2925331204377302,
                        2.0202120337059117,
                        0.38316255595768045,
                        -0.9892170841665013,
                        -0.3606153176915536,
                        1.5992930348963905,
                        -0.8387012834628637,
                        0.5781821624319202,
                        0.7149539489494852,
                        0.3043143731102887,
                        0.034546211197436824,
                        0.026830484038028173,
                        0.9547854104205543,
                        -0.6860811758368052,
                        -0.18555440457445233,
                        -1.7237423747991816,
                        1.5706645900832514,
                        -0.11991477116367358,
                        -1.1471342554572566,
                        0.40164800880111545,
                        0.27316123492819083,
                        0.32510690784128526,
                        1.2929902765920704,
                        -0.799606839340116,
                        0.7621629839949879,
                        -0.9527764136052207,
                        0.918038741537623,
                        0.6256895009814668,
                        -2.4781301652268035,
                        0.6868795436785194,
                        -0.7144962797078055,
                        0.7845566561569339,
                        0.8095593180016473,
                        1.6150955308720665,
                        -0.5971558584795507,
                        -0.8823945401044279,
                        0.23499120876180954,
                        -0.8342896201177934,
                        -1.4140476572347418,
                        0.5608335997182419,
                        0.10209927241251127,
                        -0.3118518521865857,
                        1.6142504548123855,
                        -0.9868206411705785,
                        -0.02688031117626502
                    ],
                    [
                        -0.12660379666222268,
                        1.2780962038761647,
                        0.6195748009239197,
                        0.48381508662372247,
                        1.1179012447012764,
                        0.4873337663158395,
                        -0.11483030382252891,
                        -0.5258758036239459,
                        -2.3208106919724867,
                        0.6049070579496387,
                        -0.18827256541694282,
                        -1.5110200236849727,
                        -1.9506963307526204,
                        0.8771081785236245,
                        -1.9606866340211289,
                        0.2525301298981981,
                        0.1887515765578924,
                        2.0956607325812286,
                        0.3567309563035825,
                        -0.36908857293014025,
                        -0.2766261938183521,
                        1.4435321950531725,
                        1.166391739064261,
                        0.9063548577350414,
                        -1.6366008208006153,
                        -0.375679506378283,
                        -0.72223811434703,
                        1.1961295175266515,
                        -1.2504450056298517,
                        0.631565861532616,
                        0.17970529896408657,
                        0.8212859963781302,
                        -2.1761289292142707,
                        1.0829112675216943,
                        -1.416925865134119,
                        0.907438222203949,
                        0.2506124030399685,
                        -0.5852276146509113,
                        -1.8815926320591054,
                        -0.1582359411945189,
                        1.303139704278884,
                        -0.5475740909816383,
                        0.6432559479815483,
                        -1.3485994991797845,
                        0.8991968468639031,
                        -0.7146901701665634,
                        1.804005598142499,
                        0.03565134050075439,
                        -2.1815031656208803,
                        -1.365499084572471,
                        -0.5681677194425045,
                        0.5433951468252732,
                        -0.30036322964315704,
                        0.13412259305499644,
                        -1.2381856895303704,
                        -0.10097867115618969,
                        -1.0769218579484663,
                        0.41092592649900866,
                        -0.3308652398116092,
                        1.19357743741614,
                        1.4047844516921866,
                        -0.14091605890266848,
                        0.918259867753223,
                        0.09894772579157608,
                        -0.21470139967860544,
                        -0.7052304279143613,
                        1.226539703884221,
                        -0.7234552053502726,
                        0.7771379721770312,
                        0.7229694318837221,
                        -0.45738690333792814,
                        -0.24714010603563633,
                        -1.163711703961302,
                        0.8113611429936289,
                        0.34229542883716757,
                        1.4283659469320138,
                        0.6525353247377582,
                        1.2350556576686824,
                        -0.6546645686804359,
                        -0.1684902160163883,
                        0.06673141947845544,
                        -0.38325230760556844,
                        -1.114285885563338,
                        -0.8843960509521286,
                        -0.564213718423798,
                        -0.07250496500014003,
                        0.25679927364778904,
                        0.5107958445995394,
                        -1.109704259530816,
                        -0.25060304968023595,
                        0.7545906386867299,
                        0.46195782673411667,
                        0.0441057145419304,
                        -0.34130729979859853,
                        -0.32626371309208013,
                        -0.6265857573109543,
                        0.24760755339558377,
                        -1.72178304307238,
                        -0.7253233072712041,
                        0.7278066348446087,
                        0.8357066669991207,
                        0.7239735393834019,
                        -0.8907680338355352,
                        2.7950504801267866,
                        -0.9189809802283656,
                        0.9892680744229447
                    ],
                    [
                        -0.9817337871682913,
                        0.7686196996739182,
                        -0.10305590298050664,
                        -1.7521768352851572,
                        0.48997705827473764,
                        -0.48959287350925174,
                        -1.3484458648163107,
                        0.16896219659360434,
                        -0.2628955583346683,
                        0.03398053061750926,
                        -0.2865835874041919,
                        0.22302197862916087,
                        0.05647520167915524,
                        1.250163919677422,
                        -0.0982197803839207,
                        -1.0874360221877433,
                        -0.3543554356075452,
                        0.7316364507558129,
                        0.43791360048982253,
                        1.246146589239475,
                        0.2900470194139778,
                        0.38552767267097754,
                        0.7813709548571147,
                        -0.2923040685010991,
                        -2.5783285323733494,
                        -0.017131206374065337,
                        0.4315641705755194,
                        -0.07164257539253434,
                        0.23364158409812252,
                        -1.5740008174189932,
                        -0.39846008969522784,
                        -0.8687885588565029,
                        0.44339887378518245,
                        0.3636421832609127,
                        -2.1845593557941396,
                        -1.4199789667589509,
                        0.5854110620637024,
                        1.6143724355203384,
                        0.09838645388566095,
                        -1.4540224514725941,
                        -2.2023802662969447,
                        0.2313280331061391,
                        1.129668752902032,
                        -0.5768414527001581,
                        -0.36346008206788255,
                        -1.7365222387384311,
                        0.2540023970672316,
                        0.8374176509214125,
                        -0.43814945689854684,
                        -0.5305827261031375,
                        1.332574716975313,
                        1.2599082934709402,
                        -0.8442451982880598,
                        -0.931950243697952,
                        1.5603856291550768,
                        0.3872604172527244,
                        -0.010379306654035607,
                        -0.8844752738134223,
                        -0.9989564864348507,
                        0.7678651395701824,
                        0.7911373501178589,
                        1.6672006603264595,
                        0.8605944555526726,
                        1.5526384959868378,
                        -0.3959264973167864,
                        1.671527641898525,
                        -2.1358581236388274,
                        0.8457184601262142,
                        -0.6433561256370733,
                        -0.34416590220961435,
                        0.09771071450674412,
                        -0.09493285779138011,
                        -1.0945231851353805,
                        -0.2451680058709035,
                        -0.2729937726201982,
                        -0.6615303518945076,
                        0.32697333725874633,
                        0.29532271031368273,
                        -2.2954023648207307,
                        1.8520950437370582,
                        -0.5667237911586682,
                        0.4389355618719757,
                        -0.3676789234592214,
                        1.6776441990906392,
                        -1.2279661042810868,
                        -1.3382110636391364,
                        -0.09703467546347119,
                        -1.1176662945374767,
                        -1.3842972212367188,
                        -0.8216543395140053,
                        0.17599659908009924,
                        0.08913870239722044,
                        0.3880882768156184,
                        -0.5349150420556187,
                        0.7924860240445795,
                        -0.5317398431561177,
                        -0.272293001846669,
                        -0.5855884430299707,
                        0.6979297740473651,
                        -0.6203729162219229,
                        -0.023185634428259796,
                        -0.38852120646593047,
                        1.1410299607959116,
                        -0.14160172708427043,
                        0.8356975665281505,
                        -1.5970937049807856
                    ],
                    [
                        0.5004432606954421,
                        0.020836868201671785,
                        0.5274843071545617,
                        -0.662147333853774,
                        0.37223350859675686,
                        1.598467261499414,
                        0.7023225322855149,
                        1.0747037814915112,
                        -0.1657864172878959,
                        1.1950406985602833,
                        -0.5787042575032544,
                        -0.08178395703170845,
                        -1.5058232477441365,
                        1.7287471785756454,
                        -0.1338882558064071,
                        -0.5024053924384755,
                        1.813699604004682,
                        0.19138378913219317,
                        -0.4201921375578603,
                        1.1304235914754575,
                        0.6841751649650797,
                        -0.8732896118799444,
                        -0.8276862411995957,
                        1.1033734814826288,
                        -0.14601491585782694,
                        0.7825404501273918,
                        0.6926327301312563,
                        -0.7614762344987696,
                        2.6679127344643367,
                        0.2218366995758386,
                        -0.44855047801067915,
                        0.6914796219244249,
                        -0.6522778202601005,
                        -0.8107435129055092,
                        -0.6118183702225417,
                        -0.3405790357189778,
                        -0.22274051293785452,
                        -0.28448707444489596,
                        -0.10868048473249475,
                        1.6826272071360986,
                        0.2195527990857285,
                        0.6552304508565907,
                        -0.5218168441382341,
                        -0.3914394266744153,
                        -1.7583858229698062,
                        1.549782189197551,
                        1.3492537791439017,
                        -0.9619260403706028,
                        -0.8817192706351864,
                        -1.1794667436853075,
                        0.7347487457551539,
                        0.29942539443038796,
                        -1.3124531465310911,
                        0.5864939522189501,
                        -0.46029285330272707,
                        -0.2165425003152858,
                        1.1717243347600133,
                        0.7953485129471894,
                        -1.935317626834304,
                        0.08916195654351951,
                        0.6758494287318001,
                        0.5827802729312427,
                        0.9105228465910733,
                        -0.8807533167254538,
                        0.3667262048989557,
                        -0.18229508068701453,
                        -0.20405975494825299,
                        -0.32750849443656144,
                        -0.6851099908104322,
                        1.2481901891677296,
                        0.5244417473560725,
                        -0.5302700599059905,
                        -1.0072836177278919,
                        -0.49112977336588076,
                        -0.1730970205416884,
                        1.9158040448716203,
                        1.0572761802352681,
                        -0.5726495513309027,
                        0.0077241158737310295,
                        -0.7786836755703539,
                        0.05181857697118896,
                        -0.2146715998727293,
                        0.6437401654120909,
                        -0.6322673544599333,
                        0.7204266930246357,
                        0.6571803785990205,
                        -1.3369929261477653,
                        1.268635880771853,
                        -1.501235629677911,
                        -1.5407235002221744,
                        1.9471659549744393,
                        -0.4553521474222527,
                        0.519979266929715,
                        0.21951723972389725,
                        1.5495932671227435,
                        0.0359834930380976,
                        -2.57143945728682,
                        -1.5991934263974592,
                        -1.130506038630629,
                        -0.11663910283278887,
                        2.5921958030778725,
                        0.5885257803158973,
                        -1.0928429379008155,
                        -0.399192706179564,
                        -1.0345935729406002,
                        -1.0437756733290646
                    ],
                    [
                        0.09771398701548603,
                        1.3828993449114282,
                        0.3390263461595263,
                        -1.0697574251495348,
                        0.8502639816810398,
                        -0.8576634528215086,
                        -1.7433536644222793,
                        1.1257310331189552,
                        -0.8268428273953022,
                        0.3167892869043405,
                        0.6120393143022912,
                        0.018854270052808774,
                        1.0360667408597382,
                        -0.7143019821700726,
                        0.17815683617607458,
                        -1.634271554460233,
                        -0.9199664697888982,
                        0.6875062950869901,
                        -1.0024095878518606,
                        0.09406056874374989,
                        -1.1242761498783818,
                        -0.11266893715065535,
                        0.6307507542581641,
                        1.6842665495772469,
                        1.1274881515991397,
                        1.557735859226989,
                        -0.7105049809886271,
                        -0.24413659862256687,
                        1.2317331019390787,
                        1.3967917676866075,
                        0.5209608379101371,
                        0.8458275536144448,
                        1.1417285738231657,
                        1.2377759008265543,
                        0.008523347427755418,
                        -0.5291478071159399,
                        -1.5141688697835356,
                        2.135808457715215,
                        -0.02244706194571487,
                        -0.421402937736396,
                        0.29480598557757565,
                        0.12111886191575534,
                        0.16912559043123931,
                        -0.5148559198847643,
                        0.8298745104665152,
                        1.3509203754420251,
                        -1.0368573300089095,
                        -1.5291643890215012,
                        -0.8001431203291286,
                        1.3581205143027753,
                        0.5118650137070669,
                        -0.5088879418324512,
                        -0.9376692190083651,
                        -1.9189157556312513,
                        -0.5180052400804884,
                        0.05204576112926609,
                        0.6421995058122073,
                        1.0343407170917396,
                        -0.28656486200864223,
                        -1.371271257383671,
                        -1.3838124693545566,
                        -0.8630408609351993,
                        -0.674831825946361,
                        1.0784287673459947,
                        -1.0776558803509315,
                        -0.5501899714869798,
                        1.0318993473973104,
                        1.3271329838727142,
                        -1.2684398174155156,
                        1.332915682717858,
                        0.35046716950560847,
                        -2.1748556575694025,
                        -0.4668297765702454,
                        0.5345146928715754,
                        0.5111178749829325,
                        -1.101141377322776,
                        1.5618632454854429,
                        0.6480890828107588,
                        -1.0416986794880507,
                        -1.1952369472796907,
                        1.2897282934104028,
                        1.0056323358379045,
                        0.5829835394717254,
                        0.5448702653642523,
                        -0.605279744859082,
                        0.7948371497426306,
                        0.2283771044980873,
                        -1.207745523386297,
                        0.4773737581603196,
                        0.2319906647468901,
                        0.6165641261584781,
                        0.28632993093066494,
                        -1.4859532202937658,
                        -0.33598503524987916,
                        0.20492540814878418,
                        1.4749253559602218,
                        -1.4034039619992553,
                        -0.19269457615767238,
                        -0.2286471267425269,
                        -0.29596848263423886,
                        1.1844529489742222,
                        -0.7372459567600166,
                        -1.2550469426854771,
                        0.3709692216678477,
                        3.09234832531879,
                        0.18283842524779395
                    ],
                    [
                        -0.8260865067589714,
                        1.1452201779074636,
                        1.7082799744437633,
                        -0.7155613118127978,
                        -0.6124964363190761,
                        -0.5541506233653795,
                        -2.131328286853603,
                        -1.9862161013916106,
                        0.9406173179883028,
                        0.6007486360554992,
                        -0.779833721637701,
                        0.5463206835197373,
                        0.544376860338048,
                        -1.5293681504200758,
                        1.7667353740047742,
                        -0.36277608673201567,
                        0.16603683111334844,
                        0.1923591105173256,
                        -0.500361360598184,
                        1.141437489817991,
                        0.4097688080906856,
                        -1.1499262861896742,
                        -0.4081079662255266,
                        -0.36283644024738954,
                        -0.3966235760004442,
                        -1.3482838320189898,
                        -1.1236659260951327,
                        -0.010713131773722556,
                        0.9294317789381001,
                        -0.2739149648155595,
                        -1.4944785225832504,
                        -0.600662290936284,
                        -0.721784594315299,
                        1.2162283803022473,
                        0.5671310843538583,
                        -1.9122654910186172,
                        1.911363820162354,
                        -0.6867530839037237,
                        -0.16807868573183107,
                        1.8707338923298868,
                        0.7267042308527135,
                        -0.9949560953954073,
                        0.03463236638544984,
                        -0.6698904070913775,
                        1.0110888120264114,
                        -1.2381490318718456,
                        -0.019443045692995292,
                        -2.3188599759095134,
                        1.0466105827319376,
                        -1.5407431105361482,
                        0.09149738453056318,
                        -1.5647019532498965,
                        -0.32592014790803914,
                        0.3371254258767017,
                        -1.2172674369622438,
                        0.031002574587256755,
                        -0.24245416124531027,
                        0.4263910543148871,
                        0.10649453931231041,
                        0.326886786639906,
                        -0.709385788629745,
                        -0.20795617661769414,
                        -0.17791621511599057,
                        -0.1717380142200744,
                        -1.8152620306600358,
                        0.2722529699820443,
                        1.5996388924142064,
                        -1.0097637904145602,
                        0.47544919929069257,
                        0.045723809242917204,
                        1.5262463725952018,
                        0.9610833898654058,
                        0.2108862016563789,
                        0.1862201293805394,
                        -0.32152372446069183,
                        -0.22633249927594193,
                        -0.8328301386089768,
                        1.505785372491963,
                        -0.32507223187243506,
                        0.43668724574557855,
                        1.7800382274236457,
                        1.3508102842917467,
                        -1.5403947541065066,
                        -0.14014800248799664,
                        -0.9641013456824155,
                        -2.320071666009016,
                        0.1844310339423002,
                        2.446775016220266,
                        0.166950150406342,
                        0.016831967758848838,
                        -0.8858254225404578,
                        -1.470138636454336,
                        0.979654367501302,
                        -1.0964519389977525,
                        -1.5583265111855853,
                        -0.3756481794829609,
                        0.8919444260792564,
                        -0.588604268137418,
                        -0.16661955174098136,
                        -0.6120374743184718,
                        0.3228029979273445,
                        -0.4556138435962581,
                        -1.2158739563601177,
                        0.21232419345402134,
                        1.7087103343694963,
                        0.15578495422044855
                    ],
                    [
                        -1.2303348128791554,
                        -0.004206740505116459,
                        -0.7432515469047346,
                        -1.0804202631790836,
                        -0.7157400498236609,
                        0.6219486011761991,
                        0.015383413858252145,
                        1.0510067391767381,
                        0.05247559875855342,
                        0.200387569721289,
                        0.48657422330685135,
                        0.9040744435267228,
                        -1.4993777925398737,
                        0.25723616690556833,
                        -1.0345064198869949,
                        1.5702850596226203,
                        -0.4240277163096236,
                        1.4989185396860478,
                        0.6204940921388004,
                        2.0796013513189333,
                        0.8008506867493603,
                        2.017756311540095,
                        1.5092888386173242,
                        0.7754623871338662,
                        -1.5674027743348455,
                        1.4016534990074483,
                        1.5083742551312351,
                        -0.3164659799372312,
                        -1.1235644194392964,
                        -0.21137535729194282,
                        -0.8311694069755096,
                        1.037038041414586,
                        -1.5576324032323976,
                        0.7862786403075683,
                        0.17269740435341635,
                        1.6253442296985756,
                        -0.42821627175351695,
                        -0.6013241970095508,
                        1.4412425918821439,
                        -0.16095638491721637,
                        0.6532997682641943,
                        -0.7872995646505082,
                        0.7723715390946626,
                        -0.08262982900502581,
                        1.3971583467808062,
                        0.4654893978014385,
                        0.34109712079900495,
                        0.8516508805611456,
                        -1.1240053268771228,
                        0.016314970440095753,
                        -0.4997255232068395,
                        -0.6942344204780786,
                        -2.057927124781355,
                        0.8486129970511045,
                        -0.9185964859693174,
                        -0.4544635444117813,
                        1.2110789626621514,
                        0.007057118541215711,
                        -0.6476489986277872,
                        0.03548051822251822,
                        2.306527205919617,
                        1.0990901758630283,
                        -0.20402228491426888,
                        -0.10203847959343137,
                        -1.237025776813761,
                        -0.027348215694122203,
                        2.4292995216638578,
                        1.4151586402243679,
                        0.5668445011264722,
                        -0.4830839882093773,
                        0.31451076098199204,
                        0.6623351014554244,
                        2.472677077403975,
                        0.7466935848239992,
                        0.3079950655942115,
                        0.024017388853517653,
                        1.0265746329059515,
                        0.903446101926682,
                        -0.48087925530048076,
                        0.22287318159720998,
                        0.06264133856855658,
                        0.2203387524496992,
                        -0.4496346786251858,
                        -0.1877033667699038,
                        0.5121169649106753,
                        1.3000390466324812,
                        0.16324863326867667,
                        0.8495987875209939,
                        -0.23595939358508247,
                        -0.4016062424388717,
                        1.2188069657953104,
                        1.4805538149468216,
                        1.3753904151059801,
                        1.2405054564515605,
                        -2.2196638977461514,
                        -1.5753085092939179,
                        0.7421493920593972,
                        -0.8527834026494492,
                        0.6726734944278446,
                        0.6963997065648405,
                        0.6330773093052898,
                        0.01908269930230857,
                        -0.2884164189949669,
                        -0.5486512110077937,
                        0.42812884199581247,
                        -2.426513518158197
                    ],
                    [
                        0.6395371658508296,
                        -0.39758194205055297,
                        1.8607032021267795,
                        0.397731800732281,
                        2.1586042767327953,
                        0.1295224370488426,
                        -1.0258818980338276,
                        -1.3793329924304654,
                        0.794423358890487,
                        0.4377518715584326,
                        -1.8104350972453525,
                        -1.518680138725281,
                        0.35381393192526484,
                        -0.38226012380040325,
                        -1.3431548726113112,
                        1.855284315522171,
                        0.37489343502915523,
                        -1.1572362476203304,
                        -1.0338902589872956,
                        -1.7691230396484077,
                        -0.7459781734569352,
                        -0.027485266190852294,
                        0.019291277158557857,
                        -0.38550783047525383,
                        -1.0297118393668687,
                        0.6015660061367522,
                        1.9766941093586898,
                        2.043236616727367,
                        -0.6385175020261544,
                        -0.45841398865399774,
                        0.5286986635682089,
                        -0.09141380479030274,
                        -1.2609787046603396,
                        -0.14740529140661598,
                        0.8815356116964134,
                        1.527854486230319,
                        0.5650427908149259,
                        0.20837291450062992,
                        0.3019412448641543,
                        1.12643234965356,
                        1.0429785683618646,
                        1.562020796783229,
                        -0.11805848872438598,
                        0.49803486631420313,
                        1.2063529620209403,
                        -1.0193625858343316,
                        0.331395797610523,
                        -0.27038562547994316,
                        -0.043343589439157934,
                        -0.5572844826096143,
                        -0.6359332224176975,
                        0.22473888360825817,
                        1.0046303223501274,
                        0.9650080554297567,
                        1.1705187383653575,
                        -0.6627388538525039,
                        0.12676916618610093,
                        0.15335630432647118,
                        -1.3605964493623455,
                        2.8614809475398992,
                        0.07285569825056055,
                        -1.0678066954178913,
                        -0.9098643280773573,
                        0.2614646523800204,
                        -1.1311815218508245,
                        0.8075951264720657,
                        0.7421546568214024,
                        -1.1825999857707632,
                        -0.4123760207310421,
                        -0.0055096413430599156,
                        -0.747290069962712,
                        1.228054346702024,
                        -0.912387724211764,
                        0.2754141448299344,
                        0.8867854973579905,
                        -0.4404559874154575,
                        -1.0398029513773563,
                        -0.40162585568352704,
                        -0.6140152140340145,
                        0.43566361021441696,
                        -1.1385458228029623,
                        -2.0456782464100076,
                        0.8527999204477613,
                        0.5565436288001581,
                        1.2787712836209302,
                        1.7166235064134012,
                        1.7195759559434551,
                        1.2825582216449731,
                        -1.0130786108093992,
                        1.1935094365098566,
                        -0.9650656530621173,
                        0.2543656650917002,
                        -0.8187163838072451,
                        -1.5176656458384843,
                        0.5697767628963654,
                        -1.1329711920779482,
                        0.289767415572798,
                        -0.6871013427187246,
                        -1.0012701289568133,
                        0.2681928058878835,
                        -0.9986199969815789,
                        -1.4167488179605754,
                        0.46216616839445046,
                        -0.010842379728210836,
                        -1.4069766038501046,
                        1.0596608534611067
                    ],
                    [
                        0.2879304626213324,
                        -0.2235170322876453,
                        1.069220738028892,
                        -0.10259491614454337,
                        0.6661701812144689,
                        1.0191686217396725,
                        -0.695166044060185,
                        0.26006938246787054,
                        0.9795025161313674,
                        -1.5482909119398165,
                        -1.5294994838120368,
                        -0.052508766911569804,
                        -0.1660016892840603,
                        0.9153765649479584,
                        -0.49725800307142015,
                        0.30812808171911776,
                        -1.7509791739931515,
                        2.507852069008679,
                        -0.3828394267926107,
                        1.0454051864300142,
                        -2.4246881718006166,
                        0.3222756410057149,
                        -1.2347845664342532,
                        0.4905330736333234,
                        -1.9058922328244532,
                        0.42426531581051213,
                        -0.35137304260092106,
                        1.619343789930135,
                        0.32565397614024877,
                        0.5446719266243336,
                        -0.7242795777718883,
                        -0.23028064739791612,
                        1.3984539792907922,
                        1.2758672773353619,
                        2.0738138816225344,
                        -0.4478974248213691,
                        0.9771174542080078,
                        -1.1454884338140332,
                        -0.015602269047323158,
                        -0.27415971450009713,
                        0.5130654407678863,
                        -0.73536914013906,
                        0.7161367336169362,
                        -0.6656683197921173,
                        0.809223755564697,
                        -0.3444959744500128,
                        0.21466887274212493,
                        -1.2455600101046669,
                        -0.5447915227017346,
                        -0.6666994276326877,
                        0.8252167560089267,
                        0.5107551212664379,
                        -0.825543963319814,
                        -0.4931881472437732,
                        -0.6100680994979345,
                        -0.4491793712239931,
                        -0.15880963641363127,
                        1.8114824800720313,
                        0.21850151463240855,
                        0.010400497131885022,
                        -0.46061808693198625,
                        1.5210069277541427,
                        -0.6913075188966957,
                        -0.2506394668620006,
                        0.44330513560650747,
                        -2.0222864195840304,
                        1.4828920227057705,
                        0.04959193042253245,
                        0.19122896337916173,
                        -0.4386112257324339,
                        0.2295008742269784,
                        -1.8303335499972713,
                        -0.7949473947474739,
                        -1.1018295009012722,
                        -0.014135929778645162,
                        -0.7660995798753129,
                        -1.1577656958161304,
                        0.36742752586283844,
                        1.053011918120685,
                        -1.4197605655908787,
                        0.28254073944255087,
                        -0.17808370384712086,
                        0.40665101987853536,
                        -1.299177525494343,
                        0.7887830553419577,
                        -0.02450483027392788,
                        0.22215307836011808,
                        -0.9354078523999849,
                        -0.8290904469102052,
                        -0.06784455322120561,
                        1.735036386616665,
                        -0.8283572481268527,
                        1.2234155449124098,
                        -0.8470870974609649,
                        1.2916041143793933,
                        -1.5833209722450399,
                        -0.33039264445826994,
                        -0.8085650211245127,
                        -1.1437622722741467,
                        0.04970300521536694,
                        0.8415287150813252,
                        1.980709179014453,
                        1.5203590308906625,
                        0.1606178031946603,
                        0.40115636819840655,
                        -0.07972541598256908
                    ],
                    [
                        -1.9489376505800065,
                        -0.7661144299460415,
                        -0.7541719056848558,
                        0.7454507756553188,
                        0.42962832874068096,
                        0.2981480687437351,
                        -0.4155252158746084,
                        -2.302831142694109,
                        -0.31720403958035687,
                        -0.5516983000603706,
                        0.9660065650155782,
                        0.6346127513421361,
                        -0.6138348118208197,
                        -1.2200443890394652,
                        -1.0541883135804078,
                        0.9874228077706283,
                        1.5233261001048375,
                        0.24331108608934607,
                        -0.7253750033287717,
                        -0.09702811827670195,
                        -1.1838253613269567,
                        0.3994712492547844,
                        1.3581217982082079,
                        1.1384090312461228,
                        -2.0842085707687503,
                        -0.7441616146618789,
                        1.3164869187022241,
                        0.9744313548811772,
                        -1.1377081561008067,
                        -1.098730613294334,
                        -0.6353684779777494,
                        0.1033201393080476,
                        1.5702677931333622,
                        0.11614175274600182,
                        -0.4407219618744939,
                        -1.2153438618549866,
                        -0.5334417049474682,
                        0.09157483884504992,
                        0.2720471422936477,
                        0.26493753231740486,
                        1.7790136119327313,
                        -2.1243359467262035,
                        0.5796247558942957,
                        0.26387920138571713,
                        -0.7226428793442912,
                        -0.14179856369025845,
                        -1.5047202046013082,
                        0.7787993879852447,
                        -1.2112799113852364,
                        -0.2495031955990416,
                        0.36461900882243636,
                        0.17838155228135757,
                        -1.3532865079418779,
                        -0.44971561432143364,
                        -0.4166802497696315,
                        0.8748032748703192,
                        -0.2655607911702508,
                        0.14452379541533011,
                        -1.2913853967015692,
                        -0.8789155302872834,
                        -1.5295027366476128,
                        1.5219430089835517,
                        0.296888692573745,
                        0.09265999920119182,
                        0.9744877901442087,
                        -0.14292295371320782,
                        -0.4247846546250434,
                        -0.01600210631194168,
                        1.5649230154535307,
                        1.2181810549651781,
                        -0.2250698044140077,
                        1.2261744209634233,
                        0.7412404269226701,
                        -2.134877965532979,
                        -1.6202332537933497,
                        -0.28238600042432915,
                        -1.4127872499128116,
                        -0.21851848025350296,
                        -0.0871156893473107,
                        1.526591654464112,
                        1.0990926575092543,
                        -0.2061948449255729,
                        -0.7828860975459969,
                        -0.7249982423882487,
                        0.8977409523272327,
                        0.6618941634183279,
                        0.8026994885114888,
                        -0.26920743048131474,
                        0.5739363461253774,
                        1.7924884552569138,
                        1.5729580228353757,
                        0.4019530015635538,
                        -1.501263024449312,
                        0.24177380343484517,
                        -0.7931087957492616,
                        -0.12319620405361993,
                        -0.9161838673027441,
                        -0.05131251700033307,
                        -1.0095037326084493,
                        1.3858991423571994,
                        -0.2231089893902149,
                        0.9617585044344439,
                        0.9728228429798386,
                        -1.453386059717174,
                        -0.6946135849560541,
                        -2.218358461382262
                    ],
                    [
                        0.7238844632346465,
                        1.3867991096407288,
                        0.017063874331128798,
                        -0.46452929214380606,
                        -0.009979403969744729,
                        -0.29872545883025176,
                        0.21033399942572106,
                        -0.9409975616297789,
                        -0.8218688488325752,
                        -0.8890403992958185,
                        -1.6125959381996513,
                        0.8644074162980762,
                        1.9600417388139129,
                        0.7480125641467484,
                        0.4716750178633006,
                        -0.02868833988014261,
                        -0.771969480237186,
                        -0.9144066772978863,
                        0.474205950646702,
                        -0.09793985902993566,
                        1.4170274108331768,
                        0.04746262627253017,
                        -0.23842860188263057,
                        -0.3453202843344797,
                        0.29265512696257967,
                        -0.5461139368778735,
                        0.8863481991123271,
                        0.2885890056223408,
                        -0.18175304396838704,
                        0.5098344418053452,
                        1.695968791340763,
                        -1.1969843124619615,
                        -1.9689385359127922,
                        -0.5876917501751477,
                        -1.1222078141557026,
                        0.3271799292904615,
                        -1.2225356256475017,
                        1.2200152569448872,
                        1.9667459163230236,
                        -0.4126558640567569,
                        0.9782015052203602,
                        0.6251839674215851,
                        -1.1808876186084742,
                        -0.6452209031536718,
                        1.440996258144386,
                        0.11273866239404338,
                        1.280089409528938,
                        -1.8217818366792673,
                        0.7453549724630704,
                        0.9159984340263104,
                        -1.4128257579396508,
                        0.017595089325594566,
                        0.8892582423682033,
                        -0.931509307408076,
                        -0.0035201286610602516,
                        -0.6671440231701925,
                        1.6412464823483144,
                        -1.1486137339636626,
                        -1.6780196452706577,
                        0.715203317813512,
                        -2.0269074253273205,
                        -0.47344446017986885,
                        0.03514821215202825,
                        -2.0818414996731756,
                        -0.5635179534019997,
                        0.6975114404392698,
                        -0.5833537064264723,
                        -0.29251644525324433,
                        -0.7155805500677094,
                        -1.6221245339183754,
                        0.5896433743850543,
                        -0.11126923001636503,
                        -1.0916461747403343,
                        -1.9083768510991987,
                        0.7985993952630063,
                        -2.0131076032388537,
                        1.0825100024289978,
                        0.22009802312162485,
                        0.8554766668977544,
                        -0.43677638037408734,
                        0.6802044060056872,
                        -0.521046800798231,
                        -0.28268340938713826,
                        -0.7357393481908463,
                        1.1441253133504754,
                        0.5779570825841108,
                        0.38875256491986804,
                        0.08382465261840331,
                        -1.03645472449081,
                        0.30798894589800074,
                        -0.24451964869894724,
                        -1.3497054084754696,
                        -0.5681203607303169,
                        2.001945049965239,
                        -0.9954582772282975,
                        -1.4813630734569534,
                        -0.627540459307596,
                        0.16089203830471366,
                        2.0208232824220347,
                        -1.6046603713395666,
                        -1.1849543382489287,
                        -0.6207663977695137,
                        -0.22272920394418622,
                        0.9971950260894741,
                        0.1298363698879967,
                        0.02503973064282704
                    ],
                    [
                        -1.4532360294963556,
                        0.2814931102577114,
                        1.9203993823282919,
                        0.09470694493679782,
                        0.1792723114195684,
                        -0.8422497618291361,
                        1.4336996745172246,
                        1.762704157192687,
                        1.7495997651297588,
                        0.07337528982469589,
                        0.9449866073342819,
                        -1.3060205989323217,
                        1.9528593281838753,
                        -0.5994504983967226,
                        0.9905626193526474,
                        0.4215328131489156,
                        0.6484126147725455,
                        0.46604042641100646,
                        -1.2294916688812914,
                        -2.6691087579493327,
                        0.6846715840763568,
                        -1.0856601526259109,
                        1.271539947583466,
                        1.4684977407817377,
                        -0.9845014224452334,
                        0.622533533636536,
                        0.4273417286871251,
                        0.9080376230892234,
                        -1.2157269980812027,
                        -0.8440564854004114,
                        2.4962221066162256,
                        -1.2513200057497722,
                        -0.13200194850452762,
                        -0.5639148460974027,
                        0.06260417912206705,
                        -0.0034843346239866956,
                        0.762740974601161,
                        -1.042866706676113,
                        -0.7087019873840843,
                        0.5529643231827897,
                        -0.9655706787322542,
                        -1.4337050426255653,
                        -0.4415016809397794,
                        -0.25557533377853253,
                        0.9606330799160796,
                        1.6425514089163231,
                        0.14547523430083725,
                        -0.1877708151770711,
                        -0.17805973498094466,
                        -0.440713798223393,
                        -2.296957430432419,
                        0.6842925029096387,
                        -0.6056318554704438,
                        -0.003995670499578304,
                        -0.10278656589767846,
                        -0.4889094491224836,
                        -0.36995294070958173,
                        1.6764853195324172,
                        -0.893975821056883,
                        1.6078825687302625,
                        -0.7974947590158322,
                        0.734844156745555,
                        1.0435155686540631,
                        1.1300098045051359,
                        -0.04540320420485842,
                        1.6317329784841608,
                        -1.0250815874889305,
                        -1.4047136258679986,
                        0.07708073463646549,
                        0.8350831937089815,
                        1.1321162615855018,
                        0.2487154821960223,
                        0.5254205245971486,
                        0.45595597969162505,
                        -0.2694274136480929,
                        0.4315727918518196,
                        0.9121686006133395,
                        -0.9877828935575655,
                        -0.5995619793849118,
                        0.41355957379218367,
                        0.334496984754534,
                        0.536768558963376,
                        0.6546510762795714,
                        2.0478010245026543,
                        0.6599879277299766,
                        0.48280796315857977,
                        -1.8488784562111646,
                        -1.1497846183212064,
                        1.2633769400572943,
                        0.7961422231384501,
                        1.1818751999247938,
                        0.4924207381713105,
                        -0.38105675790545385,
                        -1.0850528315486936,
                        2.038513817940167,
                        1.5744141379144867,
                        0.6498649423324897,
                        -0.9266007578903275,
                        0.8631066609049552,
                        0.47974082988057143,
                        -0.8643202053524289,
                        -0.3980768014738895,
                        -0.9500409054689574,
                        0.43923484632354565,
                        0.401896114232042,
                        1.4219617258373722
                    ],
                    [
                        -0.6073098416635706,
                        -0.02561817249020038,
                        1.2036684687143226,
                        0.1367549556537115,
                        0.17796605258657217,
                        -0.36762582429972146,
                        0.46411996514165293,
                        0.4480637900158712,
                        -0.3607472813168905,
                        0.2855357322368484,
                        -1.3738489745448133,
                        0.44334265948994794,
                        1.914167751985658,
                        0.6004602180389024,
                        1.5600626015593233,
                        -1.4935964569800966,
                        1.7060670489639227,
                        -1.6072812320040786,
                        0.7314317140126189,
                        -0.03262398310951267,
                        -0.21938150856566707,
                        0.8516490727685924,
                        -1.556003442534305,
                        -1.0794598664491823,
                        -0.8957769643736403,
                        1.1518587994823966,
                        -0.6765105431147262,
                        0.3841653424097146,
                        -1.7308105609689717,
                        0.46534240944115246,
                        -0.6810706595099267,
                        -0.844716594957782,
                        0.9552713542246682,
                        -0.6115637224248601,
                        -0.8222162102488885,
                        -0.885275557574725,
                        1.2250857492771645,
                        -0.2487390493972959,
                        -0.7088945010775486,
                        -0.8412683990163047,
                        -2.2492322065740296,
                        -0.47730506610069723,
                        -0.285018249531556,
                        -0.1966289742897906,
                        -0.17114485584840866,
                        -0.04703594588792859,
                        1.6700159849084881,
                        1.0339398196280782,
                        -0.08292331000695964,
                        -0.0584100474226583,
                        0.5884068326565367,
                        -1.4079216469712634,
                        -0.19801570458013407,
                        -1.3786793220058768,
                        -2.713161980069695,
                        2.145358310605205,
                        -1.6398720408517704,
                        0.9738365367558591,
                        -0.00640194676562141,
                        0.7651248647280083,
                        0.9996893674253411,
                        -1.885836294010774,
                        -0.22320816080661285,
                        -1.2502147652531486,
                        -1.0020450273736998,
                        0.5101120596448947,
                        0.2137352409188853,
                        -1.0704742850580506,
                        -0.8774501463939903,
                        -0.4619623115744716,
                        0.5345052781234537,
                        0.19900546683896894,
                        -1.4372058984357645,
                        -0.7879952706935255,
                        0.8917949102393045,
                        -0.04330801556932139,
                        -0.8222569964936397,
                        0.6290376061248283,
                        1.955522560673674,
                        1.695634639181949,
                        1.4380105511971935,
                        0.7602277743004557,
                        0.910662230356395,
                        -0.5826697157989764,
                        -1.0057729607972616,
                        1.195439591933271,
                        0.5894191572765749,
                        0.35979581340332406,
                        -0.19691867169801125,
                        -0.17995865065628777,
                        -0.23335817104959677,
                        1.7361132240390271,
                        0.7181235792640622,
                        0.7166365529856497,
                        -1.6675816672805315,
                        -0.4349783965950987,
                        -0.8216268227518438,
                        -2.298783792083359,
                        0.5096114762871141,
                        0.2950399529575218,
                        1.5219232671622334,
                        -1.495147425733083,
                        0.4879407292644321,
                        -1.147639297452699,
                        -0.10452092759851014,
                        -0.5829012625538941
                    ],
                    [
                        -0.5274928077095439,
                        -1.1466241680249993,
                        -1.5596622890128293,
                        1.3950716005258172,
                        0.7589516521896036,
                        0.1759985143249922,
                        -0.7913033705662709,
                        -4.19599852112384,
                        1.2756554634963706,
                        -0.18432650133349018,
                        0.960565084825376,
                        -0.8350100699584683,
                        -1.4127871462359674,
                        -0.14328817109282668,
                        -0.5320677643167407,
                        0.5455867660747348,
                        -0.8396281629917779,
                        0.11855600648065602,
                        0.18765282957093815,
                        -1.186770763094067,
                        -0.44625434350137244,
                        1.1970941764310816,
                        1.6758715258730432,
                        -0.19100260300998212,
                        -1.7538888977898153,
                        -0.6801318571683179,
                        -0.3658209455740153,
                        0.36879901610670024,
                        -0.11730506451037448,
                        1.814778723737043,
                        0.20899486494506606,
                        -0.860958396362301,
                        -0.8615492034111333,
                        1.5639693394771672,
                        -0.3683742804067251,
                        0.4097696611701028,
                        0.6124327388252678,
                        -0.6583887749653731,
                        1.2577571327100712,
                        0.31307699036401393,
                        -0.3002447910974235,
                        1.511248687045937,
                        0.3207857098640542,
                        0.6059898889631802,
                        -0.7887928206654662,
                        0.31385620353950316,
                        0.7209156629722145,
                        -0.28823846271487896,
                        1.370374068060935,
                        -0.4312500678904686,
                        0.3850560388550736,
                        -0.830491655933783,
                        -0.4088685930664654,
                        1.0156515104988588,
                        -0.5211299753257342,
                        0.786114945006348,
                        0.1508856145109705,
                        -0.7187382939719603,
                        0.49788969150720586,
                        0.7435796882115493,
                        -0.6734639376422945,
                        0.2589244818503026,
                        1.5149094913212584,
                        -0.44053430754844786,
                        -0.5681804140918609,
                        -1.5184741906754864,
                        -1.8865973391889599,
                        -0.42169454569232134,
                        -0.6677552092247877,
                        -0.2769693548522987,
                        -0.8513785810030533,
                        -0.1656279903677433,
                        0.10731210751357094,
                        -1.4328549713546246,
                        1.70109254090547,
                        -2.148682213334385,
                        -1.1830979762404212,
                        0.333868094876759,
                        -1.0633061851223302,
                        -1.3904960232045038,
                        0.6892538549557715,
                        0.11956548697372027,
                        0.8189520656250526,
                        0.6805713389156719,
                        -0.029716532901294383,
                        0.021802281826967498,
                        -0.7071702487314562,
                        -0.6726003898430183,
                        -0.5104369272543656,
                        -0.9874450482520373,
                        -0.46847868351198996,
                        -0.053475779107326586,
                        1.2258032284619205,
                        -1.0336790964842717,
                        -1.30862696712872,
                        1.658761163610609,
                        -0.716798012972406,
                        -1.5701751177324448,
                        -0.2873735643547008,
                        -1.0113667628057283,
                        0.48071584323724437,
                        0.9661842209389463,
                        0.07975970092778446,
                        -1.0337580702053908,
                        0.7935642208050733,
                        -0.05561821115630147
                    ],
                    [
                        -0.11629432673819065,
                        0.612307360321654,
                        0.16374746297572512,
                        -0.250722704193216,
                        -0.45531868453589175,
                        -0.7133284769298495,
                        -0.692776318837296,
                        0.5187509252106522,
                        -0.6374976644273758,
                        1.2031039396190828,
                        0.42767717139625294,
                        -0.03510907715829284,
                        1.886212942940307,
                        1.0410341513110017,
                        1.4764597247889077,
                        -1.684576397765042,
                        -0.24860299616410125,
                        0.217866920186314,
                        0.22328162756748396,
                        -0.6011618270948034,
                        -1.9785057002626405,
                        0.10856111634929536,
                        0.08045206702134308,
                        -0.2907300427409261,
                        0.5786697564789381,
                        0.296257259747833,
                        -0.012648247258912712,
                        0.20658216274662702,
                        1.0582978124842024,
                        1.905085689488878,
                        0.583314712770924,
                        0.4784201157168953,
                        -1.395609038823265,
                        0.43436329978973665,
                        2.4732594879032175,
                        -0.8171039811033503,
                        0.30454303078281336,
                        -1.3437958278773983,
                        -0.5632831070207163,
                        0.48397575662270675,
                        -1.0896685306670346,
                        0.5454684159744971,
                        -0.2552503065146267,
                        0.8230362340776567,
                        -1.4381792481868911,
                        -0.837483666533039,
                        0.7273661340526767,
                        -2.167258937963379,
                        1.385360413916328,
                        -1.059487803008281,
                        -1.0279790866410579,
                        1.1656026818873138,
                        -2.044334441600965,
                        1.025995057631844,
                        0.08257300837429411,
                        -0.5432139305233317,
                        -0.9822469950175261,
                        0.12325250607534215,
                        -3.946067385723495,
                        -0.9774243029012887,
                        -0.8753617568858276,
                        1.4217304814414742,
                        -0.41907482634125803,
                        -0.8988455050612211,
                        -0.762557904264573,
                        -1.6890120423122263,
                        1.6078501138836117,
                        0.10896408437098755,
                        1.3325876560159684,
                        1.5700153335613587,
                        0.7465819821890619,
                        -0.8571900807920881,
                        0.9397817631720823,
                        0.9231507505306673,
                        0.32240609376019835,
                        0.06083110913735465,
